{"learner":{"attributes":{"scikit_learn":"{\"_estimator_type\": \"classifier\"}"},"feature_names":["close_spy","high_spy","low_spy","open_spy","volume_spy","volume_adi","volume_obv","volume_cmf","volume_fi","volume_em","volume_sma_em","volume_vpt","volume_vwap","volume_mfi","volume_nvi","volatility_bbm","volatility_bbh","volatility_bbl","volatility_bbw","volatility_bbp","volatility_bbhi","volatility_bbli","volatility_kcc","volatility_kch","volatility_kcl","volatility_kcw","volatility_kcp","volatility_kchi","volatility_kcli","volatility_dcl","volatility_dch","volatility_dcm","volatility_dcw","volatility_dcp","volatility_atr","volatility_ui","trend_macd","trend_macd_signal","trend_macd_diff","trend_sma_fast","trend_sma_slow","trend_ema_fast","trend_ema_slow","trend_vortex_ind_pos","trend_vortex_ind_neg","trend_vortex_ind_diff","trend_trix","trend_mass_index","trend_dpo","trend_kst","trend_kst_sig","trend_kst_diff","trend_ichimoku_conv","trend_ichimoku_base","trend_ichimoku_a","trend_ichimoku_b","trend_stc","trend_adx","trend_adx_pos","trend_adx_neg","trend_cci","trend_visual_ichimoku_a","trend_visual_ichimoku_b","trend_aroon_up","trend_aroon_down","trend_aroon_ind","trend_psar_up","trend_psar_down","trend_psar_up_indicator","trend_psar_down_indicator","momentum_rsi","momentum_stoch_rsi","momentum_stoch_rsi_k","momentum_stoch_rsi_d","momentum_tsi","momentum_uo","momentum_stoch","momentum_stoch_signal","momentum_wr","momentum_ao","momentum_roc","momentum_ppo","momentum_ppo_signal","momentum_ppo_hist","momentum_pvo","momentum_pvo_signal","momentum_pvo_hist","momentum_kama","others_dr","others_dlr","others_cr","rolling_mean_5","rolling_std_5","momentum_5","rate_of_change_5","volatility_ratio_5","rolling_mean_10","rolling_std_10","momentum_10","rate_of_change_10","volatility_ratio_10","rolling_mean_20","rolling_std_20","momentum_20","rate_of_change_20","volatility_ratio_20","rolling_mean_50","rolling_std_50","momentum_50","rate_of_change_50","volatility_ratio_50","close_lag_1","close_diff_1","close_lag_2","close_diff_2","close_lag_3","close_diff_3","close_lag_5","close_diff_5"],"feature_types":["float","float","float","float","int","float","int","float","float","float","float","float","float","float","float","float","float","float","float","float","float","float","float","float","float","float","float","float","float","float","float","float","float","float","float","float","float","float","float","float","float","float","float","float","float","float","float","float","float","float","float","float","float","float","float","float","float","float","float","float","float","float","float","float","float","float","float","float","float","float","float","float","float","float","float","float","float","float","float","float","float","float","float","float","float","float","float","float","float","float","float","float","float","float","float","float","float","float","float","float","float","float","float","float","float","float","float","float","float","float","float","float","float","float","float","float","float","float","float"],"gradient_booster":{"model":{"gbtree_model_param":{"num_parallel_tree":"1","num_trees":"100"},"iteration_indptr":[0,1,2,3,4,5,6,7,8,9,10,11,12,13,14,15,16,17,18,19,20,21,22,23,24,25,26,27,28,29,30,31,32,33,34,35,36,37,38,39,40,41,42,43,44,45,46,47,48,49,50,51,52,53,54,55,56,57,58,59,60,61,62,63,64,65,66,67,68,69,70,71,72,73,74,75,76,77,78,79,80,81,82,83,84,85,86,87,88,89,90,91,92,93,94,95,96,97,98,99,100],"tree_info":[0,0,0,0,0,0,0,0,0,0,0,0,0,0,0,0,0,0,0,0,0,0,0,0,0,0,0,0,0,0,0,0,0,0,0,0,0,0,0,0,0,0,0,0,0,0,0,0,0,0,0,0,0,0,0,0,0,0,0,0,0,0,0,0,0,0,0,0,0,0,0,0,0,0,0,0,0,0,0,0,0,0,0,0,0,0,0,0,0,0,0,0,0,0,0,0,0,0,0,0],"trees":[{"base_weights":[-6.346118E-8,7.2635956E-2,-4.8976624E-1,-9.8964944E-2,2.8596762E-1,-9.472875E-1,7.3615945E-4,7.7956104E-1,-1.8050192E-1,5.1293665E-1,-1.5753269E-1,2.8482804E-2,-1.3806598E0,8.33496E-1,-7.509555E-1,1.0717754E0,-9.431383E-2,-8.593153E-2,-9.913826E-1,-1.2618974E-1,6.925266E-1,2.3337908E-1,-8.181776E-1,-1.0293983E0,8.9348567E-1,-4.034734E-1,-1.6972088E0,4.4789162E-1,-2.947736E-1,-1.3197505E0,2.6998886E-1,-1.0539342E-1,1.3301259E0,-1.6201827E-1,9.3630135E-1,1.21146925E-1,-1.2444861E0,8.19019E-1,-5.984978E-1,1.6551702E-1,9.4806284E-1,9.8653495E-1,-2.4809949E-1,-1.1390316E0,1.8511905E-1,-1.0539342E-1,-3.7399605E-1,3.5753176E-1,2.8907897E-2,1.5578686E-1,-4.041505E-1,-1.468305E-1,-5.858155E-1,2.9751053E-1,-3.4857538E-1,2.8907897E-2,-4.9756035E-1,-1.468305E-1,3.214981E-1,4.515142E-1,1.5578686E-1,2.0832165E-1,-7.1612336E-2,3.6807376E-1,-1.0539342E-1,-5.0490576E-1,-8.641735E-2,-9.885118E-2,4.106368E-1,2.9751053E-1,-2.6494208E-1,1.6087621E-1,-1.641992E-1,3.1559595E-1,-2.8320906E-1,3.90046E-1,-4.5958042E-2,1.5513352E-1,-2.6378945E-1,-1.1695379E-3,-4.200685E-1],"categories":[],"categories_nodes":[],"categories_segments":[],"categories_sizes":[],"default_left":[0,0,0,0,0,0,0,0,0,0,0,0,0,0,0,0,0,0,0,0,0,0,0,0,0,0,0,0,0,0,0,0,0,0,0,0,0,0,0,0,0,0,0,0,0,0,0,0,0,0,0,0,0,0,0,0,0,0,0,0,0,0,0,0,0,0,0,0,0,0,0,0,0,0,0,0,0,0,0,0,0],"id":0,"left_children":[1,3,5,7,9,11,13,15,17,19,21,23,25,27,29,31,-1,33,35,37,39,41,43,45,47,49,51,-1,53,55,57,-1,59,61,63,-1,65,67,69,71,73,75,77,79,-1,-1,-1,-1,-1,-1,-1,-1,-1,-1,-1,-1,-1,-1,-1,-1,-1,-1,-1,-1,-1,-1,-1,-1,-1,-1,-1,-1,-1,-1,-1,-1,-1,-1,-1,-1,-1],"loss_changes":[9.858935E0,8.863286E0,8.033121E0,9.774929E0,1.0936638E1,7.8707943E0,1.2064404E1,4.048428E0,9.414953E0,8.302513E0,9.8169E0,7.0282145E0,3.2883186E0,7.2430673E0,6.2388887E0,3.9194689E0,0E0,8.866023E0,5.0382824E0,7.8766584E0,7.3882046E0,9.018598E0,7.1858606E0,7.287097E-2,8.856678E-1,4.578658E0,1.9419174E0,0E0,5.8463693E0,3.3623743E0,3.2365012E0,0E0,3.7522316E-1,7.0706463E0,3.3906035E0,0E0,4.1779556E0,4.1986055E0,6.131183E0,5.4487324E0,8.370777E0,3.6436357E0,7.9695225E0,3.5101461E0,0E0,0E0,0E0,0E0,0E0,0E0,0E0,0E0,0E0,0E0,0E0,0E0,0E0,0E0,0E0,0E0,0E0,0E0,0E0,0E0,0E0,0E0,0E0,0E0,0E0,0E0,0E0,0E0,0E0,0E0,0E0,0E0,0E0,0E0,0E0,0E0,0E0],"parents":[2147483647,0,0,1,1,2,2,3,3,4,4,5,5,6,6,7,7,8,8,9,9,10,10,11,11,12,12,13,13,14,14,15,15,17,17,18,18,19,19,20,20,21,21,22,22,23,23,24,24,25,25,26,26,28,28,29,29,30,30,32,32,33,33,34,34,36,36,37,37,38,38,39,39,40,40,41,41,42,42,43,43],"right_children":[2,4,6,8,10,12,14,16,18,20,22,24,26,28,30,32,-1,34,36,38,40,42,44,46,48,50,52,-1,54,56,58,-1,60,62,64,-1,66,68,70,72,74,76,78,80,-1,-1,-1,-1,-1,-1,-1,-1,-1,-1,-1,-1,-1,-1,-1,-1,-1,-1,-1,-1,-1,-1,-1,-1,-1,-1,-1,-1,-1,-1,-1,-1,-1,-1,-1,-1,-1],"split_conditions":[5.744712E-2,5.2E1,2.997291E-1,-5.440808E0,6.541312E1,8.747703E1,1.3251005E8,3.1122365E0,6.2860546E1,2.570213E-1,1.641639E1,6.6988E6,7.2167244E0,2.734024E-1,-2.6549834E-1,4.26653E7,-9.431383E-2,1.4395264E1,1.3268684E0,-6.871155E0,7.6991165E-1,6.5378845E1,1.418158E1,3.816534E2,3.783564E2,2.6287572E0,8E1,4.4789162E-1,4.710348E0,1.0083483E1,2.3942643E8,-1.0539342E-1,9.8535496E-1,-2.305796E1,4.436643E0,1.21146925E-1,4.2729843E2,8.097644E-2,1.9971563E1,1.7165671E-1,9.597982E1,9.9729764E-1,5.7475867E0,-1.0145272E1,1.8511905E-1,-1.0539342E-1,-3.7399605E-1,3.5753176E-1,2.8907897E-2,1.5578686E-1,-4.041505E-1,-1.468305E-1,-5.858155E-1,2.9751053E-1,-3.4857538E-1,2.8907897E-2,-4.9756035E-1,-1.468305E-1,3.214981E-1,4.515142E-1,1.5578686E-1,2.0832165E-1,-7.1612336E-2,3.6807376E-1,-1.0539342E-1,-5.0490576E-1,-8.641735E-2,-9.885118E-2,4.106368E-1,2.9751053E-1,-2.6494208E-1,1.6087621E-1,-1.641992E-1,3.1559595E-1,-2.8320906E-1,3.90046E-1,-4.5958042E-2,1.5513352E-1,-2.6378945E-1,-1.1695379E-3,-4.200685E-1],"split_indices":[104,65,83,86,70,56,8,84,75,26,59,6,32,7,48,4,0,98,25,98,44,13,98,0,0,92,63,0,97,32,8,0,44,51,80,0,3,19,58,7,77,19,36,84,0,0,0,0,0,0,0,0,0,0,0,0,0,0,0,0,0,0,0,0,0,0,0,0,0,0,0,0,0,0,0,0,0,0,0,0,0],"split_type":[0,0,0,0,0,0,0,0,0,0,0,0,0,0,0,0,0,0,0,0,0,0,0,0,0,0,0,0,0,0,0,0,0,0,0,0,0,0,0,0,0,0,0,0,0,0,0,0,0,0,0,0,0,0,0,0,0,0,0,0,0,0,0,0,0,0,0,0,0,0,0,0,0,0,0,0,0,0,0,0,0],"sum_hessian":[2.7513364E2,2.4034094E2,3.4792683E1,1.3349533E2,1.0684561E2,1.751972E1,1.7272963E1,1.0610535E1,1.22884796E2,7.057239E1,3.6273224E1,5.675402E0,1.1844317E1,8.142968E0,9.129994E0,8.389725E0,2.2208095E0,1.11040474E2,1.1844317E1,1.5545667E1,5.5026726E1,2.3195122E1,1.30781E1,2.467566E0,3.207836E0,3.4545927E0,8.389725E0,4.935132E0,3.207836E0,5.675402E0,3.4545927E0,1.233783E0,7.155942E0,1.04131294E2,6.9091854E0,1.7272964E0,1.0117022E1,4.935132E0,1.0610535E1,1.8506746E1,3.6519978E1,8.636481E0,1.45586405E1,1.0857291E1,2.2208095E0,1.233783E0,1.233783E0,1.9740529E0,1.233783E0,1.9740529E0,1.4805397E0,1.9740529E0,6.415672E0,1.233783E0,1.9740529E0,1.233783E0,4.441619E0,1.9740529E0,1.4805397E0,5.181889E0,1.9740529E0,7.8962116E0,9.623508E1,5.675402E0,1.233783E0,6.415672E0,3.7013493E0,1.7272964E0,3.207836E0,1.233783E0,9.376751E0,1.2337831E1,6.1689153E0,3.503944E1,1.4805397E0,6.6624284E0,1.9740529E0,6.6624284E0,7.8962116E0,2.2208095E0,8.636481E0],"tree_param":{"num_deleted":"0","num_feature":"119","num_nodes":"81","size_leaf_vector":"1"}},{"base_weights":[2.6873224E-3,5.7958864E-2,-3.7356287E-1,-1.9849576E-1,1.6654962E-1,2.7834037E-1,-5.9578234E-1,3.7741596E-1,-4.811706E-1,-4.5842937E-1,2.4672696E-1,9.7453904E-1,-4.575661E-1,5.190397E-1,-7.40442E-1,4.5813E-2,1.2070857E0,-6.262178E-1,2.8681672E-1,-7.7922714E-1,4.3509358E-1,3.4703892E-1,-2.8261998E-1,1.8130647E-2,3.7004006E-1,-8.125184E-1,1.3130665E-1,-1.7777093E-2,2.7716076E-1,-1.2802172E0,-2.51859E-1,4.609737E-1,-9.4405735E-1,4.284936E-1,6.9856204E-2,-5.0333405E-1,-4.1628438E-1,9.1078216E-1,-3.4818038E-1,-2.0204617E-2,-1.4786851E0,3.128431E-1,-1.9272058E-1,7.953369E-1,2.0948866E-1,-5.3982913E-2,-1.3104161E0,-2.446637E-3,-3.7161583E-1,-1.3957545E0,-5.9178755E-2,3.2903004E-1,-9.32583E-1,-2.474242E-1,1.9692862E-1,-4.498736E-1,1.744528E-1,2.2203343E-1,-1.9201127E-1,-9.673507E-2,4.3002066E-1,2.0984136E-1,-1.509693E-1,-1.0789896E-1,-4.908658E-1,1.3688407E-2,2.8041288E-1,3.10432E-2,3.0500352E-1,-2.2431426E-1,1.0160873E-1,-4.714959E-1,-1.0095843E-1,-4.6046597E-1,-6.451792E-2,2.2160353E-1,-3.248791E-1,4.9707357E-2,-4.2239657E-1],"categories":[],"categories_nodes":[],"categories_segments":[],"categories_sizes":[],"default_left":[0,0,0,0,0,0,0,0,0,0,0,0,0,0,0,0,0,0,0,0,0,0,0,0,0,0,0,0,0,0,0,0,0,0,0,0,0,0,0,0,0,0,0,0,0,0,0,0,0,0,0,0,0,0,0,0,0,0,0,0,0,0,0,0,0,0,0,0,0,0,0,0,0,0,0,0,0,0,0],"id":1,"left_children":[1,3,5,7,9,11,13,15,17,19,21,23,25,27,29,31,33,35,37,39,41,43,45,-1,-1,47,-1,-1,-1,49,51,53,55,-1,-1,-1,57,59,-1,61,63,-1,-1,65,67,69,71,-1,-1,73,-1,75,77,-1,-1,-1,-1,-1,-1,-1,-1,-1,-1,-1,-1,-1,-1,-1,-1,-1,-1,-1,-1,-1,-1,-1,-1,-1,-1],"loss_changes":[5.6714697E0,6.653972E0,5.2263284E0,1.1769275E1,8.509771E0,5.3449273E0,4.6370497E0,6.5462127E0,5.5470667E0,5.900591E0,8.018711E0,1.1640635E0,2.0490332E0,9.014552E-1,5.9419823E0,7.907425E0,1.1356459E0,8.318144E0,8.589728E0,7.739975E0,4.446495E0,7.5937405E0,5.6430626E0,0E0,0E0,1.418119E0,0E0,0E0,0E0,1.1060944E0,5.729291E0,3.9293973E0,5.703286E0,0E0,0E0,0E0,9.627307E0,4.5796123E0,0E0,3.144295E0,7.5172234E-1,0E0,0E0,3.0074368E0,8.251646E0,5.955724E0,5.858631E-1,0E0,0E0,1.281702E0,0E0,5.507156E0,3.666111E0,0E0,0E0,0E0,0E0,0E0,0E0,0E0,0E0,0E0,0E0,0E0,0E0,0E0,0E0,0E0,0E0,0E0,0E0,0E0,0E0,0E0,0E0,0E0,0E0,0E0,0E0],"parents":[2147483647,0,0,1,1,2,2,3,3,4,4,5,5,6,6,7,7,8,8,9,9,10,10,11,11,12,12,13,13,14,14,15,15,16,16,17,17,18,18,19,19,20,20,21,21,22,22,25,25,29,29,30,30,31,31,32,32,36,36,37,37,39,39,40,40,43,43,44,44,45,45,46,46,49,49,51,51,52,52],"right_children":[2,4,6,8,10,12,14,16,18,20,22,24,26,28,30,32,34,36,38,40,42,44,46,-1,-1,48,-1,-1,-1,50,52,54,56,-1,-1,-1,58,60,-1,62,64,-1,-1,66,68,70,72,-1,-1,74,-1,76,78,-1,-1,-1,-1,-1,-1,-1,-1,-1,-1,-1,-1,-1,-1,-1,-1,-1,-1,-1,-1,-1,-1,-1,-1,-1,-1],"split_conditions":[5.744712E-2,-9.641252E-1,1.7322097E0,-1.0587601E1,3.03088E-3,5.95878E0,4.8954617E1,2.1712013E-1,2.6448502E1,3.786995E1,9.668784E-1,3.2243948E0,1.3798625E0,-6.9824123E0,2.997291E-1,1.8550654E-1,4.4243923E1,-9.457092E0,-3.7233582E0,3.3753147E0,-5.6706644E7,1.6027695E1,2.0136704E0,1.8130647E-2,3.7004006E-1,1.9700012E0,1.3130665E-1,-1.7777093E-2,2.7716076E-1,5.812716E2,2.4E1,-3.4302643E1,-8.434032E0,4.284936E-1,6.9856204E-2,-5.0333405E-1,-1.5104321E2,-3.0731494E-2,-3.4818038E-1,-9.204677E0,5.90191E1,3.128431E-1,-1.9272058E-1,-1.9281763E-1,1.0627421E1,1.5298743E0,5.1718388E0,-2.446637E-3,-3.7161583E-1,9.2E1,-5.9178755E-2,7.007599E1,-1.1186814E1,-2.474242E-1,1.9692862E-1,-4.498736E-1,1.744528E-1,2.2203343E-1,-1.9201127E-1,-9.673507E-2,4.3002066E-1,2.0984136E-1,-1.509693E-1,-1.0789896E-1,-4.908658E-1,1.3688407E-2,2.8041288E-1,3.10432E-2,3.0500352E-1,-2.2431426E-1,1.0160873E-1,-4.714959E-1,-1.0095843E-1,-4.6046597E-1,-6.451792E-2,2.2160353E-1,-3.248791E-1,4.9707357E-2,-4.2239657E-1],"split_indices":[104,80,25,10,95,36,13,19,49,49,33,10,38,85,83,33,9,114,93,37,11,57,48,0,0,116,0,0,0,115,64,93,51,0,0,0,60,94,0,84,75,0,0,10,102,25,10,0,0,65,0,75,84,0,0,0,0,0,0,0,0,0,0,0,0,0,0,0,0,0,0,0,0,0,0,0,0,0,0],"split_type":[0,0,0,0,0,0,0,0,0,0,0,0,0,0,0,0,0,0,0,0,0,0,0,0,0,0,0,0,0,0,0,0,0,0,0,0,0,0,0,0,0,0,0,0,0,0,0,0,0,0,0,0,0,0,0,0,0,0,0,0,0,0,0,0,0,0,0,0,0,0,0,0,0,0,0,0,0,0,0],"sum_hessian":[2.7067908E2,2.3674669E2,3.3932377E1,7.017921E1,1.6656749E2,8.562085E0,2.537029E1,2.299495E1,4.718426E1,1.8402567E1,1.4816492E2,4.233112E0,4.3289733E0,2.6166935E0,2.2753597E1,1.7182611E1,5.812339E0,3.984371E1,7.3405495E0,1.3635123E1,4.767444E0,1.2485007E2,2.3314852E1,1.2066462E0,3.0264657E0,3.166092E0,1.1628813E0,1.4289998E0,1.1876936E0,1.0040652E1,1.2712945E1,1.2481897E1,4.7007136E0,4.356895E0,1.455444E0,5.467064E0,3.4376648E1,5.3884177E0,1.9521317E0,7.032565E0,6.602558E0,3.0688033E0,1.698641E0,2.8190525E1,9.665954E1,1.9933167E1,3.3816838E0,1.4495369E0,1.7165549E0,8.811716E0,1.2289355E0,7.1382427E0,5.574702E0,1.2222431E0,1.1259655E1,3.4584026E0,1.2423109E0,5.199094E0,2.9177553E1,1.717835E0,3.6705825E0,2.6444366E0,4.3881283E0,1.2199428E0,5.382615E0,4.6272345E0,2.3563292E1,8.643579E1,1.0223751E1,6.8779697E0,1.3055198E1,2.182465E0,1.1992189E0,7.6144505E0,1.197266E0,5.9025836E0,1.2356591E0,1.8809154E0,3.6937861E0],"tree_param":{"num_deleted":"0","num_feature":"119","num_nodes":"79","size_leaf_vector":"1"}},{"base_weights":[-1.8217548E-3,9.280522E-1,-2.456809E-2,3.8201904E-1,-8.373188E-2,1.0202387E-1,-2.0389445E-1,2.0246427E-1,-2.5739026E-1,-1.064263E0,-1.2661561E-1,-4.8486555E-1,2.8707677E-1,-9.344658E-1,2.9338479E-2,5.3116396E-2,-4.470203E-1,-5.2220124E-1,1.3498306E-2,3.966655E-1,-8.0154335E-1,5.808489E-1,8.711353E-2,-1.209611E0,1.8032265E-1,4.6014166E-1,-4.717123E-1,1.7129846E-1,-8.967637E-1,-3.8823414E-1,6.2052257E-2,-1.2676671E-1,2.9868853E-1,7.6599E-2,-3.5584205E-1,2.99477E-1,4.775791E-2,-2.7175486E-1,5.6229502E-2,-7.224469E-2,-5.2129674E-1,-5.3763364E-2,3.1277487E-1,2.2171648E-1,-2.2853161E-1,2.0856443E-1,-1.9413397E-1,-3.1240344E-1,4.9989946E-2,4.1044436E-2,-2.4398462E-1],"categories":[],"categories_nodes":[],"categories_segments":[],"categories_sizes":[],"default_left":[0,0,0,0,0,0,0,0,0,0,0,0,0,0,0,0,0,0,0,0,0,0,0,0,0,0,0,0,0,0,0,0,0,0,0,0,0,0,0,0,0,0,0,0,0,0,0,0,0,0,0],"id":2,"left_children":[1,3,5,-1,-1,7,9,11,13,15,17,19,21,23,25,-1,-1,27,29,31,33,35,37,39,-1,41,43,45,47,-1,49,-1,-1,-1,-1,-1,-1,-1,-1,-1,-1,-1,-1,-1,-1,-1,-1,-1,-1,-1,-1],"loss_changes":[5.639311E0,3.0094228E0,5.9270916E0,0E0,0E0,5.5817995E0,7.045728E0,7.1343446E0,6.608103E0,4.897049E0,5.562525E0,4.1022234E0,6.277569E0,5.0005074E0,5.56644E0,0E0,0E0,6.9698915E0,4.841374E0,2.5069318E0,4.4912124E0,7.488805E0,6.671755E0,4.139453E0,0E0,5.3374977E0,4.760079E0,4.755721E0,2.817771E0,0E0,4.905504E0,0E0,0E0,0E0,0E0,0E0,0E0,0E0,0E0,0E0,0E0,0E0,0E0,0E0,0E0,0E0,0E0,0E0,0E0,0E0,0E0],"parents":[2147483647,0,0,1,1,2,2,5,5,6,6,7,7,8,8,9,9,10,10,11,11,12,12,13,13,14,14,17,17,18,18,19,19,20,20,21,21,22,22,23,23,25,25,26,26,27,27,28,28,30,30],"right_children":[2,4,6,-1,-1,8,10,12,14,16,18,20,22,24,26,-1,-1,28,30,32,34,36,38,40,-1,42,44,46,48,-1,50,-1,-1,-1,-1,-1,-1,-1,-1,-1,-1,-1,-1,-1,-1,-1,-1,-1,-1,-1,-1],"split_conditions":[-2.237514E9,3.6119385E0,2.5042455E0,3.8201904E-1,-8.373188E-2,5.9012785E0,1.8009008E1,2.6963311E-3,1.6860657E1,2.207936E0,1.9048655E-1,1.5222205E1,-8.47168E-2,1.390868E2,6.0883224E-1,5.3116396E-2,-4.470203E-1,-6.4377254E-1,4.4213104E0,3.1008548E2,-1.0701904E0,2.629683E-1,-1.1246848E1,-8.7527466E-1,1.8032265E-1,1.0633109E0,5.194726E0,3.055297E-2,1.3121996E0,-3.8823414E-1,1.4765697E2,-1.2676671E-1,2.9868853E-1,7.6599E-2,-3.5584205E-1,2.99477E-1,4.775791E-2,-2.7175486E-1,5.6229502E-2,-7.224469E-2,-5.2129674E-1,-5.3763364E-2,3.1277487E-1,2.2171648E-1,-2.2853161E-1,2.0856443E-1,-1.9413397E-1,-3.1240344E-1,4.9989946E-2,4.1044436E-2,-2.4398462E-1],"split_indices":[6,114,25,0,0,36,59,95,103,92,72,59,112,60,38,0,0,83,32,12,116,86,51,116,0,26,37,100,82,0,60,0,0,0,0,0,0,0,0,0,0,0,0,0,0,0,0,0,0,0,0],"split_type":[0,0,0,0,0,0,0,0,0,0,0,0,0,0,0,0,0,0,0,0,0,0,0,0,0,0,0,0,0,0,0,0,0,0,0,0,0,0,0,0,0,0,0,0,0,0,0,0,0,0,0],"sum_hessian":[2.6454065E2,5.366277E0,2.5917438E2,4.129917E0,1.2363603E0,1.521782E2,1.0699618E2,1.1928108E2,3.289712E1,7.7657714E0,9.92304E1,1.2555884E1,1.067252E2,9.114726E0,2.3782394E1,2.1326873E0,5.633084E0,2.524078E1,7.3989624E1,3.251672E0,9.304213E0,4.2452362E1,6.4272835E1,7.90969E0,1.2050363E0,1.2831513E1,1.0950881E1,9.0420885E0,1.619869E1,1.7305615E0,7.225906E1,1.4977168E0,1.7539554E0,2.572122E0,6.73209E0,2.0646452E1,2.1805912E1,5.1607947E0,5.911204E1,3.3039799E0,4.60571E0,6.4469395E0,6.384574E0,1.8172745E0,9.133607E0,5.6047015E0,3.437387E0,1.4278149E1,1.9205424E0,6.735035E1,4.9087105E0],"tree_param":{"num_deleted":"0","num_feature":"119","num_nodes":"51","size_leaf_vector":"1"}},{"base_weights":[-4.6177874E-3,9.254485E-1,-2.2559356E-2,3.5106665E-1,4.071689E-3,-3.92463E-1,3.5044063E-2,8.014069E-2,-7.3424757E-1,5.057032E-3,3.7106597E-1,5.6566715E-1,-5.050111E-1,1.0375476E-1,-8.900301E-1,2.637325E-2,-1.0085558E0,-1.9387697E-1,1.0510561E0,-1.1823877E0,4.3629345E-1,-1.8863057E-1,2.2179608E-1,-1.0510961E0,1.6453679E-1,-2.7890308E-2,5.7600975E-1,-4.2595023E-1,3.7727233E-2,1.4357848E-1,-2.6844662E-1,3.867439E-1,2.5121724E-2,-8.2026735E-2,-4.275785E-1,-3.6940277E-2,2.8091928E-1,-3.580219E-1,-3.1487804E-2,-3.4402522E-1,5.408676E-3,2.2889356E-1,-2.7414948E-1],"categories":[],"categories_nodes":[],"categories_segments":[],"categories_sizes":[],"default_left":[0,0,0,0,0,0,0,0,0,0,0,0,0,0,0,0,0,0,0,0,0,0,0,0,0,0,0,0,0,0,0,0,0,0,0,0,0,0,0,0,0,0,0],"id":3,"left_children":[1,3,5,-1,-1,7,9,11,13,15,-1,17,19,21,23,25,27,29,31,33,35,-1,-1,37,-1,39,41,-1,-1,-1,-1,-1,-1,-1,-1,-1,-1,-1,-1,-1,-1,-1,-1],"loss_changes":[4.363689E0,1.0888028E0,5.475012E0,0E0,0E0,5.650493E0,8.019321E0,4.6693716E0,2.7277184E0,4.742633E0,0E0,3.4866087E0,5.314168E0,2.3551052E0,4.5447044E0,6.421009E0,2.2877545E0,2.4626856E0,1.1791034E0,6.3590956E-1,1.2007157E0,0E0,0E0,1.9947872E0,0E0,1.0111499E1,6.085163E0,0E0,0E0,0E0,0E0,0E0,0E0,0E0,0E0,0E0,0E0,0E0,0E0,0E0,0E0,0E0,0E0],"parents":[2147483647,0,0,1,1,2,2,5,5,6,6,7,7,8,8,9,9,11,11,12,12,13,13,14,14,15,15,16,16,17,17,18,18,19,19,20,20,23,23,25,25,26,26],"right_children":[2,4,6,-1,-1,8,10,12,14,16,-1,18,20,22,24,26,28,30,32,34,36,-1,-1,38,-1,40,42,-1,-1,-1,-1,-1,-1,-1,-1,-1,-1,-1,-1,-1,-1,-1,-1],"split_conditions":[-1.5052907E1,3.2938952E0,-3.30086E1,3.5106665E-1,4.071689E-3,-2.295809E-1,9.164138E0,7.345445E0,3.0060977E2,1.1223175E1,3.7106597E-1,9.0047865E0,1.4907553E1,2.8883282E2,4.7857506E1,3.5401628E0,9.639497E0,8.565731E0,3.9138046E2,-1.6757803E1,2.4637332E2,-1.8863057E-1,2.2179608E-1,2.6634014E1,1.6453679E-1,-1.5463485E0,3.8996544E-2,-4.2595023E-1,3.7727233E-2,1.4357848E-1,-2.6844662E-1,3.867439E-1,2.5121724E-2,-8.2026735E-2,-4.275785E-1,-3.6940277E-2,2.8091928E-1,-3.580219E-1,-3.1487804E-2,-3.4402522E-1,5.408676E-3,2.2889356E-1,-2.7414948E-1],"split_indices":[48,38,50,0,0,46,92,92,24,48,0,34,34,1,9,25,97,34,0,9,67,0,0,47,0,88,99,0,0,0,0,0,0,0,0,0,0,0,0,0,0,0,0],"split_type":[0,0,0,0,0,0,0,0,0,0,0,0,0,0,0,0,0,0,0,0,0,0,0,0,0,0,0,0,0,0,0,0,0,0,0,0,0,0,0,0,0,0,0],"sum_hessian":[2.592535E2,3.9492373E0,2.5530428E2,2.890131E0,1.0591062E0,3.361708E1,2.216872E2,1.442978E1,1.9187302E1,2.1727031E2,4.4168787E0,7.9044247E0,6.5253553E0,3.0600939E0,1.6127209E1,2.1374916E2,3.5211515E0,3.3160274E0,4.588397E0,3.6457229E0,2.8796322E0,1.4265792E0,1.6335146E0,1.4745475E1,1.3817334E0,1.9540665E2,1.8342512E1,2.399449E0,1.1217026E0,1.8542827E0,1.4617448E0,3.415116E0,1.1732808E0,1.2169642E0,2.4287586E0,1.7149894E0,1.1646429E0,1.25903845E1,2.15509E0,6.7584376E0,1.8864821E2,1.6730753E1,1.6117592E0],"tree_param":{"num_deleted":"0","num_feature":"119","num_nodes":"43","size_leaf_vector":"1"}},{"base_weights":[-3.2609068E-3,5.338364E-1,-2.7559206E-2,-4.132943E-1,9.3726784E-1,-3.3190006E-1,3.0086204E-2,2.5973892E-1,-4.0386543E-1,-7.767129E-2,1.1731253E0,1.3298945E-1,-6.159465E-1,7.063832E-2,-3.9143893E-1,-4.684641E-3,4.232142E-1,4.3638083E-1,-7.531415E-1,1.6619185E-1,-8.818709E-1,3.101287E-2,6.9536996E-1,-9.6045643E-1,1.4176702E-1,7.152196E-1,-3.844726E-1,7.331845E-2,-3.7956578E-1,6.607081E-1,-2.7077192E-1,-1.1217972E0,-8.4161095E-2,9.966979E-2,-2.5346926E-1,-9.778036E-2,9.1943985E-1,1.723937E-1,-1.3112319E0,-3.6577618E-1,6.2554795E-1,3.572205E-1,-5.9663028E-2,1.627067E-1,-3.2791066E-1,3.2330015E-1,-5.1244806E-2,-4.1802162E-1,-8.320944E-2,-1.9450699E-1,2.8249556E-1,6.450771E-2,-5.364772E-2,-1.2639737E-1,2.81569E-1,-6.9406666E-2,3.641141E-1,-4.681078E-1,-8.090118E-2,-3.710292E-2,2.8897595E-1],"categories":[],"categories_nodes":[],"categories_segments":[],"categories_sizes":[],"default_left":[0,0,0,0,0,0,0,0,0,0,0,0,0,0,0,0,0,0,0,0,0,0,0,0,0,0,0,0,0,0,0,0,0,0,0,0,0,0,0,0,0,0,0,0,0,0,0,0,0,0,0,0,0,0,0,0,0,0,0,0,0],"id":4,"left_children":[1,3,5,7,9,11,13,-1,-1,-1,15,17,19,21,23,-1,-1,25,27,29,31,33,35,37,39,41,43,-1,-1,45,-1,47,49,51,53,-1,55,-1,57,-1,59,-1,-1,-1,-1,-1,-1,-1,-1,-1,-1,-1,-1,-1,-1,-1,-1,-1,-1,-1,-1],"loss_changes":[3.371492E0,4.659958E0,4.343876E0,5.9794655E0,2.6023936E0,5.287638E0,3.5935662E0,0E0,0E0,0E0,1.9952421E0,4.5694084E0,5.273158E0,4.7103786E0,5.737153E0,0E0,0E0,3.109489E0,2.5517268E0,4.3464284E0,3.4564524E0,3.556483E0,2.8980498E0,5.631545E0,7.611453E0,4.4067745E0,3.0820708E0,0E0,0E0,2.0661297E0,0E0,2.8662052E0,3.7190285E0,4.7405066E0,7.485021E0,0E0,3.522746E0,0E0,1.571702E0,0E0,2.227966E0,0E0,0E0,0E0,0E0,0E0,0E0,0E0,0E0,0E0,0E0,0E0,0E0,0E0,0E0,0E0,0E0,0E0,0E0,0E0,0E0],"parents":[2147483647,0,0,1,1,2,2,3,3,4,4,5,5,6,6,10,10,11,11,12,12,13,13,14,14,17,17,18,18,19,19,20,20,21,21,22,22,23,23,24,24,25,25,26,26,29,29,31,31,32,32,33,33,34,34,36,36,38,38,40,40],"right_children":[2,4,6,8,10,12,14,-1,-1,-1,16,18,20,22,24,-1,-1,26,28,30,32,34,36,38,40,42,44,-1,-1,46,-1,48,50,52,54,-1,56,-1,58,-1,60,-1,-1,-1,-1,-1,-1,-1,-1,-1,-1,-1,-1,-1,-1,-1,-1,-1,-1,-1,-1],"split_conditions":[-2.1379158E9,3.7297562E2,-8.422097E7,3.6825467E2,-1.9397121E1,3.2319107E9,1.4140259E0,2.5973892E-1,-4.0386543E-1,-7.767129E-2,1.0843201E0,8.417488E-1,8.457686E0,7.547632E0,2.3693493E1,-4.684641E-3,4.232142E-1,5.2762146E0,3.7731082E0,3.5249007E0,1.8995695E1,3.3213515E0,-2.3068274E1,3.859738E0,3.3112103E2,2.104551E-2,3.6480914E2,7.331845E-2,-3.7956578E-1,4.0211575E2,-2.7077192E-1,1.6277466E0,3.846964E2,6.2493974E-1,8.470918E0,-9.778036E-2,5.952125E0,1.723937E-1,4.148457E0,-3.6577618E-1,-1.9516404E0,3.572205E-1,-5.9663028E-2,1.627067E-1,-3.2791066E-1,3.2330015E-1,-5.1244806E-2,-4.1802162E-1,-8.320944E-2,-1.9450699E-1,2.8249556E-1,6.450771E-2,-5.364772E-2,-1.2639737E-1,2.81569E-1,-6.9406666E-2,3.641141E-1,-4.681078E-1,-8.090118E-2,-3.710292E-2,2.8897595E-1],"split_indices":[6,111,11,0,9,5,88,0,0,0,108,73,107,92,57,0,0,114,10,80,9,48,79,97,16,95,53,0,0,1,0,98,55,38,10,0,34,0,35,0,48,0,0,0,0,0,0,0,0,0,0,0,0,0,0,0,0,0,0,0,0],"split_type":[0,0,0,0,0,0,0,0,0,0,0,0,0,0,0,0,0,0,0,0,0,0,0,0,0,0,0,0,0,0,0,0,0,0,0,0,0,0,0,0,0,0,0,0,0,0,0,0,0,0,0,0,0,0,0,0,0,0,0,0,0],"sum_hessian":[2.5621362E2,1.0181798E1,2.4603181E2,3.0341399E0,7.1476583E0,3.8422314E1,2.076095E2,1.3100044E0,1.7241356E0,1.1611363E0,5.986522E0,1.4773996E1,2.3648317E1,1.9014896E2,1.7460539E1,1.1528214E0,4.8337007E0,1.1383935E1,3.3900607E0,6.095436E0,1.7552881E1,1.797946E2,1.0354362E1,8.058994E0,9.401545E0,8.593473E0,2.7904613E0,1.3272647E0,2.062796E0,4.428279E0,1.6671574E0,1.3181904E1,4.370978E0,1.4536246E2,3.4432137E1,1.7811804E0,8.573181E0,1.3802736E0,6.678721E0,2.0667882E0,7.334756E0,5.453771E0,3.1397026E0,1.3106494E0,1.4798119E0,2.752202E0,1.6760767E0,9.481962E0,3.6999416E0,3.0573812E0,1.3135967E0,1.0294813E2,4.2414337E1,3.0748812E1,3.683325E0,1.7893815E0,6.783799E0,4.9876466E0,1.6910743E0,2.475794E0,4.858962E0],"tree_param":{"num_deleted":"0","num_feature":"119","num_nodes":"61","size_leaf_vector":"1"}},{"base_weights":[-3.049124E-3,2.8383372E-2,-3.477265E-1,2.595086E-1,-4.0054686E-2,2.3138033E-1,-7.782723E-1,-7.863419E-2,6.6574496E-1,4.4574183E-1,-9.730223E-2,8.586702E-1,-3.9445785E-1,-9.279897E-1,1.14915065E-1,3.704697E-1,-5.321339E-1,-2.668132E-1,8.0333024E-1,1.1592809E0,3.0017646E-3,-7.041152E-2,-1.0625069E0,3.8485396E-1,-9.583572E-2,-9.1924256E-1,1.157981E-1,5.6146834E-2,-1.0738268E0,-2.3275636E-1,5.7393086E-1,4.7869802E-1,-7.286399E-1,9.1739845E-1,-1.7084606E-1,4.3551125E-2,3.9938912E-1,-6.89221E-1,2.596804E-1,-2.770181E-1,5.9229147E-2,-3.832809E-1,-7.002996E-2,-6.835544E-2,-3.7720147E-1,-1.3467865E0,-2.3328674E-1,-1.3771814E-1,2.4929686E-1,2.3194759E-1,-1.6951066E-2,-3.698702E-1,-5.4289397E-2,7.964925E-2,3.337065E-1,-3.1042302E-1,2.0598464E-2,2.257246E-1,-1.1477922E-1,2.103422E-1,-1.1050709E-1,5.0335146E-2,-1.3590628E-1,-4.586584E-1,-9.257727E-2,1.986476E-1,-2.7266973E-1],"categories":[],"categories_nodes":[],"categories_segments":[],"categories_sizes":[],"default_left":[0,0,0,0,0,0,0,0,0,0,0,0,0,0,0,0,0,0,0,0,0,0,0,0,0,0,0,0,0,0,0,0,0,0,0,0,0,0,0,0,0,0,0,0,0,0,0,0,0,0,0,0,0,0,0,0,0,0,0,0,0,0,0,0,0,0,0],"id":5,"left_children":[1,3,5,7,9,11,13,15,17,19,21,23,25,27,-1,29,31,-1,33,35,37,39,41,-1,-1,43,-1,-1,45,-1,47,49,51,53,-1,-1,-1,55,57,59,61,-1,-1,-1,-1,63,65,-1,-1,-1,-1,-1,-1,-1,-1,-1,-1,-1,-1,-1,-1,-1,-1,-1,-1,-1,-1],"loss_changes":[2.7359393E0,3.672461E0,5.441985E0,7.336277E0,5.0351152E0,4.174318E0,2.4999495E0,6.2730894E0,5.890888E0,6.030761E0,4.1140537E0,3.0055273E0,2.6385732E0,2.0252695E0,0E0,4.0786924E0,3.3787842E0,0E0,4.085314E0,1.0821228E0,2.4514549E0,4.250676E0,4.692068E-1,0E0,0E0,5.6200814E-1,0E0,0E0,1.9958801E0,0E0,4.0472536E0,5.3006744E-1,3.4134593E0,2.4231396E0,0E0,0E0,0E0,1.048674E0,3.4704766E0,5.7195406E0,5.5232544E0,0E0,0E0,0E0,0E0,9.2530346E-1,2.8267388E0,0E0,0E0,0E0,0E0,0E0,0E0,0E0,0E0,0E0,0E0,0E0,0E0,0E0,0E0,0E0,0E0,0E0,0E0,0E0,0E0],"parents":[2147483647,0,0,1,1,2,2,3,3,4,4,5,5,6,6,7,7,8,8,9,9,10,10,11,11,12,12,13,13,15,15,16,16,18,18,19,19,20,20,21,21,22,22,25,25,28,28,30,30,31,31,32,32,33,33,37,37,38,38,39,39,40,40,45,45,46,46],"right_children":[2,4,6,8,10,12,14,16,18,20,22,24,26,28,-1,30,32,-1,34,36,38,40,42,-1,-1,44,-1,-1,46,-1,48,50,52,54,-1,-1,-1,56,58,60,62,-1,-1,-1,-1,64,66,-1,-1,-1,-1,-1,-1,-1,-1,-1,-1,-1,-1,-1,-1,-1,-1,-1,-1,-1,-1],"split_conditions":[-5.4114156E7,4.238039E0,1.1677234E1,5.459442E-3,7.7778054E-3,-3.9971666E5,1.4609778E1,1.1336312E0,1.5343869E0,-7.644158E0,3.830957E1,7.1718013E-1,2.9630585E2,1.1136084E-1,1.14915065E-1,-9.084565E0,1.9035623E0,-2.668132E-1,4.916981E2,6.6706426E-3,-9.031966E7,5.831614E-1,6.6602173E0,3.8485396E-1,-9.583572E-2,2.995593E2,1.157981E-1,5.6146834E-2,3.852295E0,-2.3275636E-1,2.570213E-1,4.6630297E0,1.5657532E1,-1.1328073E9,-1.7084606E-1,4.3551125E-2,3.9938912E-1,7.293016E0,1.9999084E0,-2.1379158E9,9.711678E-1,-3.832809E-1,-7.002996E-2,-6.835544E-2,-3.7720147E-1,2.1149857E0,4.6284485E0,-1.3771814E-1,2.4929686E-1,2.3194759E-1,-1.6951066E-2,-3.698702E-1,-5.4289397E-2,7.964925E-2,3.337065E-1,-3.1042302E-1,2.0598464E-2,2.257246E-1,-1.1477922E-1,2.103422E-1,-1.1050709E-1,5.0335146E-2,-1.3590628E-1,-4.586584E-1,-9.257727E-2,1.986476E-1,-2.7266973E-1],"split_indices":[11,34,57,95,56,11,9,43,56,9,58,73,66,73,0,85,97,0,0,95,11,33,114,0,0,113,0,0,116,0,26,10,103,6,0,0,0,9,93,6,33,0,0,0,0,48,116,0,0,0,0,0,0,0,0,0,0,0,0,0,0,0,0,0,0,0,0],"split_type":[0,0,0,0,0,0,0,0,0,0,0,0,0,0,0,0,0,0,0,0,0,0,0,0,0,0,0,0,0,0,0,0,0,0,0,0,0,0,0,0,0,0,0,0,0,0,0,0,0,0,0,0,0,0,0,0,0,0,0,0,0,0,0,0,0,0,0],"sum_hessian":[2.5062009E2,2.3051607E2,2.0104023E1,5.2025734E1,1.7849033E2,8.770212E0,1.133381E1,2.8832546E1,2.319319E1,1.8100996E1,1.6038933E2,4.194226E0,4.5759864E0,1.0217493E1,1.1163174E0,1.4578472E1,1.4254074E1,1.4410346E0,2.1752153E1,6.311188E0,1.1789808E1,1.5708585E2,3.3034797E0,3.0185304E0,1.1756952E0,2.6298263E0,1.9461602E0,1.1489208E0,9.068572E0,1.7734371E0,1.2805036E1,2.086259E0,1.2167815E1,2.0389702E1,1.3624525E0,1.182684E0,5.1285043E0,2.733318E0,9.05649E0,6.01264E1,9.695945E1,2.1934164E0,1.1100633E0,1.413403E0,1.2164232E0,6.3908873E0,2.677685E0,2.3949792E0,1.0410056E1,1.0589997E0,1.0272592E0,5.6836023E0,6.484213E0,5.2376685E0,1.5152033E1,1.6264865E0,1.1068314E0,5.0278244E0,4.0286655E0,4.56483E0,5.556157E1,8.0559875E1,1.6399576E1,5.035216E0,1.355671E0,1.1600659E0,1.5176191E0],"tree_param":{"num_deleted":"0","num_feature":"119","num_nodes":"67","size_leaf_vector":"1"}},{"base_weights":[-4.3958924E-3,7.920894E-1,-1.9176567E-2,3.015434E-1,8.928249E-3,-6.5002614E-1,4.0704184E-3,1.1817934E-1,-9.703014E-1,-3.451019E-2,4.1271666E-1,-3.0790314E-3,-1.1820838E0,3.5186477E-2,-4.4446343E-1,1.0642185E0,1.2649564E-1,-4.5483065E-1,-1.0955468E-1,-2.6387844E-2,3.7827533E-1,-2.3992527E-2,-7.5580406E-1,3.8215375E-1,2.890042E-2,-3.7714586E-1,6.1796993E-1,-1.6759384E-2,2.5726318E-1,1.501858E-1,-2.6670465E-1,-8.799377E-2,2.474502E-1,-3.0539826E-1,1.0257787E-1,-2.2585937E-1,5.5043954E-2,-2.0643365E-1,2.8530407E-1],"categories":[],"categories_nodes":[],"categories_segments":[],"categories_sizes":[],"default_left":[0,0,0,0,0,0,0,0,0,0,0,0,0,0,0,0,0,0,0,0,0,0,0,0,0,0,0,0,0,0,0,0,0,0,0,0,0,0,0],"id":6,"left_children":[1,3,5,-1,-1,7,9,-1,11,13,15,-1,17,19,21,23,25,-1,-1,27,29,31,33,-1,-1,35,37,-1,-1,-1,-1,-1,-1,-1,-1,-1,-1,-1,-1],"loss_changes":[2.9172022E0,7.033706E-1,3.5661955E0,0E0,0E0,3.2718072E0,3.7247102E0,0E0,1.391201E0,6.186385E0,3.6656811E0,0E0,9.8689795E-1,3.9290452E0,4.0996623E0,1.1120291E0,4.01879E0,0E0,0E0,4.17041E0,4.8318076E0,3.5373E0,5.5402994E0,0E0,0E0,1.8600137E0,4.186286E0,0E0,0E0,0E0,0E0,0E0,0E0,0E0,0E0,0E0,0E0,0E0,0E0],"parents":[2147483647,0,0,1,1,2,2,5,5,6,6,8,8,9,9,10,10,12,12,13,13,14,14,15,15,16,16,19,19,20,20,21,21,22,22,25,25,26,26],"right_children":[2,4,6,-1,-1,8,10,-1,12,14,16,-1,18,20,22,24,26,-1,-1,28,30,32,34,-1,-1,36,38,-1,-1,-1,-1,-1,-1,-1,-1,-1,-1,-1,-1],"split_conditions":[-1.5052907E1,3.2938952E0,-1.0508734E1,3.015434E-1,8.928249E-3,2.9006314E0,8.153015E0,1.1817934E-1,-5.416686E-2,4.935608E0,9.136017E0,-3.0790314E-3,6.0419846E1,1.2852631E1,6.1043644E0,9.6615773E-1,3.969895E2,-4.5483065E-1,-1.0955468E-1,1.667806E2,1.069796E9,5.8815556E0,3.6174664E0,3.8215375E-1,2.890042E-2,1.2091583E1,7.393219E0,-1.6759384E-2,2.5726318E-1,1.501858E-1,-2.6670465E-1,-8.799377E-2,2.474502E-1,-3.0539826E-1,1.0257787E-1,-2.2585937E-1,5.5043954E-2,-2.0643365E-1,2.8530407E-1],"split_indices":[48,38,48,0,0,92,114,0,7,114,114,0,75,98,102,19,29,0,0,60,6,34,85,0,0,114,116,0,0,0,0,0,0,0,0,0,0,0,0],"split_type":[0,0,0,0,0,0,0,0,0,0,0,0,0,0,0,0,0,0,0,0,0,0,0,0,0,0,0,0,0,0,0,0,0,0,0,0,0,0,0],"sum_hessian":[2.4550586E2,3.514795E0,2.4199107E2,2.4981062E0,1.0166888E0,7.642272E0,2.343488E2,1.7401539E0,5.9021177E0,2.1496896E2,1.9379837E1,1.2561744E0,4.645943E0,1.8451372E2,3.045524E1,5.0856376E0,1.42942E1,2.6900902E0,1.9558532E0,1.572204E2,2.7293331E1,1.3415048E1,1.7040192E1,3.9204254E0,1.1652123E0,7.1746025E0,7.1195974E0,1.5305327E2,4.167119E0,2.5442123E1,1.8512077E0,1.0680677E1,2.7343707E0,1.3813508E1,3.226684E0,4.090405E0,3.0841975E0,1.2299656E0,5.8896317E0],"tree_param":{"num_deleted":"0","num_feature":"119","num_nodes":"39","size_leaf_vector":"1"}},{"base_weights":[-1.1087611E-3,-8.891044E-2,1.2275404E-1,-3.9321363E-1,3.757317E-2,1.3696581E-2,5.6377566E-1,-4.6953174E-1,2.2043724E-1,1.5539281E-1,-2.914967E-1,1.3529016E-1,-3.709856E-1,-5.558341E-1,8.094925E-1,-3.735447E-2,-6.6587603E-1,2.041843E-1,-9.439344E-1,-6.781159E-1,1.1202656E-1,3.4386143E-1,-2.649373E-1,-5.3996944E-1,5.868898E-1,7.6475516E-2,-2.9858208E-1,9.878516E-1,-1.0055934E-1,2.3920763E-1,-9.6183616E-1,-8.137254E-1,1.8919635E-1,4.8268288E-1,-9.426246E-2,-3.9861494E-1,-3.8274333E-2,8.622746E-2,-8.609206E-1,7.8834355E-1,-2.8534174E-1,-1.0009906E-1,6.0599035E-1,-7.088185E-1,1.8055576E-1,-1.0232841E0,2.6796074E-3,-1.0980591E-2,2.5784796E-1,-2.0120556E-2,1.1362566E0,2.0207706E-1,-2.0176357E-1,-3.48285E-1,-8.587881E-2,-3.011509E-1,-4.466639E-3,2.8208563E-1,-1.4708318E-1,-1.9941503E-1,1.6737168E-1,-2.9157627E-1,1.2269403E-2,5.2864432E-2,-2.9998693E-1,2.9976067E-1,-1.0841728E-2,2.972778E-2,-3.0158827E-1,-1.2909646E-1,1.7950378E-1,2.1791568E-1,-1.9214574E-1,-3.186745E-1,2.0143416E-2,3.0793542E-1,-2.0390601E-1,1.3811387E-1,-3.87108E-1,-1.5250187E-1,2.750308E-1,3.6936045E-1,3.863456E-3],"categories":[],"categories_nodes":[],"categories_segments":[],"categories_sizes":[],"default_left":[0,0,0,0,0,0,0,0,0,0,0,0,0,0,0,0,0,0,0,0,0,0,0,0,0,0,0,0,0,0,0,0,0,0,0,0,0,0,0,0,0,0,0,0,0,0,0,0,0,0,0,0,0,0,0,0,0,0,0,0,0,0,0,0,0,0,0,0,0,0,0,0,0,0,0,0,0,0,0,0,0,0,0],"id":7,"left_children":[1,3,5,7,9,11,13,15,-1,17,19,21,23,25,27,29,31,33,35,37,39,41,43,45,47,-1,-1,49,-1,51,53,55,57,59,61,-1,-1,-1,63,65,67,69,71,73,75,77,79,-1,-1,-1,81,-1,-1,-1,-1,-1,-1,-1,-1,-1,-1,-1,-1,-1,-1,-1,-1,-1,-1,-1,-1,-1,-1,-1,-1,-1,-1,-1,-1,-1,-1,-1,-1],"loss_changes":[2.6564212E0,5.516066E0,4.865761E0,3.9652348E0,3.9951632E0,3.898026E0,5.9696693E0,3.3692007E0,0E0,4.2515173E0,4.320525E0,5.3699822E0,3.5581796E0,1.7514228E0,3.7733898E0,3.6956515E0,3.6234446E0,6.1360254E0,8.964684E-1,2.7249336E0,4.0332756E0,4.949381E0,4.5238633E0,4.6036057E0,6.2329054E-1,0E0,0E0,2.3995829E0,0E0,4.90231E0,1.1430192E-1,3.5671043E0,2.9397852E0,3.6565542E0,4.334926E0,0E0,0E0,0E0,1.9141169E0,9.940717E-1,2.7733667E0,4.0523415E0,4.4503355E0,3.1807914E0,9.351044E0,4.2717E0,4.7921667E0,0E0,0E0,0E0,1.3777542E0,0E0,0E0,0E0,0E0,0E0,0E0,0E0,0E0,0E0,0E0,0E0,0E0,0E0,0E0,0E0,0E0,0E0,0E0,0E0,0E0,0E0,0E0,0E0,0E0,0E0,0E0,0E0,0E0,0E0,0E0,0E0,0E0],"parents":[2147483647,0,0,1,1,2,2,3,3,4,4,5,5,6,6,7,7,9,9,10,10,11,11,12,12,13,13,14,14,15,15,16,16,17,17,18,18,19,19,20,20,21,21,22,22,23,23,24,24,27,27,29,29,30,30,31,31,32,32,33,33,34,34,38,38,39,39,40,40,41,41,42,42,43,43,44,44,45,45,46,46,50,50],"right_children":[2,4,6,8,10,12,14,16,-1,18,20,22,24,26,28,30,32,34,36,38,40,42,44,46,48,-1,-1,50,-1,52,54,56,58,60,62,-1,-1,-1,64,66,68,70,72,74,76,78,80,-1,-1,-1,82,-1,-1,-1,-1,-1,-1,-1,-1,-1,-1,-1,-1,-1,-1,-1,-1,-1,-1,-1,-1,-1,-1,-1,-1,-1,-1,-1,-1,-1,-1,-1,-1],"split_conditions":[2.3867125E1,2.1556132E-2,5.393646E1,1.6517086E1,5.744712E-2,3.0158115E2,4.3673115E-3,1.8503579E0,2.2043724E-1,5.5674457E2,2.997291E-1,1.5725507E-1,9.249107E0,-3.9144807E0,1.7406675E0,8.947884E-1,2.5422815E1,6.518745E1,7.595298E-1,5.552169E-3,4.0898755E-1,-1.0431946E1,2.303204E1,1.0044904E0,5.5467197E1,7.6475516E-2,-2.9858208E-1,2.6613028E0,-1.0055934E-1,1.099872E0,2.1794268E1,8.8062066E-1,6.311911E0,5.8129406E-1,4.3094397E0,-3.9861494E-1,-3.8274333E-2,8.622746E-2,5.7930083E0,3.4133157E-1,4.0488716E-2,1.1765249E1,2.4076813E1,1.62729E1,-3.7223596E7,-2.0930482E9,2.6634014E1,-1.0980591E-2,2.5784796E-1,-2.0120556E-2,6.529067E1,2.0207706E-1,-2.0176357E-1,-3.48285E-1,-8.587881E-2,-3.011509E-1,-4.466639E-3,2.8208563E-1,-1.4708318E-1,-1.9941503E-1,1.6737168E-1,-2.9157627E-1,1.2269403E-2,5.2864432E-2,-2.9998693E-1,2.9976067E-1,-1.0841728E-2,2.972778E-2,-3.0158827E-1,-1.2909646E-1,1.7950378E-1,2.1791568E-1,-1.9214574E-1,-3.186745E-1,2.0143416E-2,3.0793542E-1,-2.0390601E-1,1.3811387E-1,-3.87108E-1,-1.5250187E-1,2.750308E-1,3.6936045E-1,3.863456E-3],"split_indices":[59,104,70,51,104,66,95,92,0,62,83,88,97,48,88,44,9,70,44,100,83,116,77,44,77,0,0,56,0,43,59,19,102,33,102,0,0,0,18,7,109,76,108,9,8,6,47,0,0,0,75,0,0,0,0,0,0,0,0,0,0,0,0,0,0,0,0,0,0,0,0,0,0,0,0,0,0,0,0,0,0,0,0],"split_type":[0,0,0,0,0,0,0,0,0,0,0,0,0,0,0,0,0,0,0,0,0,0,0,0,0,0,0,0,0,0,0,0,0,0,0,0,0,0,0,0,0,0,0,0,0,0,0,0,0,0,0,0,0,0,0,0,0,0,0,0,0,0,0,0,0,0,0,0,0,0,0,0,0,0,0,0,0,0,0,0,0,0,0],"sum_hessian":[2.4225694E2,1.4193018E2,1.0032677E2,4.1053043E1,1.0087713E2,8.126285E1,1.9063921E1,3.8998264E1,2.0547802E0,7.4670135E1,2.6206993E1,6.223834E1,1.9024511E1,3.2037818E0,1.5860138E1,1.2554517E1,2.6443747E1,7.227654E1,2.3935888E0,1.3036304E1,1.3170688E1,4.1008396E1,2.1229944E1,1.6542454E1,2.4820573E0,1.2737157E0,1.9300662E0,1.38405905E1,2.0195477E0,1.0234178E1,2.3203394E0,2.2586672E1,3.8570757E0,3.706844E1,3.5208107E1,1.2002401E0,1.1933486E0,1.9841392E0,1.1052165E1,4.5102963E0,8.660392E0,1.5453448E1,2.5554947E1,1.0338131E1,1.0891812E1,8.281104E0,8.26135E0,1.0184394E0,1.4636178E0,1.7745407E0,1.206605E1,7.108648E0,3.1255293E0,1.2372231E0,1.0831163E0,1.8037418E1,4.549253E0,1.649679E0,2.2073965E0,1.7985063E0,3.5269936E1,3.8723443E0,3.1335762E1,1.2748723E0,9.777293E0,3.422969E0,1.087327E0,6.2079067E0,2.4524848E0,1.0753239E1,4.7002096E0,2.3684542E1,1.8704053E0,6.849452E0,3.488679E0,5.3942823E0,5.4975305E0,1.1528724E0,7.1282315E0,5.583689E0,2.6776602E0,1.1037232E1,1.0288174E0],"tree_param":{"num_deleted":"0","num_feature":"119","num_nodes":"83","size_leaf_vector":"1"}},{"base_weights":[-4.040599E-3,-3.2420745E-1,2.912946E-2,-5.127268E-1,5.864289E-1,4.2759842E-1,-6.013204E-3,-2.8798E-1,-4.2223004E-1,2.943376E-1,-6.538757E-2,1.0621418E0,-4.7868054E-2,5.272196E-1,-3.394406E-2,1.7878358E-1,-8.4735036E-1,3.7452132E-1,5.0292496E-2,5.156178E-1,-6.9860923E-1,-1.1089976E-1,7.928583E-1,5.102366E-1,-6.1734308E-2,-2.8772426E-1,2.6017174E-1,-1.2322724E0,9.203819E-2,-1.3596426E-1,8.411143E-1,-3.1823632E-1,6.272851E-2,1.1771812E0,-4.6998344E-2,7.606846E-1,-1.3904163E-1,-1.7100256E-2,-6.3910884E-1,9.0523385E-2,-2.4445058E-1,-1.3524646E-1,-4.3775913E-1,-3.5094336E-2,3.4295055E-1,6.499144E-2,4.108744E-1,1.6312201E-1,-2.1366467E-1,-9.0557456E-2,3.1691974E-1,-8.0789566E-2,2.177079E-2,1.7072377E-1,-2.5431213E-1],"categories":[],"categories_nodes":[],"categories_segments":[],"categories_sizes":[],"default_left":[0,0,0,0,0,0,0,0,0,0,0,0,0,0,0,0,0,0,0,0,0,0,0,0,0,0,0,0,0,0,0,0,0,0,0,0,0,0,0,0,0,0,0,0,0,0,0,0,0,0,0,0,0,0,0],"id":8,"left_children":[1,3,5,7,9,11,13,15,-1,-1,-1,17,19,21,23,25,27,-1,-1,29,31,-1,33,35,37,39,-1,41,-1,-1,43,-1,-1,45,47,49,-1,51,53,-1,-1,-1,-1,-1,-1,-1,-1,-1,-1,-1,-1,-1,-1,-1,-1],"loss_changes":[2.5049508E0,4.1018214E0,2.9970427E0,3.3906708E0,1.5676429E0,5.283874E0,2.9593334E0,4.419071E0,0E0,0E0,0E0,1.035758E0,4.3468685E0,2.6494749E0,2.883766E0,3.3763797E0,3.7584748E0,0E0,0E0,2.4001138E0,2.0201056E0,0E0,2.6209044E0,2.613579E0,4.636379E0,2.2823806E0,0E0,3.8937855E-1,0E0,0E0,1.6218803E0,0E0,0E0,7.181716E-1,1.7457465E0,2.7550764E0,0E0,3.8283014E0,3.736796E0,0E0,0E0,0E0,0E0,0E0,0E0,0E0,0E0,0E0,0E0,0E0,0E0,0E0,0E0,0E0,0E0],"parents":[2147483647,0,0,1,1,2,2,3,3,4,4,5,5,6,6,7,7,11,11,12,12,13,13,14,14,15,15,16,16,19,19,20,20,22,22,23,23,24,24,25,25,27,27,30,30,33,33,34,34,35,35,37,37,38,38],"right_children":[2,4,6,8,10,12,14,16,-1,-1,-1,18,20,22,24,26,28,-1,-1,30,32,-1,34,36,38,40,-1,42,-1,-1,44,-1,-1,46,48,50,-1,52,54,-1,-1,-1,-1,-1,-1,-1,-1,-1,-1,-1,-1,-1,-1,-1,-1],"split_conditions":[2.2423275E0,3.1652071E1,1.3873327E0,6.6167305E1,5.950031E1,7.940033E0,3.4994194E1,3.908718E2,-4.2223004E-1,2.943376E-1,-6.538757E-2,2.5406387E-1,-3.4702973E0,-7.0393677E0,-1.12131605E1,1.6234056E1,3.2E1,3.7452132E-1,5.0292496E-2,4.30061E7,6.7637877E0,-1.1089976E-1,-1.6382741E0,1.2503434E0,1.5676736E0,-9.4457954E-2,2.6017174E-1,-6.513408E-1,9.203819E-2,-1.3596426E-1,1.4099444E1,-3.1823632E-1,6.272851E-2,3.9565665E2,2.7921724E0,-1.8739283E1,-1.3904163E-1,4.7168934E1,5.439277E0,9.0523385E-2,-2.4445058E-1,-1.3524646E-1,-4.3775913E-1,-3.5094336E-2,3.4295055E-1,6.499144E-2,4.108744E-1,1.6312201E-1,-2.1366467E-1,-9.0557456E-2,3.1691974E-1,-8.0789566E-2,2.177079E-2,1.7072377E-1,-2.5431213E-1],"split_indices":[97,57,25,70,75,98,75,31,0,0,0,88,48,112,85,57,64,0,0,4,10,0,38,88,81,88,0,86,0,0,59,0,0,117,92,84,0,75,32,0,0,0,0,0,0,0,0,0,0,0,0,0,0,0,0],"split_type":[0,0,0,0,0,0,0,0,0,0,0,0,0,0,0,0,0,0,0,0,0,0,0,0,0,0,0,0,0,0,0,0,0,0,0,0,0,0,0,0,0,0,0,0,0,0,0,0,0,0,0,0,0,0,0],"sum_hessian":[2.3398283E2,2.1141823E1,2.12841E2,1.7877743E1,3.2640815E0,1.6344912E1,1.964961E2,1.5345007E1,2.5327353E0,2.042266E0,1.2218155E0,6.4727197E0,9.872192E0,8.890482E0,1.876056E2,8.735827E0,6.6091795E0,5.02973E0,1.4429898E0,5.4020915E0,4.470101E0,1.9420059E0,6.948476E0,8.271679E0,1.7933394E2,5.554254E0,3.1815736E0,4.9054537E0,1.7037256E0,1.2598379E0,4.1422534E0,3.074651E0,1.3954498E0,4.491497E0,2.4569786E0,6.753408E0,1.5182707E0,1.6742104E2,1.1912897E1,2.8238688E0,2.7303855E0,1.7760391E0,3.1294146E0,1.1397518E0,3.0025017E0,1.1043059E0,3.387191E0,1.3980603E0,1.0589184E0,1.4658027E0,5.2876053E0,4.338794E1,1.240331E2,1.49954E0,1.0413358E1],"tree_param":{"num_deleted":"0","num_feature":"119","num_nodes":"55","size_leaf_vector":"1"}},{"base_weights":[-1.3701468E-3,3.388198E-1,-3.397179E-2,-1.4882958E-1,5.961081E-1,-5.866479E-1,-2.5967332E-3,5.149428E-1,-5.688584E-1,7.8377515E-1,-9.049837E-2,-8.392651E-1,1.6140638E-1,-9.4610386E-2,1.4330104E-1,-6.0953613E-2,2.7494338E-1,1.4363347E-1,-1.0112613E0,1.0020347E0,-5.9276167E-2,-1.6889794E-1,1.540837E-1,-9.6939164E-1,4.125768E-2,1.1453398E-1,-2.4431323E-1,5.5546886E-1,-2.2995153E-2,-8.512266E-2,-3.478024E-1,-1.5143653E-2,1.1996849E0,-2.130017E-1,-3.6509603E-1,-2.4040793E-1,4.8140654E-1,-1.4097603E-1,-8.466127E-1,8.121163E-1,-8.783485E-2,6.0278058E-2,-7.0386845E-1,3.9803717E-1,7.025423E-2,9.6194714E-2,-1.8810052E-1,-1.4091705E-1,9.447517E-2,2.2295007E-1,-9.721365E-2,-1.3886572E-1,4.2445317E-2,-3.5961643E-1,6.618166E-3,3.5781553E-1,2.240812E-2,-2.7144662E-1,8.496535E-2,-2.518898E-1,3.7293114E-2,-3.5735905E-1,4.051919E-2],"categories":[],"categories_nodes":[],"categories_segments":[],"categories_sizes":[],"default_left":[0,0,0,0,0,0,0,0,0,0,0,0,0,0,0,0,0,0,0,0,0,0,0,0,0,0,0,0,0,0,0,0,0,0,0,0,0,0,0,0,0,0,0,0,0,0,0,0,0,0,0,0,0,0,0,0,0,0,0,0,0,0,0],"id":9,"left_children":[1,3,5,7,9,11,13,15,17,19,21,23,-1,25,27,-1,-1,-1,29,31,-1,-1,-1,33,-1,35,37,39,41,-1,-1,-1,43,45,-1,47,49,51,53,55,57,59,61,-1,-1,-1,-1,-1,-1,-1,-1,-1,-1,-1,-1,-1,-1,-1,-1,-1,-1,-1,-1],"loss_changes":[2.5659733E0,2.6273534E0,3.658832E0,2.4643989E0,1.803369E0,3.6720107E0,2.7086093E0,1.2079315E0,2.9152026E0,2.4818096E0,1.3688422E0,1.3594894E0,0E0,3.9014087E0,5.3618417E0,0E0,0E0,0E0,1.0295868E-1,1.9093752E0,0E0,0E0,0E0,1.358305E0,0E0,6.925054E0,4.3882246E0,3.7819796E0,3.2496347E0,0E0,0E0,0E0,6.124697E-1,9.3943304E-1,0E0,3.6174116E0,5.732378E0,5.795368E0,3.209351E0,4.447316E0,2.4727871E0,3.0617669E0,2.7133234E0,0E0,0E0,0E0,0E0,0E0,0E0,0E0,0E0,0E0,0E0,0E0,0E0,0E0,0E0,0E0,0E0,0E0,0E0,0E0,0E0],"parents":[2147483647,0,0,1,1,2,2,3,3,4,4,5,5,6,6,7,7,8,8,9,9,10,10,11,11,13,13,14,14,18,18,19,19,23,23,25,25,26,26,27,27,28,28,32,32,33,33,35,35,36,36,37,37,38,38,39,39,40,40,41,41,42,42],"right_children":[2,4,6,8,10,12,14,16,18,20,22,24,-1,26,28,-1,-1,-1,30,32,-1,-1,-1,34,-1,36,38,40,42,-1,-1,-1,44,46,-1,48,50,52,54,56,58,60,62,-1,-1,-1,-1,-1,-1,-1,-1,-1,-1,-1,-1,-1,-1,-1,-1,-1,-1,-1,-1],"split_conditions":[-1.0587601E1,6.7216337E-1,-7.5550737E0,-3.4705048E1,5.5801697E0,5.454918E2,2.3693493E1,-9.4739944E7,-5.864584E-1,-2.7397925E-2,8.844116E0,4.774227E1,1.6140638E-1,-7.323752E-2,1.1009401E1,-6.0953613E-2,2.7494338E-1,1.4363347E-1,-9.367053E8,-9.425409E7,-5.9276167E-2,-1.6889794E-1,1.540837E-1,-9.367053E8,4.125768E-2,-2.4363708E0,3.2507793E1,3.059891E1,1.9279907E1,-8.512266E-2,-3.478024E-1,-1.5143653E-2,1.0793584E1,7.2599417E-1,-3.6509603E-1,5.252735E0,5.4256744E0,2.5722525E1,2.3662707E-1,2.6003385E0,6.471303E0,9.970101E-2,1.646145E8,3.9803717E-1,7.025423E-2,9.6194714E-2,-1.8810052E-1,-1.4091705E-1,9.447517E-2,2.2295007E-1,-9.721365E-2,-1.3886572E-1,4.2445317E-2,-3.5961643E-1,6.618166E-3,3.5781553E-1,2.240812E-2,-2.7144662E-1,8.496535E-2,-2.518898E-1,3.7293114E-2,-3.5735905E-1,4.051919E-2],"split_indices":[10,43,10,108,112,22,57,11,26,104,112,70,0,88,107,0,0,0,6,11,0,0,0,6,0,112,58,74,98,0,0,0,84,43,0,97,10,58,7,25,18,73,8,0,0,0,0,0,0,0,0,0,0,0,0,0,0,0,0,0,0,0,0],"split_type":[0,0,0,0,0,0,0,0,0,0,0,0,0,0,0,0,0,0,0,0,0,0,0,0,0,0,0,0,0,0,0,0,0,0,0,0,0,0,0,0,0,0,0,0,0,0,0,0,0,0,0,0,0,0,0,0,0,0,0,0,0,0,0],"sum_hessian":[2.2932373E2,1.923357E1,2.1009016E2,6.788529E0,1.2445041E1,1.0335256E1,1.9975491E2,2.5433295E0,4.245199E0,9.66251E0,2.7825305E0,8.64682E0,1.6884353E0,1.2271409E2,7.7040825E1,1.0892558E0,1.4540737E0,1.2360168E0,3.0091827E0,7.887278E0,1.7752317E0,1.5995406E0,1.18299E0,7.6370053E0,1.0098152E0,5.1291515E1,7.142258E1,2.1474842E1,5.5565983E1,1.0020815E0,2.007101E0,1.364696E0,6.522582E0,2.3421483E0,5.2948565E0,2.6244852E1,2.5046661E1,6.2016415E1,9.406162E0,1.5163081E1,6.3117604E0,5.0322796E1,5.243186E0,5.4331326E0,1.0894495E0,1.1217217E0,1.2204266E0,1.8683746E1,7.5611053E0,1.8961708E1,6.0849533E0,2.8685663E1,3.333075E1,6.422796E0,2.9833663E0,9.593976E0,5.5691047E0,1.5220249E0,4.7897353E0,2.5382051E0,4.778459E1,3.0509946E0,2.1921914E0],"tree_param":{"num_deleted":"0","num_feature":"119","num_nodes":"63","size_leaf_vector":"1"}},{"base_weights":[-2.624164E-3,-2.3112018E-2,4.4945955E-1,-8.143724E-3,-7.0223916E-1,2.783963E-1,1.4850177E-2,-5.8901984E-2,2.2267513E-1,2.1443734E-2,-2.8512406E-1,-3.135296E-1,1.8772447E-1,-3.6305763E-2,-1.091314E0,9.343759E-1,7.20719E-2,1.1967643E-1,-6.504336E-1,6.2687904E-1,-6.1635703E-2,-3.7896582E-1,-1.0916862E-1,-2.7856229E-2,3.4068897E-1,-7.8313386E-1,2.5700268E-1,-2.1584626E-2,-2.556779E-1,2.9121807E-1,3.9333143E-4,7.865932E-3,-8.7784894E-2,-1.3813858E-2,-3.8625947E-1,2.3005702E-1,4.4421526E-3],"categories":[],"categories_nodes":[],"categories_segments":[],"categories_sizes":[],"default_left":[0,0,0,0,0,0,0,0,0,0,0,0,0,0,0,0,0,0,0,0,0,0,0,0,0,0,0,0,0,0,0,0,0,0,0,0,0],"id":10,"left_children":[1,3,5,7,9,-1,11,13,15,-1,-1,17,-1,19,21,23,25,-1,27,29,31,-1,-1,-1,-1,33,35,-1,-1,-1,-1,-1,-1,-1,-1,-1,-1],"loss_changes":[2.094871E0,2.1925056E0,2.0255609E0,2.5038667E0,9.611323E-1,0E0,1.4309201E0,4.0443377E0,4.0627284E0,0E0,0E0,1.3802439E0,0E0,2.9338E0,4.8804283E-3,1.4794407E0,5.402346E0,0E0,3.5319877E-1,1.3818307E0,3.394907E0,0E0,0E0,0E0,0E0,2.206402E0,3.420536E0,0E0,0E0,0E0,0E0,0E0,0E0,0E0,0E0,0E0,0E0],"parents":[2147483647,0,0,1,1,2,2,3,3,4,4,6,6,7,7,8,8,11,11,13,13,14,14,15,15,16,16,18,18,19,19,20,20,25,25,26,26],"right_children":[2,4,6,8,10,-1,12,14,16,-1,-1,18,-1,20,22,24,26,-1,28,30,32,-1,-1,-1,-1,34,36,-1,-1,-1,-1,-1,-1,-1,-1,-1,-1],"split_conditions":[9.164138E0,2.003601E8,1.0741341E1,1.2852631E1,1.0358056E0,2.783963E-1,1.2945562E1,3.78938E-2,1.0369061E-1,2.1443734E-2,-2.8512406E-1,2.722351E-1,1.8772447E-1,-1.1860606E1,9.562572E-1,4.3686212E2,4.30061E7,1.1967643E-1,-3.4629269E0,6.145274E1,1.8102604E0,-3.7896582E-1,-1.0916862E-1,-2.7856229E-2,3.4068897E-1,6.9276184E-2,5.7576042E1,-2.1584626E-2,-2.556779E-1,2.9121807E-1,3.9333143E-4,7.865932E-3,-8.7784894E-2,-1.3813858E-2,-3.8625947E-1,2.3005702E-1,4.4421526E-3],"split_indices":[92,8,92,98,36,0,48,99,83,0,0,48,0,85,33,2,4,0,38,13,80,0,0,0,0,88,13,0,0,0,0,0,0,0,0,0,0],"split_type":[0,0,0,0,0,0,0,0,0,0,0,0,0,0,0,0,0,0,0,0,0,0,0,0,0,0,0,0,0,0,0,0,0,0,0,0,0],"sum_hessian":[2.2405208E2,2.1524628E2,8.805809E0,2.1159462E2,3.6516573E0,3.6508288E0,5.15498E0,1.7406224E2,3.7532375E1,1.0597422E0,2.5919154E0,3.6693466E0,1.4856337E0,1.7134717E2,2.7150793E0,5.646181E0,3.1886194E1,1.118973E0,2.5503736E0,5.4300427E0,1.6591713E2,1.6003115E0,1.1147678E0,1.0132134E0,4.6329675E0,5.0940766E0,2.6792118E1,1.0105033E0,1.5398703E0,3.1479802E0,2.2820625E0,1.20840775E2,4.507635E1,2.5130253E0,2.5810513E0,7.930687E0,1.886143E1],"tree_param":{"num_deleted":"0","num_feature":"119","num_nodes":"37","size_leaf_vector":"1"}},{"base_weights":[-1.2251176E-3,1.4885312E-2,-5.069044E-1,-9.834679E-3,5.4959065E-1,-7.867866E-1,1.4922889E-1,5.8276798E-3,-6.248475E-1,-1.1930551E-1,8.6783445E-1,-1.4519728E-5,-1.0071213E0,-3.479196E-2,2.8744397E-1,5.1119342E-2,-9.127639E-1,1.3524476E-1,-2.1248198E-1,3.3956757E-1,-6.542663E-2,-3.7958932E-1,-4.5305304E-2,6.0738003E-1,-5.2673645E-2,6.457172E-1,4.726854E-2,-3.195839E-1,-7.058502E-2,3.0525354E-1,-4.265056E-2,6.583977E-3,-8.1610516E-2,2.409641E-1,-7.8969374E-2,-2.3560573E-1,7.504346E-2],"categories":[],"categories_nodes":[],"categories_segments":[],"categories_sizes":[],"default_left":[0,0,0,0,0,0,0,0,0,0,0,0,0,0,0,0,0,0,0,0,0,0,0,0,0,0,0,0,0,0,0,0,0,0,0,0,0],"id":11,"left_children":[1,3,5,7,9,11,-1,13,15,17,19,-1,21,23,25,-1,27,-1,-1,-1,-1,-1,-1,29,31,33,35,-1,-1,-1,-1,-1,-1,-1,-1,-1,-1],"loss_changes":[1.8158499E0,2.861605E0,2.3258247E0,2.002584E0,2.1398737E0,1.0000446E0,0E0,2.3362296E0,1.3376381E0,1.650051E0,2.140205E0,0E0,8.050904E-1,2.0830443E0,2.184556E0,0E0,1.5727091E-1,0E0,0E0,0E0,0E0,0E0,0E0,1.6567318E0,2.8655307E0,1.6790886E0,2.981941E0,0E0,0E0,0E0,0E0,0E0,0E0,0E0,0E0,0E0,0E0],"parents":[2147483647,0,0,1,1,2,2,3,3,4,4,5,5,7,7,8,8,9,9,10,10,12,12,13,13,14,14,16,16,23,23,24,24,25,25,26,26],"right_children":[2,4,6,8,10,12,-1,14,16,18,20,-1,22,24,26,-1,28,-1,-1,-1,-1,-1,-1,30,32,34,36,-1,-1,-1,-1,-1,-1,-1,-1,-1,-1],"split_conditions":[5.939266E2,5.906518E2,8.912226E0,5.887196E2,-9.122727E0,-3.1606445E0,1.4922889E-1,5.0595566E2,-1.5124546E0,2.2024918E-1,6.317034E1,-1.4519728E-5,9.36969E-1,-1.7258042E-1,5.478268E2,5.1119342E-2,7.901888E7,1.3524476E-1,-2.1248198E-1,3.3956757E-1,-6.542663E-2,-3.7958932E-1,-4.5305304E-2,3.5772126E0,2.5774628E1,6.803524E1,3.8217E7,-3.195839E-1,-7.058502E-2,3.0525354E-1,-4.265056E-2,6.583977E-3,-8.1610516E-2,2.409641E-1,-7.8969374E-2,-2.3560573E-1,7.504346E-2],"split_indices":[24,117,36,113,51,114,0,61,86,73,75,0,33,7,117,0,8,0,0,0,0,0,0,48,47,75,4,0,0,0,0,0,0,0,0,0,0],"split_type":[0,0,0,0,0,0,0,0,0,0,0,0,0,0,0,0,0,0,0,0,0,0,0,0,0,0,0,0,0,0,0,0,0,0,0,0,0],"sum_hessian":[2.2096744E2,2.1508559E2,5.881845E0,2.0651958E2,8.56601E0,4.7693563E0,1.112489E0,2.0235674E2,4.1628385E0,2.9631243E0,5.6028867E0,1.2623096E0,3.5070465E0,1.7761452E2,2.4742224E1,1.2150247E0,2.9478135E0,1.6248419E0,1.3382823E0,4.4729056E0,1.129981E0,2.327244E0,1.1798025E0,3.918694E0,1.7369582E2,9.252143E0,1.549008E1,1.9389089E0,1.0089047E0,2.301745E0,1.6169488E0,1.302788E2,4.3417027E1,7.9849E0,1.2672435E0,2.4723332E0,1.3017747E1],"tree_param":{"num_deleted":"0","num_feature":"119","num_nodes":"37","size_leaf_vector":"1"}},{"base_weights":[-1.1370273E-3,1.4278665E-2,-5.288538E-1,3.8775426E-4,2.46725E-1,-9.852765E-1,1.1885971E-1,-2.7546507E-1,2.9864555E-2,-9.1134526E-2,-3.420813E-1,-1.2070216E-1,1.7242286E-1,4.248618E-2,-7.7465487E-1,4.166283E-1,-3.2883382E-3,3.39015E-1,-7.0927316E-1,-9.105371E-2,-3.6356786E-1,9.5319456E-1,-1.4371921E-2,1.53896995E-2,-5.493196E-1,-7.775715E-2,2.642857E-1,-3.322219E-1,2.106095E-2,-2.2885776E-1,1.7920227E-1,3.3391982E-1,6.005149E-2,2.0690589E-1,-1.1780538E-1,-3.67471E-3,1.3627562E-1,-2.3481682E-1,8.067092E-2],"categories":[],"categories_nodes":[],"categories_segments":[],"categories_sizes":[],"default_left":[0,0,0,0,0,0,0,0,0,0,0,0,0,0,0,0,0,0,0,0,0,0,0,0,0,0,0,0,0,0,0,0,0,0,0,0,0,0,0],"id":12,"left_children":[1,3,5,7,-1,9,11,13,15,-1,-1,-1,-1,17,19,21,23,25,27,29,-1,31,33,35,37,-1,-1,-1,-1,-1,-1,-1,-1,-1,-1,-1,-1,-1,-1],"loss_changes":[1.7951176E0,2.4072895E0,1.9686475E0,1.7308154E0,0E0,5.3057194E-2,1.0584263E0,3.294533E0,2.4670792E0,0E0,0E0,0E0,0E0,3.2502587E0,2.2951584E0,3.5265348E0,1.8249404E0,3.5866742E0,1.3633561E0,2.4076388E0,0E0,5.935631E-1,2.7768965E0,2.106286E0,1.3407207E0,0E0,0E0,0E0,0E0,0E0,0E0,0E0,0E0,0E0,0E0,0E0,0E0,0E0,0E0],"parents":[2147483647,0,0,1,1,2,2,3,3,5,5,6,6,7,7,8,8,13,13,14,14,15,15,16,16,17,17,18,18,19,19,21,21,22,22,23,23,24,24],"right_children":[2,4,6,8,-1,10,12,14,16,-1,-1,-1,-1,18,20,22,24,26,28,30,-1,32,34,36,38,-1,-1,-1,-1,-1,-1,-1,-1,-1,-1,-1,-1,-1,-1],"split_conditions":[5.0381295E-2,1.9422607E1,8.51116E7,2.2423275E0,2.46725E-1,7.8153753E-1,3.9417642E8,1.9720538E0,1.3873327E0,-9.1134526E-2,-3.420813E-1,-1.2070216E-1,1.7242286E-1,3.0654256E0,3.0197144E-1,7.940033E0,5.9837964E2,3.1378174E0,5.886532E0,4.21432E0,-3.6356786E-1,2.5406387E-1,-5.5398192E0,5.8438257E2,1.7177696E0,-7.775715E-2,2.642857E-1,-3.322219E-1,2.106095E-2,-2.2885776E-1,1.7920227E-1,3.3391982E-1,6.005149E-2,2.0690589E-1,-1.1780538E-1,-3.67471E-3,1.3627562E-1,-2.3481682E-1,8.067092E-2],"split_indices":[94,93,4,97,0,19,5,97,25,0,0,0,0,51,93,98,3,98,32,32,0,88,48,22,25,0,0,0,0,0,0,0,0,0,0,0,0,0,0],"split_type":[0,0,0,0,0,0,0,0,0,0,0,0,0,0,0,0,0,0,0,0,0,0,0,0,0,0,0,0,0,0,0,0,0,0,0,0,0,0,0],"sum_hessian":[2.1873448E2,2.1347148E2,5.262999E0,2.1084775E2,2.623737E0,2.7816787E0,2.4813201E0,1.9549786E1,1.9129796E2,1.0638759E0,1.7178029E0,1.2125216E0,1.2687986E0,1.2501829E1,7.0479574E0,1.4189972E1,1.7710799E2,9.359174E0,3.1426551E0,3.2207355E0,3.8272219E0,5.7811913E0,8.40878E0,1.7218973E2,4.918261E0,4.6966333E0,4.6625404E0,1.8016968E0,1.3409584E0,1.5752627E0,1.6454729E0,4.3743567E0,1.4068344E0,2.6513784E0,5.757402E0,1.6290251E2,9.287208E0,3.860435E0,1.057826E0],"tree_param":{"num_deleted":"0","num_feature":"119","num_nodes":"39","size_leaf_vector":"1"}},{"base_weights":[-1.1270371E-3,5.514807E-1,-1.422968E-2,2.5688955E-1,-9.882847E-2,-3.3965375E-2,3.4322324E-1,3.1768426E-1,-6.1085336E-2,-2.1132198E-1,6.43136E-1,-6.292438E-1,5.372087E-1,-1.8863182E-1,5.2861612E-2,9.3558085E-1,-1.877635E-1,-2.7585095E-1,-2.1138452E-3,7.376304E-1,-1.6252841E-1,-2.582669E-1,2.3169322E-1,6.27808E-1,-5.5710715E-3,-6.649666E-2,3.8975364E-1,-1.5800561E-1,6.445335E-2,2.8426015E-1,-1.18357735E-2,-1.8042538E-1,-3.845567E-2,-5.0798498E-2,1.8220833E-1,2.5072637E-1,-1.479725E-1,9.1170006E-2,-3.1384807E-2],"categories":[],"categories_nodes":[],"categories_segments":[],"categories_sizes":[],"default_left":[0,0,0,0,0,0,0,0,0,0,0,0,0,0,0,0,0,0,0,0,0,0,0,0,0,0,0,0,0,0,0,0,0,0,0,0,0,0,0],"id":13,"left_children":[1,3,5,-1,-1,7,9,11,13,-1,15,17,19,21,23,25,27,-1,-1,29,-1,31,33,35,37,-1,-1,-1,-1,-1,-1,-1,-1,-1,-1,-1,-1,-1,-1],"loss_changes":[1.5765729E0,1.6362758E0,1.5115534E0,0E0,0E0,1.9496231E0,3.9766378E0,3.3840156E0,2.7531078E0,0E0,2.4212577E0,5.7472825E-1,3.0886345E0,2.6729202E0,3.378796E0,3.2344856E0,5.5508536E-1,0E0,0E0,1.8169861E0,0E0,3.362743E0,2.0937734E0,2.5749962E0,2.8575819E0,0E0,0E0,0E0,0E0,0E0,0E0,0E0,0E0,0E0,0E0,0E0,0E0,0E0,0E0],"parents":[2147483647,0,0,1,1,2,2,5,5,6,6,7,7,8,8,10,10,11,11,12,12,13,13,14,14,15,15,16,16,19,19,21,21,22,22,23,23,24,24],"right_children":[2,4,6,-1,-1,8,10,12,14,-1,16,18,20,22,24,26,28,-1,-1,30,-1,32,34,36,38,-1,-1,-1,-1,-1,-1,-1,-1,-1,-1,-1,-1,-1,-1],"split_conditions":[-2.237514E9,3.6119385E0,1E0,2.5688955E-1,-9.882847E-2,-1.2523983E-1,-2.5283177E0,-3.7211072E-1,5.2E1,-2.1132198E-1,7.2334795E0,3.3968477E0,-5.8853556E7,1.20076275E1,4.8429494E0,-6.251268E0,7.981927E-1,-2.7585095E-1,-2.1138452E-3,4.8955847E2,-1.6252841E-1,-8.017862E7,3.6031366E2,8.813978E-1,1.2856689E1,-6.649666E-2,3.8975364E-1,-1.5800561E-1,6.445335E-2,2.8426015E-1,-1.18357735E-2,-1.8042538E-1,-3.845567E-2,-5.0798498E-2,1.8220833E-1,2.5072637E-1,-1.479725E-1,9.1170006E-2,-3.1384807E-2],"split_indices":[6,114,68,0,0,7,86,85,65,0,102,92,11,18,79,85,43,0,0,2,0,11,117,72,108,0,0,0,0,0,0,0,0,0,0,0,0,0,0],"split_type":[0,0,0,0,0,0,0,0,0,0,0,0,0,0,0,0,0,0,0,0,0,0,0,0,0,0,0,0,0,0,0,0,0,0,0,0,0,0,0],"sum_hessian":[2.1565619E2,4.043214E0,2.1161298E2,3.0245702E0,1.0186436E0,2.0139835E2,1.0214627E1,1.3653027E1,1.8774532E2,1.9732239E0,8.241404E0,2.2182245E0,1.1434802E1,8.827702E1,9.94683E1,6.002698E0,2.2387056E0,1.1867611E0,1.0314634E0,9.910294E0,1.5245085E0,7.60615E1,1.221552E1,8.277546E0,9.119075E1,1.5284444E0,4.4742537E0,1.0481619E0,1.1905437E0,7.629964E0,2.2803297E0,1.9911669E1,5.6149834E1,6.174048E0,6.0414724E0,7.197037E0,1.0805088E0,2.160779E1,6.958296E1],"tree_param":{"num_deleted":"0","num_feature":"119","num_nodes":"39","size_leaf_vector":"1"}},{"base_weights":[9.648868E-4,5.0245438E-2,-1.3393521E-1,-1.3751037E-2,5.723187E-1,2.13296E-2,-5.4101014E-1,-8.617346E-1,1.5484764E-2,-1.2110553E-1,7.265294E-1,1.4971752E-1,-4.242241E-1,-1.031142E0,-1.5366809E-1,-3.2170442E-1,-1.3550071E-2,5.2382874E-1,-3.7400607E-2,8.6631083E-1,-1.6483317E-1,-4.3113455E-1,2.7895185E-1,-7.351978E-1,2.8344548E-1,-2.4070241E-3,-3.7116063E-1,5.747736E-1,-5.4638255E-1,9.959672E-1,7.496127E-2,-9.359268E-2,3.5321647E-1,1.0100214E0,-6.205843E-2,1.127996E-1,-6.621092E-1,4.7117484E-1,-2.980211E-1,2.0054502E-2,-9.849483E-1,-9.5889755E-2,1.9197506E-1,1.0982655E-2,2.2612295E-1,-8.399948E-1,7.141607E-2,-8.235765E-3,3.6313063E-1,1.869385E-1,-1.3615794E-1,-2.2823894E-3,-1.4744997E-1,-1.4429522E-1,1.6340405E-1,3.4354973E-1,1.7822508E-2,6.479213E-2,-2.8664133E-1,1.7270233E-1,-4.834151E-2,-2.0409709E-1,1.3353176E-1,-3.3021295E-1,-8.466933E-2,-2.9741982E-1,-3.7296843E-2],"categories":[],"categories_nodes":[],"categories_segments":[],"categories_sizes":[],"default_left":[0,0,0,0,0,0,0,0,0,0,0,0,0,0,0,0,0,0,0,0,0,0,0,0,0,0,0,0,0,0,0,0,0,0,0,0,0,0,0,0,0,0,0,0,0,0,0,0,0,0,0,0,0,0,0,0,0,0,0,0,0,0,0,0,0,0,0],"id":14,"left_children":[1,3,5,7,9,11,13,15,17,-1,19,21,23,25,27,-1,-1,29,31,33,-1,35,37,39,41,-1,-1,43,45,47,49,51,53,55,-1,-1,57,59,61,-1,63,-1,-1,-1,-1,65,-1,-1,-1,-1,-1,-1,-1,-1,-1,-1,-1,-1,-1,-1,-1,-1,-1,-1,-1,-1,-1],"loss_changes":[1.4248252E0,5.2522006E0,3.636201E0,3.5040216E0,2.8765578E0,2.4933083E0,2.854837E0,7.6163554E-1,3.7051473E0,0E0,3.1832285E0,2.651012E0,2.356804E0,1.4302654E0,3.1864157E0,0E0,0E0,2.6772056E0,2.77909E0,2.3786192E0,0E0,1.4660711E0,3.266341E0,1.4801385E0,1.0004117E0,0E0,0E0,3.5809016E-1,1.8205905E0,1.4043956E0,2.5258927E0,3.7653742E0,2.808418E0,1.5477037E0,0E0,0E0,1.607228E0,1.5153193E0,2.477882E0,0E0,1.3248873E-1,0E0,0E0,0E0,0E0,4.554565E-1,0E0,0E0,0E0,0E0,0E0,0E0,0E0,0E0,0E0,0E0,0E0,0E0,0E0,0E0,0E0,0E0,0E0,0E0,0E0,0E0,0E0],"parents":[2147483647,0,0,1,1,2,2,3,3,4,4,5,5,6,6,7,7,8,8,10,10,11,11,12,12,13,13,14,14,17,17,18,18,19,19,21,21,22,22,23,23,24,24,27,27,28,28,29,29,30,30,31,31,32,32,33,33,36,36,37,37,38,38,40,40,45,45],"right_children":[2,4,6,8,10,12,14,16,18,-1,20,22,24,26,28,-1,-1,30,32,34,-1,36,38,40,42,-1,-1,44,46,48,50,52,54,56,-1,-1,58,60,62,-1,64,-1,-1,-1,-1,66,-1,-1,-1,-1,-1,-1,-1,-1,-1,-1,-1,-1,-1,-1,-1,-1,-1,-1,-1,-1,-1],"split_conditions":[1.5339934E-2,2.3065925E-2,8.7428436E-2,-1.0830841E1,5.1782906E1,1.3519193E0,8.64219E0,7.0099597E0,-1.9627763E-2,-1.2110553E-1,1.0537298E0,-9.425409E7,3.0380167E1,-1.1704205E1,1.8641973E1,-3.2170442E-1,-1.3550071E-2,1.0266815E0,1.2866516E1,-5.640085E7,-1.6483317E-1,-1.9108028E9,3.070091E8,3.6161156E0,2.2234055E1,-2.4070241E-3,-3.7116063E-1,1.7115664E-2,9.783293E-1,-7.674926E-2,-1.1133942E1,5.605282E7,2.4413637E1,1.2514666E0,-6.205843E-2,1.127996E-1,3.6388523E1,4.03356E-2,1.51524795E-2,2.0054502E-2,9.916017E0,-9.5889755E-2,1.9197506E-1,1.0982655E-2,2.2612295E-1,3.5108396E9,7.141607E-2,-8.235765E-3,3.6313063E-1,1.869385E-1,-1.3615794E-1,-2.2823894E-3,-1.4744997E-1,-1.4429522E-1,1.6340405E-1,3.4354973E-1,1.7822508E-2,6.479213E-2,-2.8664133E-1,1.7270233E-1,-4.834151E-2,-2.0409709E-1,1.3353176E-1,-3.3021295E-1,-8.466933E-2,-2.9741982E-1,-3.7296843E-2],"split_indices":[100,94,7,114,75,88,79,92,94,0,19,11,57,9,57,0,0,48,98,11,0,6,6,92,9,0,0,100,33,7,98,8,58,43,0,0,75,94,7,0,50,0,0,0,0,5,0,0,0,0,0,0,0,0,0,0,0,0,0,0,0,0,0,0,0,0,0],"split_type":[0,0,0,0,0,0,0,0,0,0,0,0,0,0,0,0,0,0,0,0,0,0,0,0,0,0,0,0,0,0,0,0,0,0,0,0,0,0,0,0,0,0,0,0,0,0,0,0,0,0,0,0,0,0,0,0,0,0,0,0,0,0,0,0,0,0,0],"sum_hessian":[2.1231314E2,1.5596492E2,5.6348232E1,1.3980151E2,1.6163406E1,4.1476166E1,1.4872065E1,3.7102582E0,1.3609125E2,1.9846641E0,1.4178741E1,3.27136E1,8.762568E0,5.831257E0,9.040808E0,2.7004945E0,1.0097638E0,1.1984927E1,1.2410632E2,1.3068194E1,1.1105472E0,5.5286508E0,2.7184948E1,6.0604877E0,2.702081E0,1.1517222E0,4.6795344E0,3.0043957E0,6.036412E0,5.2470284E0,6.737899E0,1.091631E2,1.4943219E1,1.1576772E1,1.4914228E0,1.0904015E0,4.4382496E0,2.052894E1,6.6560063E0,1.6129657E0,4.447522E0,1.0422114E0,1.6598694E0,1.0503942E0,1.9540015E0,4.3408265E0,1.6955854E0,1.0601416E0,4.186887E0,3.2208672E0,3.5170317E0,9.06035E1,1.8559605E1,2.507217E0,1.2436002E1,9.956625E0,1.620147E0,1.1775212E0,3.2607281E0,1.7694263E1,2.8346777E0,4.4508E0,2.2052066E0,3.332228E0,1.1152942E0,3.2648566E0,1.0759699E0],"tree_param":{"num_deleted":"0","num_feature":"119","num_nodes":"67","size_leaf_vector":"1"}},{"base_weights":[-2.8779935E-3,9.445458E-3,-4.9923074E-1,4.9813904E-2,-1.6377315E-1,6.206633E-2,-7.844253E-1,1.6503209E-1,-3.7889775E-2,-3.2782003E-1,2.557359E-1,-2.7930778E-1,-6.815981E-2,2.1017826E-1,-6.992952E-1,3.366751E-2,-5.139952E-1,-5.956453E-1,2.0280862E-1,8.120886E-1,-3.3254516E-1,7.0859146E-1,1.2708594E-1,-2.843355E-1,-3.511997E-3,-1.3893039E-2,7.1577144E-1,-7.96451E-1,5.220143E-2,-8.0071455E-1,2.2518663E-1,2.5965226E-1,-8.916893E-2,3.1612122E-1,1.8907718E-2,-2.1708573E-1,2.0749088E-1,3.0183926E-1,-1.6706673E-2,5.0460704E-2,-2.8180817E-1,-4.7444284E-2,6.0423497E-2,3.264655E-1,-1.3648161E-1,-2.3111429E-2,-3.039443E-1,1.5901394E-1,-1.567825E-1,-4.147345E-2,-2.8349182E-1,1.9460078E-1,-7.895093E-2,-2.0290199E-1,1.2831058E-1,-7.642545E-2,1.6175021E-1],"categories":[],"categories_nodes":[],"categories_segments":[],"categories_sizes":[],"default_left":[0,0,0,0,0,0,0,0,0,0,0,0,0,0,0,0,0,0,0,0,0,0,0,0,0,0,0,0,0,0,0,0,0,0,0,0,0,0,0,0,0,0,0,0,0,0,0,0,0,0,0,0,0,0,0,0,0],"id":15,"left_children":[1,3,5,7,9,-1,11,13,15,17,19,-1,-1,21,23,25,27,29,31,33,35,37,39,-1,-1,41,43,45,47,49,51,-1,53,-1,-1,-1,55,-1,-1,-1,-1,-1,-1,-1,-1,-1,-1,-1,-1,-1,-1,-1,-1,-1,-1,-1,-1],"loss_changes":[1.2729522E0,1.4297171E0,1.1775773E0,1.6800462E0,2.7441487E0,0E0,9.8882675E-2,2.9477787E0,3.2491565E0,4.1324234E0,4.010591E0,0E0,0E0,2.7668138E0,6.371571E-1,2.7157485E0,2.033632E0,3.3807817E0,2.0536046E0,1.049387E0,1.4731591E0,2.2478566E0,2.8039968E0,0E0,0E0,2.4839592E0,2.8738544E0,1.2270808E0,1.6734984E0,1.3441734E0,1.1181331E0,0E0,2.7163165E0,0E0,0E0,0E0,6.5989363E-1,0E0,0E0,0E0,0E0,0E0,0E0,0E0,0E0,0E0,0E0,0E0,0E0,0E0,0E0,0E0,0E0,0E0,0E0,0E0,0E0],"parents":[2147483647,0,0,1,1,2,2,3,3,4,4,6,6,7,7,8,8,9,9,10,10,13,13,14,14,15,15,16,16,17,17,18,18,19,19,20,20,21,21,22,22,25,25,26,26,27,27,28,28,29,29,30,30,32,32,36,36],"right_children":[2,4,6,8,10,-1,12,14,16,18,20,-1,-1,22,24,26,28,30,32,34,36,38,40,-1,-1,42,44,46,48,50,52,-1,54,-1,-1,-1,56,-1,-1,-1,-1,-1,-1,-1,-1,-1,-1,-1,-1,-1,-1,-1,-1,-1,-1,-1,-1],"split_conditions":[3.6741292E-1,4.124106E0,8.641167E1,-1.1883545E-1,3.1090393E0,6.206633E-2,-9.778422E0,1.3251005E8,5.6460095E2,1.27108E-2,8.216192E0,-2.7930778E-1,-6.815981E-2,1.6189463E1,-1.6494141E0,5.113708E2,9.504936E-1,5.366869E2,1.4328053E-2,2.6500278E1,4.1752222E2,9.96596E1,3.8224575E1,-2.843355E-1,-3.511997E-3,2.358453E1,6.119619E0,3.71774E7,2.2235588E1,5.8313154E-2,3.481407E-1,2.5965226E-1,3.066421E-2,3.1612122E-1,1.8907718E-2,-2.1708573E-1,2.5014343E1,3.0183926E-1,-1.6706673E-2,5.0460704E-2,-2.8180817E-1,-4.7444284E-2,6.0423497E-2,3.264655E-1,-1.3648161E-1,-2.3111429E-2,-3.039443E-1,1.5901394E-1,-1.567825E-1,-4.147345E-2,-2.8349182E-1,1.9460078E-1,-7.895093E-2,-2.0290199E-1,1.2831058E-1,-7.642545E-2,1.6175021E-1],"split_indices":[7,48,56,112,112,0,84,8,1,95,102,0,0,59,112,17,33,62,95,50,12,56,58,0,0,57,37,4,57,73,72,0,105,0,0,0,57,0,0,0,0,0,0,0,0,0,0,0,0,0,0,0,0,0,0,0,0],"split_type":[0,0,0,0,0,0,0,0,0,0,0,0,0,0,0,0,0,0,0,0,0,0,0,0,0,0,0,0,0,0,0,0,0,0,0,0,0,0,0,0,0,0,0,0,0,0,0,0,0,0,0,0,0,0,0,0,0],"sum_hessian":[2.0633734E2,2.0229572E2,4.04163E0,1.6463913E2,3.7656586E1,1.2417446E0,2.799885E0,7.077665E1,9.386248E1,2.722784E1,1.0428746E1,1.6855981E0,1.1142869E0,6.798257E1,2.7940853E0,8.240633E1,1.1456151E1,1.8013382E1,9.214458E0,5.1642947E0,5.2644515E0,8.638491E0,5.9344074E1,1.7744081E0,1.0196772E0,7.7950745E1,4.455581E0,7.3718987E0,4.084253E0,1.4432264E1,3.581118E0,2.217385E0,6.9970737E0,3.5971184E0,1.5671765E0,2.8561723E0,2.4082792E0,5.990074E0,2.6484168E0,5.7952034E1,1.3920392E0,4.6836006E1,3.1114744E1,3.433666E0,1.021915E0,2.0202768E0,5.3516216E0,2.27276E0,1.811493E0,2.9309447E0,1.1501319E1,1.7421377E0,1.8389806E0,3.1313252E0,3.8657482E0,1.1030027E0,1.3052765E0],"tree_param":{"num_deleted":"0","num_feature":"119","num_nodes":"57","size_leaf_vector":"1"}},{"base_weights":[-3.874113E-3,-2.9609218E-1,1.797367E-2,1.7641017E-1,-5.35967E-1,4.4515226E-2,-3.1102368E-1,-3.656831E-1,2.1716328E-1,1.0792499E-1,-6.8931794E-1,1.9931097E-2,6.303086E-1,-7.655675E-1,1.08155966E-1,8.6459935E-2,-2.4963701E-1,-8.1097203E-1,2.838547E-2,2.2529692E-3,6.236369E-1,-1.7294655E-2,9.422009E-1,-1.0251375E0,-1.041748E-2,5.3896004E-1,-3.1499842E-1,-6.976782E-3,-1.0200433E0,2.6874835E-2,-5.0728816E-1,2.941379E-1,-7.570497E-2,-2.14638E-1,2.2008628E-1,3.147773E-1,8.533533E-2,-3.663329E-1,-6.249944E-2,2.372769E-2,2.5544706E-1,1.4582391E-1,-6.7908555E-1,-3.5179025E-1,-4.0529303E-2,-1.3276141E-3,1.2545112E-1,1.5175492E-1,-2.2152117E-1,-2.4815221E-1,-4.21492E-2],"categories":[],"categories_nodes":[],"categories_segments":[],"categories_sizes":[],"default_left":[0,0,0,0,0,0,0,0,0,0,0,0,0,0,0,0,0,0,0,0,0,0,0,0,0,0,0,0,0,0,0,0,0,0,0,0,0,0,0,0,0,0,0,0,0,0,0,0,0,0,0],"id":16,"left_children":[1,3,5,7,9,11,13,15,-1,-1,17,19,21,23,25,-1,-1,27,-1,29,31,33,35,37,-1,39,41,-1,43,45,47,-1,-1,-1,-1,-1,-1,-1,-1,-1,-1,-1,49,-1,-1,-1,-1,-1,-1,-1,-1],"loss_changes":[1.29811E0,1.6976069E0,1.6672752E0,1.9014025E0,1.5705776E0,2.5233512E0,2.7999406E0,1.2876081E0,0E0,0E0,8.9348936E-1,1.8132263E0,1.442234E0,1.2857842E0,1.6819373E0,0E0,0E0,1.2144341E0,0E0,2.0987136E0,1.7582895E0,2.2427807E0,3.833437E-2,5.62747E-1,0E0,5.76424E-1,1.7346843E0,0E0,6.407051E-1,1.9551739E0,2.179077E0,0E0,0E0,0E0,0E0,0E0,0E0,0E0,0E0,0E0,0E0,0E0,1.8113816E-1,0E0,0E0,0E0,0E0,0E0,0E0,0E0,0E0],"parents":[2147483647,0,0,1,1,2,2,3,3,4,4,5,5,6,6,7,7,10,10,11,11,12,12,13,13,14,14,17,17,19,19,20,20,21,21,22,22,23,23,25,25,26,26,28,28,29,29,30,30,42,42],"right_children":[2,4,6,8,10,12,14,16,-1,-1,18,20,22,24,26,-1,-1,28,-1,30,32,34,36,38,-1,40,42,-1,44,46,48,-1,-1,-1,-1,-1,-1,-1,-1,-1,-1,-1,50,-1,-1,-1,-1,-1,-1,-1,-1],"split_conditions":[2.8032043E-3,8.0045545E-1,6.521574E0,3.4805299E-3,-1.8213501E0,4.6617126E1,1.5905799E0,-1.71744E-1,2.1716328E-1,1.0792499E-1,5.617151E0,7.235319E1,1.5857571E0,5.3089923E2,5.5458994E0,8.6459935E-2,-2.4963701E-1,3.56347E0,2.838547E-2,1.4731116E0,3.728662E1,5.6552825E0,4.9759297E0,1.322393E0,-1.041748E-2,2.5655937E1,1.7398285E0,-6.976782E-3,1.702069E1,4.7802616E1,-8.5104065E0,2.941379E-1,-7.570497E-2,-2.14638E-1,2.2008628E-1,3.147773E-1,8.533533E-2,-3.663329E-1,-6.249944E-2,2.372769E-2,2.5544706E-1,1.4582391E-1,9.281017E1,-3.5179025E-1,-4.0529303E-2,-1.3276141E-3,1.2545112E-1,1.5175492E-1,-2.2152117E-1,-2.4815221E-1,-4.21492E-2],"split_indices":[95,92,36,48,114,108,25,88,0,0,37,70,25,66,97,0,0,36,0,82,108,102,97,43,0,74,25,0,98,49,98,0,0,0,0,0,0,0,0,0,0,0,76,0,0,0,0,0,0,0,0],"split_type":[0,0,0,0,0,0,0,0,0,0,0,0,0,0,0,0,0,0,0,0,0,0,0,0,0,0,0,0,0,0,0,0,0,0,0,0,0,0,0,0,0,0,0,0,0,0,0,0,0,0,0],"sum_hessian":[2.0149435E2,1.3143614E1,1.8835074E2,4.514865E0,8.62875E0,1.750902E2,1.3260545E1,2.4354088E0,2.079456E0,1.0645905E0,7.564159E0,1.6903047E2,6.0597186E0,5.965461E0,7.295084E0,1.1730661E0,1.2623427E0,6.5181594E0,1.0459998E0,1.651968E2,3.8336742E0,2.2767978E0,3.7829208E0,4.104872E0,1.8605882E0,3.479257E0,3.815827E0,1.6002275E0,4.9179316E0,1.5848576E2,6.711036E0,2.639317E0,1.1943572E0,1.2043072E0,1.0724905E0,2.7414877E0,1.0414331E0,2.9113793E0,1.1934931E0,1.91481E0,1.5644472E0,1.0876576E0,2.7281692E0,3.9173694E0,1.0005623E0,1.4766273E2,1.0823033E1,1.0257492E0,5.685287E0,1.7195487E0,1.0086205E0],"tree_param":{"num_deleted":"0","num_feature":"119","num_nodes":"51","size_leaf_vector":"1"}},{"base_weights":[-2.051787E-3,3.501425E-1,-1.8198818E-2,-4.7875594E-2,2.4770883E-1,-1.8393607E-1,1.8681958E-2,2.0274164E-1,-3.671535E-1,-8.703903E-1,-5.6425903E-2,4.411367E-1,-4.3529633E-2,-2.4001609E-1,8.71502E-2,-3.685144E-1,7.0260847E-3,-1.9940022E-1,5.4745674E-1,-2.0541239E-1,8.214107E-1,-7.5145376E-1,-3.2453751E-3,8.4930494E-2,-6.525114E-1,2.8202134E-1,-1.13556035E-1,2.835569E-1,-5.882579E-1,1.005174E0,-5.626144E-2,2.8385691E-2,-1.0695575E0,7.000517E-2,-1.7876515E-1,-1.5874036E-1,9.5762454E-2,-4.978561E-4,-2.5131467E-1,-9.357452E-2,2.1754836E-1,1.1459767E-1,-2.9570782E-1,3.973393E-2,3.3480814E-1,-3.6860052E-1,-6.733525E-2,8.892445E-3,2.365253E-1,2.8230568E-2,-1.1466805E-1],"categories":[],"categories_nodes":[],"categories_segments":[],"categories_sizes":[],"default_left":[0,0,0,0,0,0,0,0,0,0,0,0,0,0,0,0,0,0,0,0,0,0,0,0,0,0,0,0,0,0,0,0,0,0,0,0,0,0,0,0,0,0,0,0,0,0,0,0,0,0,0],"id":17,"left_children":[1,3,5,7,-1,9,11,-1,13,15,17,19,21,-1,-1,-1,-1,23,25,27,29,31,33,35,37,-1,-1,39,41,43,-1,-1,45,47,49,-1,-1,-1,-1,-1,-1,-1,-1,-1,-1,-1,-1,-1,-1,-1,-1],"loss_changes":[1.1409175E0,1.704238E0,1.1752477E0,1.5727651E0,0E0,3.0132875E0,4.1643314E0,0E0,1.549416E0,1.7603168E0,2.7490354E0,5.1683316E0,3.9440587E0,0E0,0E0,0E0,0E0,3.3349035E0,2.5808387E0,1.7263105E0,2.5995483E0,2.105332E0,1.7088408E0,2.5462847E0,1.19555E0,0E0,0E0,1.3656247E0,2.3036723E0,9.316292E-1,0E0,0E0,4.6284866E-1,2.6968515E0,2.208434E0,0E0,0E0,0E0,0E0,0E0,0E0,0E0,0E0,0E0,0E0,0E0,0E0,0E0,0E0,0E0,0E0],"parents":[2147483647,0,0,1,1,2,2,3,3,5,5,6,6,8,8,9,9,10,10,11,11,12,12,17,17,18,18,19,19,20,20,21,21,22,22,23,23,24,24,27,27,28,28,29,29,32,32,33,33,34,34],"right_children":[2,4,6,8,-1,10,12,-1,14,16,18,20,22,-1,-1,-1,-1,24,26,28,30,32,34,36,38,-1,-1,40,42,44,-1,-1,46,48,50,-1,-1,-1,-1,-1,-1,-1,-1,-1,-1,-1,-1,-1,-1,-1,-1],"split_conditions":[-2.1379158E9,3.811113E9,4.44922E0,3.6825467E2,2.4770883E-1,-7.94677E7,4.495117E0,2.0274164E-1,2.4565487E1,2.1312668E0,1.390868E2,3.9107397E0,1.195833E-2,-2.4001609E-1,8.71502E-2,-3.685144E-1,7.0260847E-3,6.8953354E1,2.8677568E-1,1.34729E0,5.9209126E-1,4E0,6.2111652E1,-2.9391968E-1,-9.126337E0,2.8202134E-1,-1.13556035E-1,1.1188159E0,8E0,4.3576397E-3,-5.626144E-2,2.8385691E-2,2.5460207E0,9.305146E1,-8.436722E0,-1.5874036E-1,9.5762454E-2,-4.978561E-4,-2.5131467E-1,-9.357452E-2,2.1754836E-1,1.1459767E-1,-2.9570782E-1,3.973393E-2,3.3480814E-1,-3.6860052E-1,-6.733525E-2,8.892445E-3,2.365253E-1,2.8230568E-2,-1.1466805E-1],"split_indices":[6,5,32,0,0,11,18,0,77,86,60,18,105,0,0,0,0,77,7,114,38,64,75,83,9,0,0,92,64,100,0,0,51,77,84,0,0,0,0,0,0,0,0,0,0,0,0,0,0,0,0],"split_type":[0,0,0,0,0,0,0,0,0,0,0,0,0,0,0,0,0,0,0,0,0,0,0,0,0,0,0,0,0,0,0,0,0,0,0,0,0,0,0,0,0,0,0,0,0,0,0,0,0,0,0],"sum_hessian":[1.9850182E2,7.7949967E0,1.9070682E2,4.7330017E0,3.061995E0,3.3986908E1,1.5671991E2,1.1070573E0,3.6259446E0,4.4114904E0,2.9575417E1,1.9334684E1,1.3738522E2,2.0560353E0,1.5699092E0,2.8826182E0,1.5288721E0,2.4455236E1,5.12018E0,7.3307076E0,1.2003977E1,6.446456E0,1.3093877E2,1.5525457E1,8.929779E0,3.5849428E0,1.5352376E0,3.333067E0,3.9976404E0,1.0157666E1,1.8463103E0,1.9534211E0,4.493035E0,9.280793E1,3.813084E1,3.939931E0,1.1585526E1,2.2016406E0,6.7281384E0,1.544328E0,1.788739E0,1.172963E0,2.8246775E0,1.3921663E0,8.7655E0,3.3991964E0,1.0938387E0,8.8856804E1,3.9511213E0,1.6517008E1,2.1613834E1],"tree_param":{"num_deleted":"0","num_feature":"119","num_nodes":"51","size_leaf_vector":"1"}},{"base_weights":[-1.4289061E-3,-3.8186246E-1,1.2616805E-2,7.4989915E-2,-6.06991E-1,9.199071E-2,-6.994794E-2,1.650529E-1,-1.3906854E-1,-2.9071355E-1,2.0224262E-2,-1.4015597E-1,1.6676815E-1,-6.8013847E-1,-2.1696331E-2,-3.2954204E-1,3.1387183E-1,7.6133005E-2,6.890134E-1,5.111148E-2,-3.1510213E-1,8.5829265E-2,-2.77852E-1,5.11333E-1,-4.7696543E-1,-1.3462014E-1,6.0040456E-1,3.2678908E-1,-6.999387E-2,9.693619E-1,-3.5204905E-1,1.7888609E-1,-1.709944E-1,1.3542709E-2,9.9568695E-1,-7.7909696E-1,1.4191783E-2,2.1807632E-1,1.209435E-2,-4.2203948E-2,-2.7690965E-1,-6.449775E-2,2.6589936E-1,1.3762905E-1,-9.180213E-2,6.584206E-2,-1.17188476E-1,2.4462275E-2,3.4964287E-1,2.5620062E-2,-1.8363497E-1,1.588135E-1,-1.9578036E-2,1.0183227E-1,3.3817604E-1,1.17927626E-1,-2.9370916E-1,-1.5580483E-1,9.538508E-2],"categories":[],"categories_nodes":[],"categories_segments":[],"categories_sizes":[],"default_left":[0,0,0,0,0,0,0,0,0,0,0,0,0,0,0,0,0,0,0,0,0,0,0,0,0,0,0,0,0,0,0,0,0,0,0,0,0,0,0,0,0,0,0,0,0,0,0,0,0,0,0,0,0,0,0,0,0,0,0],"id":18,"left_children":[1,3,5,7,9,11,13,-1,-1,-1,-1,15,17,19,21,23,25,27,29,31,-1,33,35,37,39,-1,41,43,45,47,49,-1,-1,51,53,55,57,-1,-1,-1,-1,-1,-1,-1,-1,-1,-1,-1,-1,-1,-1,-1,-1,-1,-1,-1,-1,-1,-1],"loss_changes":[1.0455911E0,7.62087E-1,1.2437857E0,1.0713875E0,1.2317684E0,1.7019534E0,2.726709E0,0E0,0E0,0E0,0E0,2.1758733E0,3.4310348E0,1.8919227E0,2.4289699E0,2.4127035E0,1.9315221E0,2.3609962E0,3.481439E0,1.4355576E0,0E0,4.081921E0,3.8248937E0,2.8471398E-1,2.1806948E0,0E0,1.5793362E0,2.1184304E0,3.904951E0,1.4272385E0,3.954204E-1,0E0,0E0,2.420619E0,1.1867523E-2,2.6368756E0,2.9922552E0,0E0,0E0,0E0,0E0,0E0,0E0,0E0,0E0,0E0,0E0,0E0,0E0,0E0,0E0,0E0,0E0,0E0,0E0,0E0,0E0,0E0,0E0],"parents":[2147483647,0,0,1,1,2,2,3,3,4,4,5,5,6,6,11,11,12,12,13,13,14,14,15,15,16,16,17,17,18,18,19,19,21,21,22,22,23,23,24,24,26,26,27,27,28,28,29,29,30,30,33,33,34,34,35,35,36,36],"right_children":[2,4,6,8,10,12,14,-1,-1,-1,-1,16,18,20,22,24,26,28,30,32,-1,34,36,38,40,-1,42,44,46,48,50,-1,-1,52,54,56,58,-1,-1,-1,-1,-1,-1,-1,-1,-1,-1,-1,-1,-1,-1,-1,-1,-1,-1,-1,-1,-1,-1],"split_conditions":[3.8896613E-3,-4.9141548E-3,2.3159134E0,1.9955134E-2,4.331821E-1,6.25E0,1.8009008E1,1.650529E-1,-1.3906854E-1,-2.9071355E-1,2.0224262E-2,4.793688E0,2.0978055E0,6.06145E7,4.2008966E2,3.025169E2,4.67322E7,1.8271575E0,3.642689E0,6.174379E1,-3.1510213E-1,4.2078638E2,5.7684765E0,3.032272E2,5.473938E-1,-1.3462014E-1,3.9120386E2,3.6161156E0,1.7608425E1,2.5324328E0,-8.311282E8,1.7888609E-1,-1.709944E-1,4.8504624E0,4.2320584E2,3.679862E-4,-2.7372348E-1,2.1807632E-1,1.209435E-2,-4.2203948E-2,-2.7690965E-1,-6.449775E-2,2.6589936E-1,1.3762905E-1,-9.180213E-2,6.584206E-2,-1.17188476E-1,2.4462275E-2,3.4964287E-1,2.5620062E-2,-1.8363497E-1,1.588135E-1,-1.9578036E-2,1.0183227E-1,3.3817604E-1,1.17927626E-1,-2.9370916E-1,-1.5580483E-1,9.538508E-2],"split_indices":[100,88,25,110,88,56,59,0,0,0,0,34,84,4,87,12,4,80,80,75,0,40,97,87,112,0,12,92,59,97,6,0,0,102,23,56,45,0,0,0,0,0,0,0,0,0,0,0,0,0,0,0,0,0,0,0,0,0,0],"split_type":[0,0,0,0,0,0,0,0,0,0,0,0,0,0,0,0,0,0,0,0,0,0,0,0,0,0,0,0,0,0,0,0,0,0,0,0,0,0,0,0,0,0,0,0,0,0,0,0,0,0,0,0,0,0,0,0,0,0,0],"sum_hessian":[1.9377516E2,5.9670897E0,1.8780807E2,2.1899455E0,3.7771444E0,9.569611E1,9.211195E1,1.1519486E0,1.0379968E0,2.1734438E0,1.6037006E0,2.3101904E1,7.2594215E1,5.7904305E0,8.6321526E1,1.6495436E1,6.606467E0,6.2835037E1,9.759176E0,2.2358844E0,3.5545464E0,6.126814E1,2.5053385E1,2.092388E0,1.44030485E1,1.6497042E0,4.956763E0,2.2685514E1,4.014952E1,7.742945E0,2.016231E0,1.2119832E0,1.0239012E0,5.7698948E1,3.569193E0,8.609264E0,1.6444122E1,1.0626915E0,1.0296965E0,8.962032E0,5.441016E0,1.3512871E0,3.6054757E0,1.8998299E1,3.6872156E0,2.1266088E1,1.8883434E1,1.6570706E0,6.0858746E0,1.00216E0,1.0140711E0,6.8886642E0,5.0810284E1,1.1939301E0,2.3752627E0,1.1136919E0,7.495572E0,5.7081714E0,1.073595E1],"tree_param":{"num_deleted":"0","num_feature":"119","num_nodes":"59","size_leaf_vector":"1"}},{"base_weights":[-5.318257E-4,1.3173E-2,-3.829478E-1,-5.922719E-3,4.216687E-1,1.2515253E-1,-6.4355665E-1,7.0329392E-3,-4.853796E-1,6.55844E-1,-8.972204E-2,1.0493773E-1,-9.928547E-1,-1.6566798E-2,4.063794E-1,4.2640988E-2,-2.4045034E-1,-4.2852484E-2,2.8319657E-1,-3.379429E-1,-8.517591E-2,2.908868E-3,-4.711539E-1,6.9037163E-1,-1.4713758E-1,-7.1869073E-3,9.986695E-2,-2.6454514E-1,2.8133577E-2,2.7095258E-1,-5.5248953E-2],"categories":[],"categories_nodes":[],"categories_segments":[],"categories_sizes":[],"default_left":[0,0,0,0,0,0,0,0,0,0,0,0,0,0,0,0,0,0,0,0,0,0,0,0,0,0,0,0,0,0,0],"id":19,"left_children":[1,3,5,7,9,-1,11,13,15,17,-1,-1,19,21,23,-1,-1,-1,-1,-1,-1,25,27,29,-1,-1,-1,-1,-1,-1,-1],"loss_changes":[9.9958104E-1,1.439074E0,1.6444082E0,1.1024202E0,1.5866234E0,0E0,2.210787E0,1.6395837E0,1.0401785E0,1.6379311E0,0E0,0E0,8.125305E-2,1.4581946E0,2.8108249E0,0E0,0E0,0E0,0E0,0E0,0E0,1.4155939E0,1.6524458E0,1.6156185E0,0E0,0E0,0E0,0E0,0E0,0E0,0E0],"parents":[2147483647,0,0,1,1,2,2,3,3,4,4,6,6,7,7,8,8,9,9,12,12,13,13,14,14,21,21,22,22,23,23],"right_children":[2,4,6,8,10,-1,12,14,16,18,-1,-1,20,22,24,-1,-1,-1,-1,-1,-1,26,28,30,-1,-1,-1,-1,-1,-1,-1],"split_conditions":[1.3699193E-1,1.1532505E-1,-4.3571725E-2,5.904415E2,9.7217894E-1,1.2515253E-1,2.8642166E2,5.8438257E2,4.4716248E1,-1.017395E0,-8.972204E-2,1.0493773E-1,6.210316E0,6.6812835E0,6.014473E2,4.2640988E-2,-2.4045034E-1,-4.2852484E-2,2.8319657E-1,-3.379429E-1,-8.517591E-2,7.310346E1,7.317094E0,5.540161E0,-1.4713758E-1,-7.1869073E-3,9.986695E-2,-2.6454514E-1,2.8133577E-2,2.7095258E-1,-5.5248953E-2],"split_indices":[109,109,88,53,33,0,12,22,75,114,0,0,37,36,0,0,0,0,0,0,0,13,36,116,0,0,0,0,0,0,0],"split_type":[0,0,0,0,0,0,0,0,0,0,0,0,0,0,0,0,0,0,0,0,0,0,0,0,0,0,0,0,0,0,0],"sum_hessian":[1.8876283E2,1.8316425E2,5.598592E0,1.7592584E2,7.238405E0,1.2279036E0,4.370688E0,1.7225653E2,3.6693037E0,5.5312867E0,1.7071186E0,1.1366937E0,3.2339945E0,1.6354993E2,8.7066145E0,1.4136045E0,2.2556992E0,1.60017E0,3.9311166E0,2.2255487E0,1.0084457E0,1.5778366E2,5.766252E0,6.7875032E0,1.9191113E0,1.4676248E2,1.1021189E1,3.0142183E0,2.7520337E0,5.432777E0,1.3547261E0],"tree_param":{"num_deleted":"0","num_feature":"119","num_nodes":"31","size_leaf_vector":"1"}},{"base_weights":[-1.7409981E-3,1.4202933E-2,-3.4448212E-1,-2.778562E-2,2.1252301E-1,-5.943816E-1,2.115813E-1,-8.904056E-3,-2.7458102E-1,3.923655E-1,-2.785074E-1,-3.115097E-1,2.6650585E-2,2.180881E-2,-3.8998735E-1,5.235417E-1,-5.4473776E-1,1.5335664E-1,-4.6645042E-1,-1.1289937E-1,1.2018635E-1,-1.6068116E-2,4.772987E-1,2.0733683E-1,-5.749507E-1,6.336712E-1,-1.9603768E-1,-2.3312439E-1,-1.1981795E-2,-4.4590548E-2,-2.4787748E-1,3.8366725E-3,-2.1402726E-1,-1.390952E-1,1.894258E-1,-2.7576086E-1,6.135454E-3,2.4899273E-1,3.6057122E-2,-1.686069E-1,1.5096197E-1],"categories":[],"categories_nodes":[],"categories_segments":[],"categories_sizes":[],"default_left":[0,0,0,0,0,0,0,0,0,0,0,0,0,0,0,0,0,0,0,0,0,0,0,0,0,0,0,0,0,0,0,0,0,0,0,0,0,0,0,0,0],"id":20,"left_children":[1,3,5,7,9,11,-1,13,-1,15,17,-1,19,21,23,25,27,-1,29,-1,-1,31,33,-1,35,37,-1,-1,-1,39,-1,-1,-1,-1,-1,-1,-1,-1,-1,-1,-1],"loss_changes":[1.0301592E0,1.506785E0,2.6173983E0,2.4992223E0,2.9005492E0,2.04349E0,0E0,1.7351402E0,0E0,3.1801107E0,1.5828397E0,0E0,7.570059E-1,2.3793364E0,2.60811E0,3.1579661E0,3.6560977E-1,0E0,1.1531324E0,0E0,0E0,2.5825586E0,1.827976E0,0E0,2.0656917E0,1.9025869E0,0E0,0E0,0E0,1.6053025E0,0E0,0E0,0E0,0E0,0E0,0E0,0E0,0E0,0E0,0E0,0E0],"parents":[2147483647,0,0,1,1,2,2,3,3,4,4,5,5,7,7,9,9,10,10,12,12,13,13,14,14,15,15,16,16,18,18,21,21,22,22,24,24,25,25,29,29],"right_children":[2,4,6,8,10,12,-1,14,-1,16,18,-1,20,22,24,26,28,-1,30,-1,-1,32,34,-1,36,38,-1,-1,-1,40,-1,-1,-1,-1,-1,-1,-1,-1,-1,-1,-1],"split_conditions":[1.2899685E0,1.259668E1,4.367276E1,3.78938E-2,1.0097864E1,7.15772E-1,2.115813E-1,3.5339516E1,-2.7458102E-1,1.8822632E2,9.295202E-1,-3.115097E-1,6.3184937E-3,1.1667644E0,6.96593E-1,1.069796E9,4.3693326E2,1.5335664E-1,-8.436722E0,-1.1289937E-1,1.2018635E-1,1.1470512E0,4.2320786E0,2.0733683E-1,6.3785038E1,6E1,-1.9603768E-1,-2.3312439E-1,-1.1981795E-2,3.0735912E-2,-2.4787748E-1,3.8366725E-3,-2.1402726E-1,-1.390952E-1,1.894258E-1,-2.7576086E-1,6.135454E-3,2.4899273E-1,3.6057122E-2,-1.686069E-1,1.5096197E-1],"split_indices":[43,98,108,99,32,45,0,58,0,60,26,0,95,43,26,6,17,0,84,0,0,43,32,0,75,64,0,0,0,94,0,0,0,0,0,0,0,0,0,0,0],"split_type":[0,0,0,0,0,0,0,0,0,0,0,0,0,0,0,0,0,0,0,0,0,0,0,0,0,0,0,0,0,0,0,0,0,0,0,0,0,0,0,0,0],"sum_hessian":[1.8661827E2,1.7923885E2,7.379428E0,1.4863051E2,3.0608326E1,6.3108783E0,1.0685498E0,1.4652321E2,2.1073034E0,2.255015E1,8.058176E0,3.2881424E0,3.022736E0,1.3646758E2,1.0055638E1,2.0168299E1,2.3818498E0,1.2184783E0,6.839698E0,1.4518955E0,1.5708405E0,1.26881294E2,9.586275E0,1.0692625E0,8.986376E0,1.8864782E1,1.3035169E0,1.2617263E0,1.1201235E0,3.6657202E0,3.1739779E0,1.2278216E2,4.09914E0,1.0665184E0,8.519757E0,5.3495274E0,3.6368482E0,1.3201468E1,5.663314E0,1.8717515E0,1.7939687E0],"tree_param":{"num_deleted":"0","num_feature":"119","num_nodes":"41","size_leaf_vector":"1"}},{"base_weights":[-5.805537E-3,-3.4580432E-2,1.8021062E-1,2.112921E-2,-2.9448488E-1,3.9549768E-1,-2.5005612E-1,-3.901022E-2,3.1452164E-1,-7.250147E-1,-3.0491455E-2,5.723056E-1,-2.1707478E-1,-6.680018E-1,2.2878177E-1,5.647919E-1,-6.4114556E-2,4.5413578E-1,-2.106946E-1,9.359135E-2,-9.153891E-1,3.174877E-1,-3.459048E-1,8.1805843E-1,-1.8614548E-1,2.2254938E-1,-7.288912E-1,-2.790353E-1,-1.12572005E-2,5.416669E-1,-8.234055E-2,1.5272177E-2,2.3998964E-1,-3.4556872E-1,9.114836E-3,5.422134E-1,-9.649014E-2,-1.0630878E0,2.8135218E-2,5.896842E-1,-4.29291E-1,2.2290613E-1,-6.544516E-1,9.8605317E-1,-1.04539596E-1,6.88647E-2,-1.7127007E-1,-2.7608648E-1,-4.639202E-2,4.707644E-2,2.1233065E-1,9.188921E-2,-1.4621991E-1,5.763833E-2,-4.188562E-2,1.9591428E-1,-6.0365945E-2,-3.5559344E-1,-4.0567644E-2,2.7435884E-1,-2.3213133E-2,3.8398236E-2,-2.3220529E-1,1.9936986E-1,-1.7685768E-1,-2.8798306E-1,9.776489E-2,1.0587734E-2,3.5066962E-1],"categories":[],"categories_nodes":[],"categories_segments":[],"categories_sizes":[],"default_left":[0,0,0,0,0,0,0,0,0,0,0,0,0,0,0,0,0,0,0,0,0,0,0,0,0,0,0,0,0,0,0,0,0,0,0,0,0,0,0,0,0,0,0,0,0,0,0,0,0,0,0,0,0,0,0,0,0,0,0,0,0,0,0,0,0,0,0,0,0],"id":21,"left_children":[1,3,5,7,9,11,13,15,17,19,21,23,25,27,29,31,33,35,-1,-1,37,39,41,43,45,-1,47,-1,-1,49,-1,-1,-1,51,53,55,-1,57,-1,59,61,63,65,67,-1,-1,-1,-1,-1,-1,-1,-1,-1,-1,-1,-1,-1,-1,-1,-1,-1,-1,-1,-1,-1,-1,-1,-1,-1],"loss_changes":[9.8943543E-1,2.3217084E0,2.3932714E0,2.3523445E0,3.1937537E0,1.9542108E0,1.9285477E0,1.7180401E0,3.5374348E0,2.4000964E0,2.1494842E0,2.6474347E0,2.7538784E0,7.902014E-1,9.170898E-1,5.068445E-1,2.2171926E0,1.5779424E0,0E0,0E0,1.4864693E0,2.1551473E0,1.9406655E0,2.3613057E0,7.853126E-1,0E0,2.3627603E-1,0E0,0E0,1.0273665E-1,0E0,0E0,0E0,2.2021987E0,2.3736777E0,1.6820741E0,0E0,7.693176E-1,0E0,1.6480141E0,6.9042856E-1,1.9498882E0,2.374503E0,1.5687008E0,0E0,0E0,0E0,0E0,0E0,0E0,0E0,0E0,0E0,0E0,0E0,0E0,0E0,0E0,0E0,0E0,0E0,0E0,0E0,0E0,0E0,0E0,0E0,0E0,0E0],"parents":[2147483647,0,0,1,1,2,2,3,3,4,4,5,5,6,6,7,7,8,8,9,9,10,10,11,11,12,12,13,13,14,14,15,15,16,16,17,17,20,20,21,21,22,22,23,23,24,24,26,26,29,29,33,33,34,34,35,35,37,37,39,39,40,40,41,41,42,42,43,43],"right_children":[2,4,6,8,10,12,14,16,18,20,22,24,26,28,30,32,34,36,-1,-1,38,40,42,44,46,-1,48,-1,-1,50,-1,-1,-1,52,54,56,-1,58,-1,60,62,64,66,68,-1,-1,-1,-1,-1,-1,-1,-1,-1,-1,-1,-1,-1,-1,-1,-1,-1,-1,-1,-1,-1,-1,-1,-1,-1],"split_conditions":[2.6717453E1,2.5774628E1,-1.3444473E-2,2.5245003E1,-5.5801606E-1,-2.5376093E-2,4.0385437E0,-1.09718075E1,6.0610256E0,1.0712684E-2,4.179923E2,3.430427E1,6.22192E7,2.806855E1,4.4127197E0,3.3416846E0,-2.0026235E-2,5.116454E2,-2.106946E-1,9.359135E-2,2.8933525E1,6.509459E-2,-6.9366455E-1,1.6530098E0,-7.897311E7,2.2254938E-1,-4.5048466E0,-2.790353E-1,-1.12572005E-2,5.536545E-1,-8.234055E-2,1.5272177E-2,2.3998964E-1,1.3224306E1,2.9598808E-1,1.4318452E2,-9.649014E-2,5.0000073E2,2.8135218E-2,5.578247E0,8.623277E-1,7.187173E0,1.1326233E1,9.2346E0,-1.04539596E-1,6.88647E-2,-1.7127007E-1,-2.7608648E-1,-4.639202E-2,4.707644E-2,2.1233065E-1,9.188921E-2,-1.4621991E-1,5.763833E-2,-4.188562E-2,1.9591428E-1,-6.0365945E-2,-3.5559344E-1,-4.0567644E-2,2.7435884E-1,-2.3213133E-2,3.8398236E-2,-2.3220529E-1,1.9936986E-1,-1.7685768E-1,-2.8798306E-1,9.776489E-2,1.0587734E-2,3.5066962E-1],"split_indices":[47,47,7,47,88,45,114,10,37,56,40,57,4,57,112,25,10,67,0,0,57,109,116,88,11,0,51,0,0,88,0,0,0,77,45,60,0,17,0,114,44,84,93,76,0,0,0,0,0,0,0,0,0,0,0,0,0,0,0,0,0,0,0,0,0,0,0,0,0],"split_type":[0,0,0,0,0,0,0,0,0,0,0,0,0,0,0,0,0,0,0,0,0,0,0,0,0,0,0,0,0,0,0,0,0,0,0,0,0,0,0,0,0,0,0,0,0,0,0,0,0,0,0,0,0,0,0,0,0,0,0,0,0,0,0,0,0,0,0,0,0],"sum_hessian":[1.8268729E2,1.5891827E2,2.3769014E1,1.3162384E2,2.7294422E1,1.5896096E1,7.872917E0,1.0995281E2,2.1671034E1,9.711017E0,1.7583405E1,1.2386648E1,3.509448E0,3.9928112E0,3.880106E0,3.530899E0,1.0642191E2,1.9541344E1,2.1296892E0,1.4071927E0,8.303824E0,8.356993E0,9.226412E0,9.29598E0,3.090668E0,1.0649041E0,2.444544E0,2.4846008E0,1.5082104E0,2.3455029E0,1.5346032E0,1.490478E0,2.040421E0,2.120446E1,8.521745E1,1.781928E1,1.7220631E0,7.197065E0,1.1067592E0,6.2787776E0,2.0782151E0,3.342332E0,5.88408E0,8.260997E0,1.0349836E0,1.6795003E0,1.4111675E0,1.3815027E0,1.0630412E0,1.2936722E0,1.0518306E0,3.5819497E0,1.7622509E1,3.8075165E1,4.714229E1,1.561318E1,2.2061005E0,6.1142006E0,1.0828644E0,3.973017E0,2.3057604E0,1.0345192E0,1.043696E0,2.2831519E0,1.0591799E0,4.5019746E0,1.3821054E0,1.5248897E0,6.736107E0],"tree_param":{"num_deleted":"0","num_feature":"119","num_nodes":"69","size_leaf_vector":"1"}},{"base_weights":[-6.0905963E-3,8.424857E-2,-7.110365E-2,7.2528017E-1,2.5839113E-2,-2.7146944E-1,5.7767436E-2,2.9086795E-1,1.38807325E-2,-2.8879993E-2,5.1833403E-1,2.7281684E-1,-3.7740824E-1,-6.173958E-1,1.329409E-1,-1.354592E-1,2.2867845E-1,7.839631E-1,-7.720783E-2,5.271695E-1,-1.584118E-1,-4.7482237E-1,3.3165982E-1,-5.19895E-2,-2.6607358E-1,4.1371557E-1,-6.2587936E-3,2.335674E-2,-5.268663E-1,-1.4198926E-1,3.281986E-1,3.168527E-1,-1.3868813E-4,-5.909021E-2,7.604169E-1,-5.289779E-1,1.4171377E-1,2.4534647E-1,-7.109361E-2,-1.5311766E-1,1.21837415E-1,5.270333E-1,-1.1851319E-1,2.5291848E-1,-2.7961296E-1,-1.9380353E-1,5.2825958E-2,-2.5313547E-1,-1.9607512E-2,3.1733073E-2,2.1389148E-1,2.9470938E-1,3.4015756E-3,-3.6548045E-2,-1.9284838E-1,7.422642E-2,2.5679424E-1,-3.8980566E-2,1.51165E-1,-2.034884E-1,2.0588977E-2],"categories":[],"categories_nodes":[],"categories_segments":[],"categories_sizes":[],"default_left":[0,0,0,0,0,0,0,0,0,0,0,0,0,0,0,0,0,0,0,0,0,0,0,0,0,0,0,0,0,0,0,0,0,0,0,0,0,0,0,0,0,0,0,0,0,0,0,0,0,0,0,0,0,0,0,0,0,0,0,0,0],"id":22,"left_children":[1,3,5,7,9,11,13,-1,-1,15,17,19,21,23,25,27,29,31,-1,33,-1,35,37,39,-1,41,43,45,47,-1,49,-1,-1,-1,51,53,-1,-1,-1,-1,-1,55,-1,57,59,-1,-1,-1,-1,-1,-1,-1,-1,-1,-1,-1,-1,-1,-1,-1,-1],"loss_changes":[1.0514206E0,2.787497E0,2.7024214E0,9.871564E-1,1.8940179E0,2.4615011E0,3.3378453E0,0E0,0E0,1.7796003E0,1.6492639E0,1.7541077E0,2.5514765E0,9.6022964E-1,2.2906957E0,2.8521369E0,1.4838555E0,1.1706867E0,0E0,1.162993E0,0E0,1.8340898E0,1.5139006E0,8.78031E-1,0E0,1.9878995E0,2.9134328E0,3.534022E0,1.8797038E0,0E0,1.4005238E0,0E0,0E0,0E0,7.774229E-1,1.2977171E0,0E0,0E0,0E0,0E0,0E0,1.3942356E0,0E0,2.09488E0,2.8237479E0,0E0,0E0,0E0,0E0,0E0,0E0,0E0,0E0,0E0,0E0,0E0,0E0,0E0,0E0,0E0,0E0],"parents":[2147483647,0,0,1,1,2,2,3,3,4,4,5,5,6,6,9,9,10,10,11,11,12,12,13,13,14,14,15,15,16,16,17,17,19,19,21,21,22,22,23,23,25,25,26,26,27,27,28,28,30,30,34,34,35,35,41,41,43,43,44,44],"right_children":[2,4,6,8,10,12,14,-1,-1,16,18,20,22,24,26,28,30,32,-1,34,-1,36,38,40,-1,42,44,46,48,-1,50,-1,-1,-1,52,54,-1,-1,-1,-1,-1,56,-1,58,60,-1,-1,-1,-1,-1,-1,-1,-1,-1,-1,-1,-1,-1,-1,-1,-1],"split_conditions":[-8.142517E-2,1.54523115E1,1.507019E0,6.521574E0,-6.666565E-1,-3.299408E0,2.2295067E-1,2.9086795E-1,1.38807325E-2,3.3101668E0,8E1,8.737289E0,1.06197096E8,2.8147414E0,8.457686E0,-8.171387E-1,-3.4302643E1,5.950031E1,-7.720783E-2,1.5828012E1,-1.584118E-1,1.6355107E2,6.3326004E1,6.7912036E-1,-2.6607358E-1,1.3198728E-2,9.017634E1,-1.5463485E0,1.9232891E-1,-1.4198926E-1,-6.3101196E-1,3.168527E-1,-1.3868813E-4,-5.909021E-2,5.0885057E0,-9.625396E0,1.4171377E-1,2.4534647E-1,-7.109361E-2,-1.5311766E-1,1.21837415E-1,4.8E1,-1.1851319E-1,8.515465E-1,1.8343048E1,-1.9380353E-1,5.2825958E-2,-2.5313547E-1,-1.9607512E-2,3.1733073E-2,2.1389148E-1,2.9470938E-1,3.4015756E-3,-3.6548045E-2,-1.9284838E-1,7.422642E-2,2.5679424E-1,-3.8980566E-2,1.51165E-1,-2.034884E-1,2.0588977E-2],"split_indices":[88,59,112,36,112,93,71,0,0,25,65,18,8,92,107,116,93,75,0,57,0,60,13,88,0,95,76,88,38,0,108,0,0,0,48,84,0,0,0,0,0,65,0,43,103,0,0,0,0,0,0,0,0,0,0,0,0,0,0,0,0],"split_type":[0,0,0,0,0,0,0,0,0,0,0,0,0,0,0,0,0,0,0,0,0,0,0,0,0,0,0,0,0,0,0,0,0,0,0,0,0,0,0,0,0,0,0,0,0,0,0,0,0,0,0,0,0,0,0,0,0,0,0,0,0],"sum_hessian":[1.7699934E2,7.3948296E1,1.0305105E2,5.2218976E0,6.8726395E1,3.9903496E1,6.3147556E1,3.5256257E0,1.6962718E0,6.2701275E1,6.0251236E0,6.2446833E0,3.365881E1,5.603882E0,5.7543674E1,4.4684593E1,1.8016684E1,4.4802446E0,1.5448794E0,4.9988017E0,1.2458817E0,2.9883652E1,3.7751596E0,2.1940265E0,3.4098554E0,1.841909E1,3.9124584E1,3.245578E1,1.2228813E1,1.7707459E0,1.6245937E1,3.068854E0,1.4113904E0,1.2557522E0,3.7430494E0,2.8685139E1,1.1985135E0,1.798936E0,1.9762236E0,1.0396281E0,1.1543984E0,1.646103E1,1.9580618E0,2.0121447E1,1.9003136E1,5.4296207E0,2.7026157E1,6.759042E0,5.4697714E0,1.1102777E1,5.14316E0,2.6472523E0,1.0957971E0,6.7206793E0,2.1964458E1,9.84486E0,6.6161695E0,8.158179E0,1.1963268E1,8.418058E0,1.0585076E1],"tree_param":{"num_deleted":"0","num_feature":"119","num_nodes":"61","size_leaf_vector":"1"}},{"base_weights":[-1.6772234E-3,-6.464188E-2,8.718795E-2,-1.08217925E-1,2.8361988E-1,6.5943694E-1,4.293425E-2,-7.534271E-1,-7.063036E-2,5.0628656E-1,-5.047529E-1,-2.753533E-2,2.6312116E-1,-4.927072E-1,9.907808E-2,1.9942991E-2,-2.9621884E-1,-4.6547338E-1,-2.8630728E-2,6.9484663E-1,-6.526366E-2,-1.9226374E-1,-3.7183963E-2,-7.308707E-1,1.5427678E-2,-2.326935E-3,4.6489206E-1,-6.716846E-1,9.5083766E-2,2.2735444E-1,-1.4696294E-1,8.8494766E-1,-6.291639E-2,-8.788465E-3,-2.7516305E-1,7.3098645E-2,-2.621592E-1,1.23441994E-1,7.2045267E-1,2.3251972E-3,-2.3850612E-1,-1.5844081E-1,9.1961056E-2,7.2368786E-2,-7.676092E-2,2.9242218E-1,6.1534896E-2,6.292263E-2,-5.8840666E-2,1.1302612E-1,-1.4331545E-1,2.7185437E-1,-4.146765E-2],"categories":[],"categories_nodes":[],"categories_segments":[],"categories_sizes":[],"default_left":[0,0,0,0,0,0,0,0,0,0,0,0,0,0,0,0,0,0,0,0,0,0,0,0,0,0,0,0,0,0,0,0,0,0,0,0,0,0,0,0,0,0,0,0,0,0,0,0,0,0,0,0,0],"id":23,"left_children":[1,3,5,7,9,11,13,15,17,19,21,-1,-1,23,25,-1,-1,27,29,31,-1,-1,-1,33,-1,35,37,39,-1,41,43,45,-1,-1,-1,47,-1,49,51,-1,-1,-1,-1,-1,-1,-1,-1,-1,-1,-1,-1,-1,-1],"loss_changes":[9.70293E-1,1.5707513E0,1.793054E0,2.1517367E0,2.2851567E0,9.131715E-1,2.0886385E0,1.0059214E0,1.4297042E0,1.449785E0,7.851857E-2,0E0,0E0,8.9322066E-1,2.3094006E0,0E0,0E0,1.5521399E0,2.448135E0,1.5246029E0,0E0,0E0,0E0,5.8209777E-1,0E0,3.3320172E0,1.090018E0,5.835216E-1,0E0,1.6929243E0,2.3921628E0,2.0454836E-1,0E0,0E0,0E0,1.7584122E0,0E0,1.2444586E0,1.3246179E0,0E0,0E0,0E0,0E0,0E0,0E0,0E0,0E0,0E0,0E0,0E0,0E0,0E0,0E0],"parents":[2147483647,0,0,1,1,2,2,3,3,4,4,5,5,6,6,7,7,8,8,9,9,10,10,13,13,14,14,17,17,18,18,19,19,23,23,25,25,26,26,27,27,29,29,30,30,31,31,35,35,37,37,38,38],"right_children":[2,4,6,8,10,12,14,16,18,20,22,-1,-1,24,26,-1,-1,28,30,32,-1,-1,-1,34,-1,36,38,40,-1,42,44,46,-1,-1,-1,48,-1,50,52,-1,-1,-1,-1,-1,-1,-1,-1,-1,-1,-1,-1,-1,-1],"split_conditions":[2.3693493E1,3.6019464E0,2.4081484E1,-1.5463485E0,8.7548786E-1,-1.0508734E1,4.14884E7,1.2741777E-2,-1.8730541E1,5.7106476E-2,5.961335E1,-2.753533E-2,2.6312116E-1,2.1355805E-1,6.3607483E0,1.9942991E-2,-2.9621884E-1,2.5679358E1,2.3097515E-2,1.442479E8,-6.526366E-2,-1.9226374E-1,-3.7183963E-2,5.071869E0,1.5427678E-2,5.9799805E0,3.2773786E9,-2.2875753E9,9.5083766E-2,-2.178146E0,-6.666593E-3,1.9375305E1,-6.291639E-2,-8.788465E-3,-2.7516305E-1,2.2959473E0,-2.621592E-1,3.626016E0,9.6060936E1,2.3251972E-3,-2.3850612E-1,-1.5844081E-1,9.1961056E-2,7.2368786E-2,-7.676092E-2,2.9242218E-1,6.1534896E-2,6.292263E-2,-5.8840666E-2,1.1302612E-1,-1.4331545E-1,2.7185437E-1,-4.146765E-2],"split_indices":[57,25,57,88,71,48,4,72,49,7,70,0,0,7,116,0,0,58,109,4,0,0,0,103,0,114,5,6,0,38,94,103,0,0,0,48,0,80,77,0,0,0,0,0,0,0,0,0,0,0,0,0,0],"split_type":[0,0,0,0,0,0,0,0,0,0,0,0,0,0,0,0,0,0,0,0,0,0,0,0,0,0,0,0,0,0,0,0,0,0,0,0,0,0,0,0,0,0,0,0,0,0,0,0,0,0,0,0,0],"sum_hessian":[1.7140288E2,1.0048072E2,7.092216E1,8.991893E1,1.0561791E1,4.0930643E0,6.6829094E1,3.9015925E0,8.6017334E1,8.514717E0,2.047074E0,1.0493183E0,3.043746E0,5.6025014E0,6.1226593E1,1.025118E0,2.8764746E0,7.30062E0,7.871672E1,6.7867866E0,1.7279302E0,1.004901E0,1.042173E0,3.6581624E0,1.9443392E0,4.871598E1,1.2510613E1,5.889845E0,1.4107748E0,2.4593306E1,5.4123413E1,5.6261115E0,1.1606749E0,1.010563E0,2.6475992E0,4.567891E1,3.037071E0,5.990216E0,6.520398E0,1.048884E0,4.840961E0,1.7951987E0,2.2798107E1,1.1591422E1,4.253199E1,4.5865216E0,1.0395901E0,3.0447147E1,1.523176E1,4.4770174E0,1.5131984E0,5.315382E0,1.2050163E0],"tree_param":{"num_deleted":"0","num_feature":"119","num_nodes":"53","size_leaf_vector":"1"}},{"base_weights":[-4.2328974E-3,-3.818852E-1,9.446449E-3,9.68455E-3,-6.2420726E-1,2.068584E-2,-4.2290607E-1,-7.19151E-2,7.2523914E-2,-4.1908406E-2,-2.5569302E-1,4.0578908E-1,1.4941795E-3,-1.9606614E-1,3.453182E-2,-8.03809E-3,2.4207614E-1,2.3510994E-2,-5.3130364E-1,5.500263E-1,-1.942664E-1,1.1651718E-1,-6.2927924E-2,2.3313185E-2,-7.083195E-1,2.0670138E-1,4.0880702E-2,1.3283734E-1,1.3991295E-2,-9.014948E-2,7.923979E-3,-3.014664E-1,2.379531E-3],"categories":[],"categories_nodes":[],"categories_segments":[],"categories_sizes":[],"default_left":[0,0,0,0,0,0,0,0,0,0,0,0,0,0,0,0,0,0,0,0,0,0,0,0,0,0,0,0,0,0,0,0,0],"id":24,"left_children":[1,3,5,7,9,11,13,-1,-1,-1,-1,15,17,-1,-1,19,-1,21,23,25,-1,27,29,-1,31,-1,-1,-1,-1,-1,-1,-1,-1],"loss_changes":[8.703792E-1,5.648416E-1,8.0031E-1,2.4523935E-1,2.846762E-1,1.1798455E0,5.9317327E-1,0E0,0E0,0E0,0E0,1.2644458E0,1.8089205E0,0E0,0E0,2.0407586E0,0E0,1.1973339E0,7.1475995E-1,8.214599E-2,0E0,1.6130306E0,1.6500794E0,0E0,1.0361259E0,0E0,0E0,0E0,0E0,0E0,0E0,0E0,0E0],"parents":[2147483647,0,0,1,1,2,2,3,3,4,4,5,5,6,6,11,11,12,12,15,15,17,17,18,18,19,19,21,21,22,22,24,24],"right_children":[2,4,6,8,10,12,14,-1,-1,-1,-1,16,18,-1,-1,20,-1,22,24,26,-1,28,30,-1,32,-1,-1,-1,-1,-1,-1,-1,-1],"split_conditions":[3.8896613E-3,1.4948113E0,3.6741292E-1,9.9487305E-3,-5.604959E-2,1.1869477E1,1.0378871E1,-7.19151E-2,7.2523914E-2,-4.1908406E-2,-2.5569302E-1,6.6822205E0,-5.385382E7,-1.9606614E-1,3.453182E-2,5.574063E-2,2.4207614E-1,2.3159134E0,3.0278986E2,2.1142051E8,-1.942664E-1,2.3097515E-2,2.7077103E0,2.3313185E-2,9.2495834E1,2.0670138E-1,4.0880702E-2,1.3283734E-1,1.3991295E-2,-9.014948E-2,7.923979E-3,-3.014664E-1,2.379531E-3],"split_indices":[100,92,7,114,38,57,107,0,0,0,0,108,11,0,0,45,0,25,40,5,0,109,25,0,77,0,0,0,0,0,0,0,0],"split_type":[0,0,0,0,0,0,0,0,0,0,0,0,0,0,0,0,0,0,0,0,0,0,0,0,0,0,0,0,0,0,0,0,0],"sum_hessian":[1.6678275E2,4.8891344E0,1.618936E2,2.236001E0,2.6531334E0,1.587197E2,3.173906E0,1.0618365E0,1.1741647E0,1.365371E0,1.2877623E0,6.578112E0,1.5214159E2,2.071213E0,1.102693E0,3.7201655E0,2.8579469E0,1.4702206E2,5.1195226E0,2.06132E0,1.6588453E0,7.065308E1,7.636898E1,1.2792661E0,3.8402567E0,1.0450547E0,1.0162654E0,1.1521525E1,5.913156E1,2.0224857E1,5.6144123E1,2.43079E0,1.4094666E0],"tree_param":{"num_deleted":"0","num_feature":"119","num_nodes":"33","size_leaf_vector":"1"}},{"base_weights":[-5.2812835E-3,-2.9402685E-1,1.00813E-2,-4.5273834E-1,9.802936E-2,3.0278507E-1,-1.4432543E-2,5.7715043E-2,-6.029011E-1,-1.1619838E-1,5.4010063E-1,-2.0212965E-1,2.3662655E-2,-3.7311897E-2,-2.3950577E-1,-4.4604298E-1,1.069155E-1,7.304167E-1,-2.0041151E-2,6.745306E-2,-4.6880537E-1,-8.006511E-2,1.4665234E-1,-1.957651E-1,-6.111373E-3,3.3456184E-2,2.8010806E-1,2.4406509E-1,-4.8427156E-1,1.9606154E-2,-7.3718715E-1,1.3466878E-2,-4.6932173E-1,5.547375E-1,2.5039464E-2,1.9215687E-1,-3.7359975E-2,-2.5966424E-1,4.0790297E-2,1.3857745E-1,-1.9988024E-1,9.718463E-3,-2.688148E-1,1.1509555E-1,-2.9447444E-2,-2.0799764E-1,1.3579836E-1,-1.0410714E-1,2.2403976E-1,3.6720444E-2,-1.6566958E-1],"categories":[],"categories_nodes":[],"categories_segments":[],"categories_sizes":[],"default_left":[0,0,0,0,0,0,0,0,0,0,0,0,0,0,0,0,0,0,0,0,0,0,0,0,0,0,0,0,0,0,0,0,0,0,0,0,0,0,0,0,0,0,0,0,0,0,0,0,0,0,0],"id":25,"left_children":[1,3,5,7,-1,9,11,-1,13,15,17,19,21,-1,-1,23,-1,25,-1,27,29,31,33,-1,-1,-1,-1,35,37,39,41,43,45,47,49,-1,-1,-1,-1,-1,-1,-1,-1,-1,-1,-1,-1,-1,-1,-1,-1],"loss_changes":[7.3896295E-1,9.770296E-1,1.1416875E0,8.05799E-1,0E0,1.2852042E0,1.0573893E0,0E0,4.6357775E-1,9.802202E-1,9.7580624E-1,1.824718E0,1.5843326E0,0E0,0E0,2.9850382E-1,0E0,6.750803E-1,0E0,1.411971E0,1.6744981E0,2.4644952E0,2.802569E0,0E0,0E0,0E0,0E0,1.6467276E0,9.58315E-1,1.965779E0,1.0314236E0,2.3272758E0,3.0210576E0,2.5075812E0,2.5837939E0,0E0,0E0,0E0,0E0,0E0,0E0,0E0,0E0,0E0,0E0,0E0,0E0,0E0,0E0,0E0,0E0],"parents":[2147483647,0,0,1,1,2,2,3,3,5,5,6,6,8,8,9,9,10,10,11,11,12,12,15,15,17,17,19,19,20,20,21,21,22,22,27,27,28,28,29,29,30,30,31,31,32,32,33,33,34,34],"right_children":[2,4,6,8,-1,10,12,-1,14,16,18,20,22,-1,-1,24,-1,26,-1,28,30,32,34,-1,-1,-1,-1,36,38,40,42,44,46,48,50,-1,-1,-1,-1,-1,-1,-1,-1,-1,-1,-1,-1,-1,-1,-1,-1],"split_conditions":[2.8808382E-1,2.470398E-2,1.3873327E0,4.9194336E-2,9.802936E-2,2.3296905E0,7.4187994E-1,5.7715043E-2,3.9239774E2,2.4E1,5.18631E0,6.8171793E-1,5.4362206E1,-3.7311897E-2,-2.3950577E-1,3.0294793E-2,1.069155E-1,0E0,-2.0041151E-2,4.362518E8,-2.9419556E0,5.1229225E1,5.734782E1,-1.957651E-1,-6.111373E-3,3.3456184E-2,2.8010806E-1,1.3737163E1,1.7780457E1,1.1579453E0,1.4632721E1,2.9658415E0,7.3791504E0,4.67322E7,3.5932727E-2,1.9215687E-1,-3.7359975E-2,-2.5966424E-1,4.0790297E-2,1.3857745E-1,-1.9988024E-1,9.718463E-3,-2.688148E-1,1.1509555E-1,-2.9447444E-2,-2.0799764E-1,1.3579836E-1,-1.0410714E-1,2.2403976E-1,3.6720444E-2,-1.6566958E-1],"split_indices":[35,48,25,93,0,97,44,0,1,64,93,44,70,0,0,104,0,51,0,6,48,70,70,0,0,0,0,79,103,43,59,92,114,4,110,0,0,0,0,0,0,0,0,0,0,0,0,0,0,0,0],"split_type":[0,0,0,0,0,0,0,0,0,0,0,0,0,0,0,0,0,0,0,0,0,0,0,0,0,0,0,0,0,0,0,0,0,0,0,0,0,0,0,0,0,0,0,0,0,0,0,0,0,0,0],"sum_hessian":[1.6491954E2,7.4148817E0,1.5750467E2,6.120757E0,1.2941248E0,1.1294372E1,1.462103E2,1.1026103E0,5.018147E0,4.2685537E0,7.0258174E0,2.3941807E1,1.22268486E2,1.9297746E0,3.0883722E0,2.5470047E0,1.7215492E0,5.193654E0,1.8321633E0,1.2277515E1,1.166429E1,6.651754E1,5.5750946E1,1.356118E0,1.1908867E0,1.6669807E0,3.5266736E0,9.722794E0,2.5547218E0,4.4652333E0,7.199057E0,5.4409286E1,1.2108256E1,1.1982125E1,4.376882E1,4.3289394E0,5.3938546E0,1.3372046E0,1.2175174E0,2.913098E0,1.5521353E0,1.3680141E0,5.8310432E0,1.204087E1,4.2368416E1,9.941009E0,2.1672473E0,1.9622415E0,1.0019883E1,3.8126423E1,5.6423984E0],"tree_param":{"num_deleted":"0","num_feature":"119","num_nodes":"51","size_leaf_vector":"1"}},{"base_weights":[-5.4628574E-3,-4.2845715E-2,1.4188814E-1,2.6484637E-2,-2.2937159E-1,2.4770735E-1,-5.204481E-1,2.3405193E-1,-8.0376916E-2,-3.9081335E-2,-6.367863E-1,-4.0600654E-1,3.272997E-1,-2.6590654E-1,9.852186E-2,3.1910646E-1,-2.3329186E-1,-2.6380122E-1,5.0944533E-2,-6.4375204E-1,1.4196673E-1,6.175695E-2,-7.7575034E-1,-2.0806184E-1,2.6591077E-2,-9.5622614E-2,4.8583648E-1,4.5622918E-1,-4.3774746E-2,-5.64971E-1,1.3596389E-1,1.9377056E-1,-3.7071463E-1,-5.618693E-2,4.2387822E-1,-2.7437198E-1,-1.2839844E-2,-1.1562285E-1,4.4361174E-1,-8.9366347E-1,5.4950607E-3,3.059317E-1,-5.119247E-1,5.8989716E-1,-9.275425E-2,2.0620674E-1,2.1075083E-2,1.3446261E-1,-1.5832713E-1,-2.4729688E-1,-2.8378036E-2,2.216788E-1,-6.493306E-2,-1.9415829E-1,-1.715069E-2,-6.516296E-2,1.0149169E-1,-1.0693589E-1,2.0211045E-1,1.3535456E-1,-1.2378129E-1,1.874205E-1,-1.0061183E-1,-3.1897858E-1,-7.9954125E-2,1.8183887E-1,-9.08528E-2,3.976906E-2,-2.2582336E-1,4.104394E-3,2.1676302E-1],"categories":[],"categories_nodes":[],"categories_segments":[],"categories_sizes":[],"default_left":[0,0,0,0,0,0,0,0,0,0,0,0,0,0,0,0,0,0,0,0,0,0,0,0,0,0,0,0,0,0,0,0,0,0,0,0,0,0,0,0,0,0,0,0,0,0,0,0,0,0,0,0,0,0,0,0,0,0,0,0,0,0,0,0,0,0,0,0,0,0,0],"id":26,"left_children":[1,3,5,7,9,11,13,15,17,19,21,23,25,-1,-1,27,29,31,33,35,37,-1,39,-1,-1,41,43,45,47,49,-1,51,53,55,57,-1,-1,59,61,63,-1,65,67,69,-1,-1,-1,-1,-1,-1,-1,-1,-1,-1,-1,-1,-1,-1,-1,-1,-1,-1,-1,-1,-1,-1,-1,-1,-1,-1,-1],"loss_changes":[8.9679873E-1,1.6839628E0,2.4385986E0,2.1367867E0,2.7088583E0,1.6465561E0,1.8012736E0,1.3745574E0,1.5497105E0,2.8393054E0,1.4665966E0,5.7404834E-1,1.8224418E0,0E0,0E0,1.4178939E0,1.5342991E0,1.3815471E0,1.542284E0,9.3158865E-1,1.6159041E0,0E0,9.330678E-1,0E0,0E0,1.5035826E0,1.7898612E0,1.7784448E0,2.2883422E0,4.3807542E-1,0E0,1.4407632E0,1.8740468E0,2.0050611E0,1.9163882E0,0E0,0E0,2.1479867E0,1.5473287E0,6.254792E-1,0E0,1.0475022E0,7.718586E-1,1.3296285E0,0E0,0E0,0E0,0E0,0E0,0E0,0E0,0E0,0E0,0E0,0E0,0E0,0E0,0E0,0E0,0E0,0E0,0E0,0E0,0E0,0E0,0E0,0E0,0E0,0E0,0E0,0E0],"parents":[2147483647,0,0,1,1,2,2,3,3,4,4,5,5,6,6,7,7,8,8,9,9,10,10,11,11,12,12,15,15,16,16,17,17,18,18,19,19,20,20,22,22,25,25,26,26,27,27,28,28,29,29,31,31,32,32,33,33,34,34,37,37,38,38,39,39,41,41,42,42,43,43],"right_children":[2,4,6,8,10,12,14,16,18,20,22,24,26,-1,-1,28,30,32,34,36,38,-1,40,-1,-1,42,44,46,48,50,-1,52,54,56,58,-1,-1,60,62,64,-1,66,68,70,-1,-1,-1,-1,-1,-1,-1,-1,-1,-1,-1,-1,-1,-1,-1,-1,-1,-1,-1,-1,-1,-1,-1,-1,-1,-1,-1],"split_conditions":[9.72641E7,7.71581E7,1.5217259E0,-3.453421E-2,-6.4342056E7,-3.6292794E0,8.229019E7,1.7580524E-2,1.4269714E0,-8.958353E-1,-2.403473E0,8.510554E0,2.3804264E1,-2.6590654E-1,