{"learner":{"attributes":{"scikit_learn":"{\"_estimator_type\": \"classifier\"}"},"feature_names":[],"feature_types":[],"gradient_booster":{"model":{"gbtree_model_param":{"num_parallel_tree":"1","num_trees":"53"},"iteration_indptr":[0,1,2,3,4,5,6,7,8,9,10,11,12,13,14,15,16,17,18,19,20,21,22,23,24,25,26,27,28,29,30,31,32,33,34,35,36,37,38,39,40,41,42,43,44,45,46,47,48,49,50,51,52,53],"tree_info":[0,0,0,0,0,0,0,0,0,0,0,0,0,0,0,0,0,0,0,0,0,0,0,0,0,0,0,0,0,0,0,0,0,0,0,0,0,0,0,0,0,0,0,0,0,0,0,0,0,0,0,0,0],"trees":[{"base_weights":[-5.040353E-8,1.3949282E-1,-2.1307322E-1,5.6569076E-1,7.148934E-2,-1.4397438E-1,-7.115091E-1,7.0809025E-1,-7.1491647E-1,3.159787E-1,-3.2958735E-2,-8.375984E-1,-7.714246E-2,-8.8279617E-1,5.0685044E-2,5.0038856E-2,-3.0646874E-3,-6.521532E-2,1.0958953E-2,2.9944384E-2,-9.822294E-3,-5.670678E-4,-6.913657E-2,-7.6647075E-3,-7.066978E-2,3.4004085E-2,-7.8076907E-3,-6.0171224E-2,2.9501095E-2],"categories":[],"categories_nodes":[],"categories_segments":[],"categories_sizes":[],"default_left":[0,0,0,0,0,0,0,0,0,0,0,0,0,0,0,0,0,0,0,0,0,0,0,0,0,0,0,0,0],"id":0,"left_children":[1,3,5,7,9,11,13,15,17,19,21,23,25,27,-1,-1,-1,-1,-1,-1,-1,-1,-1,-1,-1,-1,-1,-1,-1],"loss_changes":[1.4334934E1,8.4074E0,6.469699E0,7.7938414E0,6.4586987E0,7.7622557E0,6.995654E0,4.244549E0,1.8565099E0,7.3622117E0,4.7555685E0,3.7542734E0,5.9200335E0,4.969452E0,0E0,0E0,0E0,0E0,0E0,0E0,0E0,0E0,0E0,0E0,0E0,0E0,0E0,0E0,0E0],"parents":[2147483647,0,0,1,1,2,2,3,3,4,4,5,5,6,6,7,7,8,8,9,9,10,10,11,11,12,12,13,13],"right_children":[2,4,6,8,10,12,14,16,18,20,22,24,26,28,-1,-1,-1,-1,-1,-1,-1,-1,-1,-1,-1,-1,-1,-1,-1],"split_conditions":[2.2892733E-1,-1.8744256E-1,8.9480644E-1,3.531502E-1,-5.263756E-1,2.586508E-1,1.785986E0,2.072493E-1,9.3935156E-1,-2.8757263E-2,2.353388E0,3.0828512E-1,3.2194453E-1,3.3348002E0,5.0685044E-2,5.0038856E-2,-3.0646874E-3,-6.521532E-2,1.0958953E-2,2.9944384E-2,-9.822294E-3,-5.670678E-4,-6.913657E-2,-7.6647075E-3,-7.066978E-2,3.4004085E-2,-7.8076907E-3,-6.0171224E-2,2.9501095E-2],"split_indices":[0,17,13,4,5,9,12,9,13,3,11,10,7,13,0,0,0,0,0,0,0,0,0,0,0,0,0,0,0],"split_type":[0,0,0,0,0,0,0,0,0,0,0,0,0,0,0,0,0,0,0,0,0,0,0,0,0,0,0,0,0],"sum_hessian":[4.8029745E2,2.9047632E2,1.8982115E2,3.8963287E1,2.5151302E2,1.6784186E2,2.197929E1,3.5466583E1,3.4967053E0,7.4679634E1,1.7683339E2,1.3737057E1,1.541048E2,2.0230938E1,1.7483526E0,2.947223E1,5.994352E0,2.247882E0,1.2488233E0,5.2950108E1,2.1729527E1,1.7433574E2,2.4976466E0,5.245058E0,8.491999E0,1.1489175E1,1.4261563E2,1.8482586E1,1.7483526E0],"tree_param":{"num_deleted":"0","num_feature":"19","num_nodes":"29","size_leaf_vector":"1"}},{"base_weights":[-1.7644037E-4,1.3123469E-1,-2.0078866E-1,5.334315E-1,6.7147724E-2,-1.1164764E0,-1.6632052E-1,6.693495E-1,-6.8508583E-1,2.980739E-1,-3.143027E-2,-8.169779E-2,-1.0997555E-2,-1.2401102E-1,-9.15015E-1,4.4760276E-2,-1.9264642E-2,-6.254513E-2,1.0606851E-2,2.8265897E-2,-9.273064E-3,1.9421704E-2,-5.842548E-3,-1.0291937E-2,3.77447E-2,1.1210022E-2,-6.40738E-2],"categories":[],"categories_nodes":[],"categories_segments":[],"categories_sizes":[],"default_left":[0,0,0,0,0,0,0,0,0,0,0,0,0,0,0,0,0,0,0,0,0,0,0,0,0,0,0],"id":1,"left_children":[1,3,5,7,9,11,13,15,17,19,21,-1,-1,23,25,-1,-1,-1,-1,-1,-1,-1,-1,-1,-1,-1,-1],"loss_changes":[1.2712709E1,7.474302E0,5.838193E0,7.06705E0,5.7565174E0,1.5300245E0,5.7502303E0,3.8756027E0,1.7140391E0,6.559608E0,4.5074177E0,0E0,0E0,7.301367E0,2.214056E0,0E0,0E0,0E0,0E0,0E0,0E0,0E0,0E0,0E0,0E0,0E0,0E0],"parents":[2147483647,0,0,1,1,2,2,3,3,4,4,5,5,6,6,7,7,8,8,9,9,10,10,13,13,14,14],"right_children":[2,4,6,8,10,12,14,16,18,20,22,-1,-1,24,26,-1,-1,-1,-1,-1,-1,-1,-1,-1,-1,-1,-1],"split_conditions":[2.2892733E-1,-1.8744256E-1,2.0136131E-1,3.531502E-1,-5.263756E-1,1.0334339E0,1.5290351E0,7.8306025E-1,9.3935156E-1,-2.8757263E-2,-1.7316126E0,-8.169779E-2,-1.0997555E-2,1.4853798E0,1.5208582E0,4.4760276E-2,-1.9264642E-2,-6.254513E-2,1.0606851E-2,2.8265897E-2,-9.273064E-3,1.9421704E-2,-5.842548E-3,-1.0291937E-2,3.77447E-2,1.1210022E-2,-6.40738E-2],"split_indices":[0,17,6,4,5,10,2,10,13,3,6,0,0,6,6,0,0,0,0,0,0,0,0,0,0,0,0],"split_type":[0,0,0,0,0,0,0,0,0,0,0,0,0,0,0,0,0,0,0,0,0,0,0,0,0,0,0],"sum_hessian":[4.8022424E2,2.903658E2,1.8985843E2,3.890189E1,2.5146391E2,5.7485948E0,1.8410983E2,3.5403534E1,3.4983578E0,7.462519E1,1.7683871E2,3.9993997E0,1.749195E0,1.753654E2,8.744441E0,3.2412262E1,2.99127E0,2.2499917E0,1.2483661E0,5.288964E1,2.1735552E1,2.7476862E1,1.4936185E2,1.6487274E2,1.0492648E1,1.2491034E0,7.4953375E0],"tree_param":{"num_deleted":"0","num_feature":"19","num_nodes":"27","size_leaf_vector":"1"}},{"base_weights":[-3.9128435E-4,1.2369238E-1,-1.8969353E-1,5.0289494E-1,6.33892E-2,-1.2514538E-1,-6.5561867E-1,6.326473E-1,-6.571927E-1,-2.7198313E-2,3.05076E-1,-7.67295E-1,-6.332446E-2,-8.1879157E-1,4.924524E-2,4.52562E-2,-5.017433E-3,-6.007074E-2,1.026639E-2,1.8117828E-2,-1.1140845E-2,-1.17966095E-2,3.327813E-2,-1.8114096E-2,-7.788334E-2,-6.754108E-3,3.4351416E-2,-5.6000676E-2,2.880236E-2],"categories":[],"categories_nodes":[],"categories_segments":[],"categories_sizes":[],"default_left":[0,0,0,0,0,0,0,0,0,0,0,0,0,0,0,0,0,0,0,0,0,0,0,0,0,0,0,0,0],"id":2,"left_children":[1,3,5,7,9,11,13,15,17,19,21,23,25,27,-1,-1,-1,-1,-1,-1,-1,-1,-1,-1,-1,-1,-1,-1,-1],"loss_changes":[1.132393E1,6.62725E0,5.6585894E0,6.4083996E0,5.534251E0,6.6560316E0,6.3251286E0,3.8436441E0,1.5854927E0,1.0308573E1,9.437299E0,3.4196806E0,5.4087214E0,4.468322E0,0E0,0E0,0E0,0E0,0E0,0E0,0E0,0E0,0E0,0E0,0E0,0E0,0E0,0E0,0E0],"parents":[2147483647,0,0,1,1,2,2,3,3,4,4,5,5,6,6,7,7,8,8,9,9,10,10,11,11,12,12,13,13],"right_children":[2,4,6,8,10,12,14,16,18,20,22,24,26,28,-1,-1,-1,-1,-1,-1,-1,-1,-1,-1,-1,-1,-1,-1,-1],"split_conditions":[2.2892733E-1,-1.8744256E-1,8.9480644E-1,3.531502E-1,1.7084195E-1,2.586508E-1,1.785986E0,2.072493E-1,9.3935156E-1,-1.1797178E0,-1.0637693E0,2.658315E-1,5.499787E-1,3.3348002E0,4.924524E-2,4.52562E-2,-5.017433E-3,-6.007074E-2,1.026639E-2,1.8117828E-2,-1.1140845E-2,-1.17966095E-2,3.327813E-2,-1.8114096E-2,-7.788334E-2,-6.754108E-3,3.4351416E-2,-5.6000676E-2,2.880236E-2],"split_indices":[0,17,13,4,13,9,12,9,13,6,7,0,13,13,0,0,0,0,0,0,0,0,0,0,0,0,0,0,0],"split_type":[0,0,0,0,0,0,0,0,0,0,0,0,0,0,0,0,0,0,0,0,0,0,0,0,0,0,0,0,0],"sum_hessian":[4.8008966E2,2.902098E2,1.8987987E2,3.881174E1,2.5139806E2,1.6788947E2,2.1990408E1,3.5316364E1,3.4953759E0,1.8350525E2,6.789281E1,1.374149E1,1.5414796E2,2.0244923E1,1.7454851E0,2.9331705E1,5.9846587E0,2.2475235E0,1.2478523E0,5.964933E1,1.2385593E2,2.345362E1,4.4439182E1,8.494154E0,5.2473364E0,1.4340651E2,1.0741465E1,1.849776E1,1.7471616E0],"tree_param":{"num_deleted":"0","num_feature":"19","num_nodes":"29","size_leaf_vector":"1"}},{"base_weights":[-4.1843456E-4,1.16640806E-1,-1.7892793E-1,4.748621E-1,5.9831847E-2,-1.0382102E0,-1.4671093E-1,5.9884876E-1,-6.310382E-1,7.667884E-2,-6.753655E-2,-7.636006E-2,-9.564571E-3,-2.1057515E-1,3.1291157E-1,6.0896747E-2,2.0055363E-2,-5.776894E-2,9.937142E-3,3.0321935E-2,8.941118E-5,-8.050407E-3,-6.710415E-2,-5.429286E-2,2.6748037E-2],"categories":[],"categories_nodes":[],"categories_segments":[],"categories_sizes":[],"default_left":[0,0,0,0,0,0,0,0,0,0,0,0,0,0,0,0,0,0,0,0,0,0,0,0,0],"id":3,"left_children":[1,3,5,7,9,11,13,15,17,19,-1,-1,-1,21,23,-1,-1,-1,-1,-1,-1,-1,-1,-1,-1],"loss_changes":[1.0069342E1,5.8941345E0,5.1309185E0,5.8203354E0,5.27467E0,1.3927517E0,5.4995685E0,3.7573395E0,1.4690771E0,8.3371725E0,0E0,0E0,0E0,1.0950926E1,4.6226277E0,0E0,0E0,0E0,0E0,0E0,0E0,0E0,0E0,0E0,0E0],"parents":[2147483647,0,0,1,1,2,2,3,3,4,4,5,5,6,6,7,7,8,8,9,9,13,13,14,14],"right_children":[2,4,6,8,10,12,14,16,18,20,-1,-1,-1,22,24,-1,-1,-1,-1,-1,-1,-1,-1,-1,-1],"split_conditions":[2.2892733E-1,-1.8744256E-1,2.0136131E-1,3.531502E-1,2.353388E0,1.0334339E0,8.4671676E-1,-3.612316E-1,9.3935156E-1,-1.7316126E0,-6.753655E-2,-7.636006E-2,-9.564571E-3,5.9658307E-1,-1.2855628E0,6.0896747E-2,2.0055363E-2,-5.776894E-2,9.937142E-3,3.0321935E-2,8.941118E-5,-8.050407E-3,-6.710415E-2,-5.429286E-2,2.6748037E-2],"split_indices":[0,17,6,4,11,10,10,10,13,6,0,0,0,11,13,0,0,0,0,0,0,0,0,0,0],"split_type":[0,0,0,0,0,0,0,0,0,0,0,0,0,0,0,0,0,0,0,0,0,0,0,0,0],"sum_hessian":[4.798759E2,2.900316E2,1.898443E2,3.869197E1,2.513396E2,5.7321625E0,1.8411214E2,3.5203655E1,3.4883184E0,2.4884004E2,2.4995565E0,3.9849877E0,1.7471749E0,1.621266E2,2.1985525E1,1.1637364E1,2.356629E1,2.24103E0,1.2472887E0,3.515103E1,2.1368903E2,1.5163492E2,1.0491696E1,1.7494164E0,2.0236109E1],"tree_param":{"num_deleted":"0","num_feature":"19","num_nodes":"25","size_leaf_vector":"1"}},{"base_weights":[-7.89177E-4,1.0992222E-1,-1.6952337E-1,2.210775E-2,3.392389E-1,-1.0859408E-1,-6.1038816E-1,2.4226052E-1,-1.5871793E-1,-1.9608168E-1,5.6960666E-1,-2.5205025E-1,1.353484E-1,-7.661636E-1,4.763453E-2,1.6173493E-2,-6.9555536E-2,5.6459762E-2,-1.147092E-2,2.6490264E-2,-2.8361484E-2,5.1688593E-2,1.7200926E-2,7.305381E-2,-1.6833559E-2,3.491697E-2,-5.433479E-3,-5.253508E-2,2.7872512E-2],"categories":[],"categories_nodes":[],"categories_segments":[],"categories_sizes":[],"default_left":[0,0,0,0,0,0,0,0,0,0,0,0,0,0,0,0,0,0,0,0,0,0,0,0,0,0,0,0,0],"id":4,"left_children":[1,3,5,7,9,11,13,15,17,19,21,23,25,27,-1,-1,-1,-1,-1,-1,-1,-1,-1,-1,-1,-1,-1,-1,-1],"loss_changes":[8.997644E0,5.849126E0,5.059447E0,8.452986E0,1.0034448E1,5.943612E0,5.734791E0,5.2192383E0,5.2337265E0,4.95007E0,4.6675587E0,6.3238378E0,6.7655144E0,4.028145E0,0E0,0E0,0E0,0E0,0E0,0E0,0E0,0E0,0E0,0E0,0E0,0E0,0E0,0E0,0E0],"parents":[2147483647,0,0,1,1,2,2,3,3,4,4,5,5,6,6,7,7,8,8,9,9,10,10,11,11,12,12,13,13],"right_children":[2,4,6,8,10,12,14,16,18,20,22,24,26,28,-1,-1,-1,-1,-1,-1,-1,-1,-1,-1,-1,-1,-1,-1,-1],"split_conditions":[2.2892733E-1,1.6712365E-1,8.9480644E-1,5.870569E-1,-1.0637693E0,-1.1561084E-1,1.785986E0,2.6912978E0,-1.2398276E0,-1.7316126E0,-2.022285E-2,-1.2789496E0,1.10514164E-1,3.3348002E0,4.763453E-2,1.6173493E-2,-6.9555536E-2,5.6459762E-2,-1.147092E-2,2.6490264E-2,-2.8361484E-2,5.1688593E-2,1.7200926E-2,7.305381E-2,-1.6833559E-2,3.491697E-2,-5.433479E-3,-5.253508E-2,2.7872512E-2],"split_indices":[0,13,13,17,7,13,12,10,13,6,8,11,13,13,0,0,0,0,0,0,0,0,0,0,0,0,0,0,0],"split_type":[0,0,0,0,0,0,0,0,0,0,0,0,0,0,0,0,0,0,0,0,0,0,0,0,0,0,0,0,0],"sum_hessian":[4.7965448E2,2.8983432E2,1.8982016E2,2.1037123E2,7.94631E1,1.6786664E2,2.1953526E1,9.471603E1,1.15655205E2,2.3952333E1,5.551077E1,1.0568363E2,6.2183006E1,2.021309E1,1.7404352E0,9.321751E1,1.4985226E0,2.9987323E0,1.1265647E2,7.2256136E0,1.6726719E1,2.4656437E1,3.085433E1,1.7496452E0,1.0393398E2,1.998183E1,4.2201176E1,1.846809E1,1.7450004E0],"tree_param":{"num_deleted":"0","num_feature":"19","num_nodes":"29","size_leaf_vector":"1"}},{"base_weights":[-3.8860182E-4,1.03808686E-1,-1.5913814E-1,3.118981E-1,1.4075481E-2,-1.2188153E-1,-8.391507E-1,-4.3566337E-1,3.7454328E-1,6.6309696E-1,-2.42965E-2,-1.7179357E-1,6.341692E-1,1.1197718E-2,-1.013544E0,1.8427044E-2,-5.6205235E-2,5.0407104E-2,1.1548913E-2,-4.2666754E-4,6.152803E-2,-6.225421E-3,1.6462909E-2,-5.7311177E-2,-8.029988E-3,-7.9670325E-3,6.971207E-2,-1.5979886E-2,-8.960249E-2],"categories":[],"categories_nodes":[],"categories_segments":[],"categories_sizes":[],"default_left":[0,0,0,0,0,0,0,0,0,0,0,0,0,0,0,0,0,0,0,0,0,0,0,0,0,0,0,0,0],"id":5,"left_children":[1,3,5,7,9,11,13,15,17,19,21,23,25,-1,27,-1,-1,-1,-1,-1,-1,-1,-1,-1,-1,-1,-1,-1,-1],"loss_changes":[7.9628196E0,5.422476E0,4.7305865E0,4.2618303E0,5.099408E0,6.977666E0,1.9467349E0,3.1859436E0,6.8637724E0,3.0245538E0,4.9445643E0,4.585358E0,5.151196E0,0E0,2.8745947E0,0E0,0E0,0E0,0E0,0E0,0E0,0E0,0E0,0E0,0E0,0E0,0E0,0E0,0E0],"parents":[2147483647,0,0,1,1,2,2,3,3,4,4,5,5,6,6,7,7,8,8,9,9,10,10,11,11,12,12,14,14],"right_children":[2,4,6,8,10,12,14,16,18,20,22,24,26,-1,28,-1,-1,-1,-1,-1,-1,-1,-1,-1,-1,-1,-1,-1,-1],"split_conditions":[2.2892733E-1,-5.474971E-1,1.5290351E0,-4.7935003E-1,-8.1637096E-1,1.4853798E0,1.5208582E0,-6.3258484E-2,-3.4867987E-1,-1.09342E0,2.412988E-1,2.0136131E-1,-4.0428743E-1,1.1197718E-2,4.077979E-2,1.8427044E-2,-5.6205235E-2,5.0407104E-2,1.1548913E-2,-4.2666754E-4,6.152803E-2,-6.225421E-3,1.6462909E-2,-5.7311177E-2,-8.029988E-3,-7.9670325E-3,6.971207E-2,-1.5979886E-2,-8.960249E-2],"split_indices":[0,5,2,4,11,6,6,6,4,10,13,6,4,0,10,0,0,0,0,0,0,0,0,0,0,0,0,0,0],"split_type":[0,0,0,0,0,0,0,0,0,0,0,0,0,0,0,0,0,0,0,0,0,0,0,0,0,0,0,0,0],"sum_hessian":[4.7939233E2,2.8963367E2,1.8975867E2,8.651992E1,2.0311374E2,1.8102016E2,8.738519E0,6.22932E0,8.02906E1,1.0429473E1,1.9268427E2,1.7053477E2,1.0485382E1,1.2488861E0,7.4896326E0,2.7404869E0,3.4888332E0,2.0160986E1,6.0129616E1,4.22177E0,6.2077026E0,1.5234087E2,4.0343388E1,5.701061E0,1.6483371E2,4.74568E0,5.7397027E0,3.7448163E0,3.7448163E0],"tree_param":{"num_deleted":"0","num_feature":"19","num_nodes":"29","size_leaf_vector":"1"}},{"base_weights":[-3.6557548E-4,9.815467E-2,-1.5044142E-1,1.1226727E-1,-6.361228E-2,-7.446021E-1,-1.10183455E-1,4.7039345E-1,6.0824458E-2,2.8581786E-1,-1.0468642E0,-7.024991E-2,-8.0157423E-1,5.0108284E-2,4.6941354E-3,2.4844801E-2,-3.945145E-4,-1.5425126E-2,4.133834E-2,-3.4350786E-2,-8.5466176E-2,-6.866214E-3,3.5152446E-2,1.0837737E-2,-5.642253E-2],"categories":[],"categories_nodes":[],"categories_segments":[],"categories_sizes":[],"default_left":[0,0,0,0,0,0,0,0,0,0,0,0,0,0,0,0,0,0,0,0,0,0,0,0,0],"id":6,"left_children":[1,3,5,7,-1,9,11,13,15,17,19,21,23,-1,-1,-1,-1,-1,-1,-1,-1,-1,-1,-1,-1],"loss_changes":[7.114502E0,5.0042133E0,4.479302E0,5.277075E0,0E0,4.0139894E0,4.9069996E0,5.4102893E0,6.2602234E0,1.0036641E0,9.492836E-1,5.568681E0,1.7888594E0,0E0,0E0,0E0,0E0,0E0,0E0,0E0,0E0,0E0,0E0,0E0,0E0],"parents":[2147483647,0,0,1,1,2,2,3,3,5,5,6,6,7,7,8,8,9,9,10,10,11,11,12,12],"right_children":[2,4,6,8,-1,10,12,14,16,18,20,22,24,-1,-1,-1,-1,-1,-1,-1,-1,-1,-1,-1,-1],"split_conditions":[2.2892733E-1,2.353388E0,2.5180113E-1,-1.7316126E0,-6.361228E-2,-6.087727E-2,1.5290351E0,-3.1360546E-1,-1.8744256E-1,-5.401776E-1,2.3450541E-1,1.4853798E0,1.5208582E0,5.0108284E-2,4.6941354E-3,2.4844801E-2,-3.945145E-4,-1.5425126E-2,4.133834E-2,-3.4350786E-2,-8.5466176E-2,-6.866214E-3,3.5152446E-2,1.0837737E-2,-5.642253E-2],"split_indices":[0,11,3,6,0,11,2,13,17,10,8,6,6,0,0,0,0,0,0,0,0,0,0,0,0],"split_type":[0,0,0,0,0,0,0,0,0,0,0,0,0,0,0,0,0,0,0,0,0,0,0,0,0],"sum_hessian":[4.79182E2,2.894879E2,1.8969409E2,2.8699225E2,2.4956572E0,1.0927097E1,1.7876698E2,3.5023987E1,2.5196826E2,2.4906852E0,8.436412E0,1.7004697E2,8.7200165E0,1.6897165E1,1.812682E1,3.846304E1,2.1350523E2,1.2470511E0,1.2436341E0,5.19806E0,3.2383518E0,1.595824E2,1.04645815E1,1.2484698E0,7.4715466E0],"tree_param":{"num_deleted":"0","num_feature":"19","num_nodes":"25","size_leaf_vector":"1"}},{"base_weights":[-5.404518E-4,9.256498E-2,-1.4233404E-1,1.1457613E-2,3.0473247E-1,-8.54774E-2,-5.558209E-1,2.096498E-1,-1.5071243E-1,-1.9688568E-1,5.214918E-1,-2.1857648E-1,1.4065991E-1,-7.056561E-1,4.679182E-2,2.577473E-2,-9.831826E-4,5.4040503E-2,-1.0903639E-2,2.4547089E-2,-2.7474847E-2,5.53153E-2,1.8308748E-2,7.101924E-2,-1.4797812E-2,3.6102194E-2,-3.932935E-3,-4.8660625E-2,2.7405152E-2],"categories":[],"categories_nodes":[],"categories_segments":[],"categories_sizes":[],"default_left":[0,0,0,0,0,0,0,0,0,0,0,0,0,0,0,0,0,0,0,0,0,0,0,0,0,0,0,0,0],"id":7,"left_children":[1,3,5,7,9,11,13,15,17,19,21,23,25,27,-1,-1,-1,-1,-1,-1,-1,-1,-1,-1,-1,-1,-1,-1,-1],"loss_changes":[6.348795E0,4.992015E0,4.4336762E0,6.8149586E0,8.827677E0,5.109951E0,5.2237973E0,5.0439405E0,4.7763033E0,4.4410357E0,4.6972294E0,5.768186E0,6.3439007E0,3.6271143E0,0E0,0E0,0E0,0E0,0E0,0E0,0E0,0E0,0E0,0E0,0E0,0E0,0E0,0E0,0E0],"parents":[2147483647,0,0,1,1,2,2,3,3,4,4,5,5,6,6,7,7,8,8,9,9,10,10,11,11,12,12,13,13],"right_children":[2,4,6,8,10,12,14,16,18,20,22,24,26,28,-1,-1,-1,-1,-1,-1,-1,-1,-1,-1,-1,-1,-1,-1,-1],"split_conditions":[2.2892733E-1,1.6712365E-1,8.9480644E-1,5.870569E-1,-1.0637693E0,-1.1561084E-1,1.785986E0,-2.8953418E-1,-1.2398276E0,-1.7316126E0,4.6605518E-1,-1.2789496E0,-2.7595866E-1,3.3348002E0,4.679182E-2,2.577473E-2,-9.831826E-4,5.4040503E-2,-1.0903639E-2,2.4547089E-2,-2.7474847E-2,5.53153E-2,1.8308748E-2,7.101924E-2,-1.4797812E-2,3.6102194E-2,-3.932935E-3,-4.8660625E-2,2.7405152E-2],"split_indices":[0,13,13,17,7,13,12,4,13,6,13,11,4,13,0,0,0,0,0,0,0,0,0,0,0,0,0,0,0],"split_type":[0,0,0,0,0,0,0,0,0,0,0,0,0,0,0,0,0,0,0,0,0,0,0,0,0,0,0,0,0],"sum_hessian":[4.7890747E2,2.8929553E2,1.8961194E2,2.100512E2,7.924435E1,1.6775188E2,2.1860054E1,9.4395386E1,1.15655815E2,2.3938429E1,5.5305916E1,1.0561993E2,6.2131954E1,2.0123182E1,1.7368722E0,4.605791E1,4.8337475E1,2.992136E0,1.1266367E2,7.204007E0,1.6734423E1,1.6844051E1,3.8461864E1,1.7468083E0,1.03873116E2,1.8214045E1,4.391791E1,1.8379457E1,1.7437252E0],"tree_param":{"num_deleted":"0","num_feature":"19","num_nodes":"29","size_leaf_vector":"1"}},{"base_weights":[2.549906E-5,8.774779E-2,-1.3354462E-1,2.829664E-1,3.7195932E-3,-9.143618E-1,-1.0477128E-1,-4.17278E-1,3.4194523E-1,6.1342335E-1,-3.213791E-2,-6.9083914E-2,-5.291531E-3,-1.6525877E-1,3.286822E-1,1.7576478E-2,-5.3704966E-2,4.7365557E-2,1.0098812E-2,-1.2326891E-3,5.765461E-2,-1.4275693E-2,4.252615E-3,-5.6563634E-3,-6.146837E-2,-5.058018E-2,2.7262466E-2],"categories":[],"categories_nodes":[],"categories_segments":[],"categories_sizes":[],"default_left":[0,0,0,0,0,0,0,0,0,0,0,0,0,0,0,0,0,0,0,0,0,0,0,0,0,0,0],"id":8,"left_children":[1,3,5,7,9,11,13,15,17,19,21,-1,-1,23,25,-1,-1,-1,-1,-1,-1,-1,-1,-1,-1,-1,-1],"loss_changes":[5.630367E0,4.7567487E0,4.183776E0,3.7466168E0,4.4748087E0,1.3807406E0,4.900668E0,2.9048154E0,6.2978106E0,2.739729E0,4.352192E0,0E0,0E0,9.775599E0,4.245973E0,0E0,0E0,0E0,0E0,0E0,0E0,0E0,0E0,0E0,0E0,0E0,0E0],"parents":[2147483647,0,0,1,1,2,2,3,3,4,4,5,5,6,6,7,7,8,8,9,9,10,10,13,13,14,14],"right_children":[2,4,6,8,10,12,14,16,18,20,22,-1,-1,24,26,-1,-1,-1,-1,-1,-1,-1,-1,-1,-1,-1,-1],"split_conditions":[2.2892733E-1,-5.474971E-1,2.0136131E-1,-4.7935003E-1,-8.1637096E-1,1.0334339E0,8.4671676E-1,-6.3258484E-2,-3.4867987E-1,-1.09342E0,8.7592736E-2,-6.9083914E-2,-5.291531E-3,5.9658307E-1,-1.2855628E0,1.7576478E-2,-5.3704966E-2,4.7365557E-2,1.0098812E-2,-1.2326891E-3,5.765461E-2,-1.4275693E-2,4.252615E-3,-5.6563634E-3,-6.146837E-2,-5.058018E-2,2.7262466E-2],"split_indices":[0,5,6,4,11,10,10,6,4,10,10,0,0,11,13,0,0,0,0,0,0,0,0,0,0,0,0],"split_type":[0,0,0,0,0,0,0,0,0,0,0,0,0,0,0,0,0,0,0,0,0,0,0,0,0,0,0],"sum_hessian":[4.7852655E2,2.890414E2,1.8948514E2,8.626308E1,2.0277832E2,5.640544E0,1.8384459E2,6.2292576E0,8.003382E1,1.0368588E1,1.9240973E2,3.9077847E0,1.7327595E0,1.6187415E2,2.1970446E1,2.736205E0,3.4930527E0,2.0059198E1,5.9974625E1,4.2148304E0,6.153758E0,6.3152576E1,1.2925716E2,1.5140411E2,1.0470036E1,1.748193E0,2.0222252E1],"tree_param":{"num_deleted":"0","num_feature":"19","num_nodes":"27","size_leaf_vector":"1"}},{"base_weights":[-1.7531861E-4,1.5217169E-2,-7.486738E-1,5.6546557E-1,-1.9084748E-3,1.1007744E-2,-9.100216E-1,-2.8273752E-2,8.031831E-1,2.5814214E-1,-3.6846403E-2,-2.06656E-1,-8.288064E-2,6.9071755E-2,-1.5261781E-2,1.9888716E-2,-6.144557E-2,-4.8038673E-2,-9.208417E-4,2.4757942E-2,-4.778194E-2],"categories":[],"categories_nodes":[],"categories_segments":[],"categories_sizes":[],"default_left":[0,0,0,0,0,0,0,0,0,0,0,0,0,0,0,0,0,0,0,0,0],"id":9,"left_children":[1,3,5,7,9,-1,11,-1,13,15,17,19,-1,-1,-1,-1,-1,-1,-1,-1,-1],"loss_changes":[5.5330677E0,4.4355497E0,1.6362214E0,3.9399734E0,4.165055E0,0E0,2.750186E0,0E0,5.1948166E0,6.313181E0,6.6854753E0,2.1829944E0,0E0,0E0,0E0,0E0,0E0,0E0,0E0,0E0,0E0],"parents":[2147483647,0,0,1,1,2,2,3,3,4,4,6,6,8,8,9,9,10,10,11,11],"right_children":[2,4,6,8,10,-1,12,-1,14,16,18,20,-1,-1,-1,-1,-1,-1,-1,-1,-1],"split_conditions":[1.5290351E0,-1.0991042E0,1.5208582E0,-3.661649E-1,-1.5107764E0,1.1007744E-2,4.077979E-2,-2.8273752E-2,1.0540974E0,2.353388E0,-1.4695377E0,1.542796E0,-8.288064E-2,6.9071755E-2,-1.5261781E-2,1.9888716E-2,-6.144557E-2,-4.8038673E-2,-9.208417E-4,2.4757942E-2,-4.778194E-2],"split_indices":[2,13,6,12,0,0,10,0,12,11,1,6,0,0,0,0,0,0,0,0,0],"split_type":[0,0,0,0,0,0,0,0,0,0,0,0,0,0,0,0,0,0,0,0,0],"sum_hessian":[4.782599E2,4.6958282E2,8.67706E0,1.3207458E1,4.563754E2,1.2485821E0,7.4284782E0,2.2437205E0,1.0963737E1,5.329565E1,4.0307974E2,3.7266474E0,3.701831E0,7.979809E0,2.9839282E0,5.0807148E1,2.4885015E0,9.4807625E0,3.9359897E2,1.9881587E0,1.7384887E0],"tree_param":{"num_deleted":"0","num_feature":"19","num_nodes":"21","size_leaf_vector":"1"}},{"base_weights":[-4.994423E-4,1.4199347E-2,-7.182843E-1,5.3515863E-1,-1.9938662E-3,1.065407E-2,-8.7425464E-1,-2.7129777E-2,7.623175E-1,-1.6959919E-2,5.8248043E-1,-1.9970274E-1,-7.976096E-2,6.565781E-2,-1.4595686E-2,4.089088E-3,-9.163611E-3,-8.377235E-3,6.5102056E-2,2.3774112E-2,-4.6136186E-2],"categories":[],"categories_nodes":[],"categories_segments":[],"categories_sizes":[],"default_left":[0,0,0,0,0,0,0,0,0,0,0,0,0,0,0,0,0,0,0,0,0],"id":10,"left_children":[1,3,5,7,9,-1,11,-1,13,15,17,19,-1,-1,-1,-1,-1,-1,-1,-1,-1],"loss_changes":[5.065105E0,3.970026E0,1.514226E0,3.581581E0,4.0099325E0,0E0,2.530445E0,0E0,4.7035418E0,5.482669E0,4.614527E0,2.025687E0,0E0,0E0,0E0,0E0,0E0,0E0,0E0,0E0,0E0],"parents":[2147483647,0,0,1,1,2,2,3,3,4,4,6,6,8,8,9,9,10,10,11,11],"right_children":[2,4,6,8,10,-1,12,-1,14,16,18,20,-1,-1,-1,-1,-1,-1,-1,-1,-1],"split_conditions":[1.5290351E0,-1.0991042E0,1.5208582E0,-3.661649E-1,1.4853798E0,1.065407E-2,4.077979E-2,-2.7129777E-2,1.0540974E0,2.1781325E-1,-4.0428743E-1,1.542796E0,-7.976096E-2,6.565781E-2,-1.4595686E-2,4.089088E-3,-9.163611E-3,-8.377235E-3,6.5102056E-2,2.3774112E-2,-4.6136186E-2],"split_indices":[2,13,6,12,6,0,10,0,12,0,4,6,0,0,0,0,0,0,0,0,0],"split_type":[0,0,0,0,0,0,0,0,0,0,0,0,0,0,0,0,0,0,0,0,0],"sum_hessian":[4.781122E2,4.6947845E2,8.633756E0,1.3186942E1,4.562915E2,1.2481332E0,7.385623E0,2.244335E0,1.0942608E1,4.4584616E2,1.0445356E1,3.7227259E0,3.662897E0,7.9585285E0,2.9840791E0,2.75371E2,1.7047514E2,4.74416E0,5.701196E0,1.9911782E0,1.7315478E0],"tree_param":{"num_deleted":"0","num_feature":"19","num_nodes":"21","size_leaf_vector":"1"}},{"base_weights":[-5.03148E-4,1.3543067E-2,-6.9013095E-1,5.0712574E-1,-1.7626289E-3,1.0312084E-2,-8.412698E-1,-2.6039125E-2,7.2459465E-1,-1.5986959E-2,5.55424E-1,-1.9310991E-1,-7.6936975E-2,6.2531374E-2,-1.3959834E-2,2.7257944E-3,-1.1313515E-2,-7.972573E-3,6.2243324E-2,2.2834344E-2,-4.45765E-2],"categories":[],"categories_nodes":[],"categories_segments":[],"categories_sizes":[],"default_left":[0,0,0,0,0,0,0,0,0,0,0,0,0,0,0,0,0,0,0,0,0],"id":11,"left_children":[1,3,5,7,9,-1,11,-1,13,15,17,19,-1,-1,-1,-1,-1,-1,-1,-1,-1],"loss_changes":[4.6482167E0,3.5539408E0,1.4045162E0,3.2606397E0,3.6321902E0,0E0,2.3377542E0,0E0,4.2693453E0,5.0128794E0,4.2036686E0,1.8808484E0,0E0,0E0,0E0,0E0,0E0,0E0,0E0,0E0,0E0],"parents":[2147483647,0,0,1,1,2,2,3,3,4,4,6,6,8,8,9,9,10,10,11,11],"right_children":[2,4,6,8,10,-1,12,-1,14,16,18,20,-1,-1,-1,-1,-1,-1,-1,-1,-1],"split_conditions":[1.5290351E0,-1.0991042E0,1.5208582E0,-3.661649E-1,1.4853798E0,1.0312084E-2,4.077979E-2,-2.6039125E-2,1.0540974E0,4.845067E-1,-4.0428743E-1,1.542796E0,-7.6936975E-2,6.2531374E-2,-1.3959834E-2,2.7257944E-3,-1.1313515E-2,-7.972573E-3,6.2243324E-2,2.2834344E-2,-4.45765E-2],"split_indices":[2,13,6,12,6,0,10,0,12,7,4,6,0,0,0,0,0,0,0,0,0],"split_type":[0,0,0,0,0,0,0,0,0,0,0,0,0,0,0,0,0,0,0,0,0],"sum_hessian":[4.7789264E2,4.693141E2,8.578543E0,1.3148971E1,4.5616513E2,1.2476268E0,7.330916E0,2.2440875E0,1.0904882E1,4.4575677E2,1.0408347E1,3.7165403E0,3.6143756E0,7.9209795E0,2.9839034E0,3.302038E2,1.15552986E2,4.7454433E0,5.662904E0,1.9935108E0,1.7230295E0],"tree_param":{"num_deleted":"0","num_feature":"19","num_nodes":"21","size_leaf_vector":"1"}},{"base_weights":[-5.150544E-4,1.2910188E-2,-6.6394466E-1,2.3969972E-1,-1.703435E-2,9.981362E-3,-8.107133E-1,3.1866974E-1,-5.935927E-2,-7.87101E-1,2.867029E-3,-1.8685055E-1,-7.436594E-2,1.0727635E-2,4.294171E-2,4.3743337E-3,-8.807708E-2,5.3968485E-2,-4.6683403E-4,2.1936037E-2,-4.3095447E-2],"categories":[],"categories_nodes":[],"categories_segments":[],"categories_sizes":[],"default_left":[0,0,0,0,0,0,0,0,0,0,0,0,0,0,0,0,0,0,0,0,0],"id":12,"left_children":[1,3,5,7,9,-1,11,13,-1,15,17,19,-1,-1,-1,-1,-1,-1,-1,-1,-1],"loss_changes":[4.2719064E0,3.1969397E0,1.3053951E0,5.78465E0,6.3814383E0,0E0,2.1675444E0,2.8158846E0,0E0,6.6775875E0,4.099052E0,1.7473481E0,0E0,0E0,0E0,0E0,0E0,0E0,0E0,0E0,0E0],"parents":[2147483647,0,0,1,1,2,2,3,3,4,4,6,6,7,7,9,9,10,10,11,11],"right_children":[2,4,6,8,10,-1,12,14,-1,16,18,20,-1,-1,-1,-1,-1,-1,-1,-1,-1],"split_conditions":[1.5290351E0,-1.5107764E0,1.5208582E0,2.353388E0,-1.4695377E0,9.981362E-3,4.077979E-2,-1.6194375E0,-5.935927E-2,-1.5030352E0,-5.9652984E-1,1.542796E0,-7.436594E-2,1.0727635E-2,4.294171E-2,4.3743337E-3,-8.807708E-2,5.3968485E-2,-4.6683403E-4,2.1936037E-2,-4.3095447E-2],"split_indices":[2,0,6,11,1,0,10,2,0,7,4,6,0,0,0,0,0,0,0,0,0],"split_type":[0,0,0,0,0,0,0,0,0,0,0,0,0,0,0,0,0,0,0,0,0],"sum_hessian":[4.7766583E2,4.6915256E2,8.513288E0,5.390325E1,4.152493E2,1.2470697E0,7.266218E0,5.1425217E1,2.478035E0,9.490048E0,4.0575925E2,3.7083635E0,3.5578547E0,4.00228E1,1.1402414E1,4.7467523E0,4.7432957E0,3.7442105E0,4.0201505E2,1.995226E0,1.7131375E0],"tree_param":{"num_deleted":"0","num_feature":"19","num_nodes":"21","size_leaf_vector":"1"}},{"base_weights":[-7.423543E-4,1.2086992E-2,-6.3949794E-1,4.8005408E-1,-2.3734902E-3,9.661523E-3,-7.822879E-1,-2.4979793E-2,6.8832207E-1,-1.5835302E-2,5.270067E-1,-1.808994E-1,-7.20127E-2,5.95956E-2,-1.3456532E-2,2.5095744E-3,-1.066262E-2,-7.980366E-3,5.9618566E-2,2.1076854E-2,-4.1686416E-2],"categories":[],"categories_nodes":[],"categories_segments":[],"categories_sizes":[],"default_left":[0,0,0,0,0,0,0,0,0,0,0,0,0,0,0,0,0,0,0,0,0],"id":13,"left_children":[1,3,5,7,9,-1,11,-1,13,15,17,19,-1,-1,-1,-1,-1,-1,-1,-1,-1],"loss_changes":[3.9288268E0,3.1819508E0,1.2154658E0,2.9638975E0,3.2647693E0,0E0,2.0161862E0,0E0,3.8900933E0,4.411679E0,3.8900054E0,1.624176E0,0E0,0E0,0E0,0E0,0E0,0E0,0E0,0E0,0E0],"parents":[2147483647,0,0,1,1,2,2,3,3,4,4,6,6,8,8,9,9,10,10,11,11],"right_children":[2,4,6,8,10,-1,12,-1,14,16,18,20,-1,-1,-1,-1,-1,-1,-1,-1,-1],"split_conditions":[1.5290351E0,-1.0991042E0,1.5208582E0,-3.661649E-1,1.4853798E0,9.661523E-3,4.077979E-2,-2.4979793E-2,1.0540974E0,4.845067E-1,-4.0428743E-1,1.542796E0,-7.20127E-2,5.95956E-2,-1.3456532E-2,2.5095744E-3,-1.066262E-2,-7.980366E-3,5.9618566E-2,2.1076854E-2,-4.1686416E-2],"split_indices":[2,13,6,12,6,0,10,0,12,7,4,6,0,0,0,0,0,0,0,0,0],"split_type":[0,0,0,0,0,0,0,0,0,0,0,0,0,0,0,0,0,0,0,0,0],"sum_hessian":[4.7748508E2,4.690454E2,8.439656E0,1.3094254E1,4.5595114E2,1.2464678E0,7.1931887E0,2.2430544E0,1.0851199E1,4.4559015E2,1.0360996E1,3.6984453E0,3.4947433E0,7.8685517E0,2.9826477E0,3.3005734E2,1.1553283E2,4.745022E0,5.6159744E0,1.9963876E0,1.7020576E0],"tree_param":{"num_deleted":"0","num_feature":"19","num_nodes":"21","size_leaf_vector":"1"}},{"base_weights":[-7.3654903E-4,6.2652426E-3,-6.2879115E-2,2.7926317E-1,-1.7502107E-2,3.9383623E-1,-5.724992E-2,-9.788428E-2,8.7053694E-2,4.4941515E-2,1.2125707E-3,2.4366286E-3,-1.5497091E-2,9.950738E-3,-1.456313E-2],"categories":[],"categories_nodes":[],"categories_segments":[],"categories_sizes":[],"default_left":[0,0,0,0,0,0,0,0,0,0,0,0,0,0,0],"id":14,"left_children":[1,3,-1,5,7,9,-1,11,13,-1,-1,-1,-1,-1,-1],"loss_changes":[3.6205928E0,3.0942354E0,0E0,5.9119678E0,3.6975584E0,5.0225153E0,0E0,5.858008E0,5.4523945E0,0E0,0E0,0E0,0E0,0E0,0E0],"parents":[2147483647,0,0,1,1,3,3,4,4,5,5,7,7,8,8],"right_children":[2,4,-1,6,8,10,-1,12,14,-1,-1,-1,-1,-1,-1],"split_conditions":[1.5423286E0,-1.7316126E0,-6.2879115E-2,2.353388E0,-1.1561084E-1,-3.1360546E-1,-5.724992E-2,-4.7913244E-1,1.1184837E0,4.4941515E-2,1.2125707E-3,2.4366286E-3,-1.5497091E-2,9.950738E-3,-1.456313E-2],"split_indices":[8,6,0,11,13,13,0,13,5,0,0,0,0,0,0],"split_type":[0,0,0,0,0,0,0,0,0,0,0,0,0,0,0],"sum_hessian":[4.7721957E2,4.7513135E2,2.0882268E0,3.7191402E1,4.3793994E2,3.4728077E1,2.4633234E0,2.4762805E2,1.9031187E2,1.671578E1,1.8012297E1,1.3570328E2,1.1192478E2,1.5280267E2,3.750921E1],"tree_param":{"num_deleted":"0","num_feature":"19","num_nodes":"15","size_leaf_vector":"1"}},{"base_weights":[-8.8321173E-4,1.1062772E-2,-6.0273594E-1,-1.1191802E-3,5.050592E-1,-7.598712E-1,9.013538E-3,6.3282643E-3,-7.2284915E-2,-1.2654786E-1,9.813534E-1,-1.6396819E-1,-7.222712E-2,3.920496E-3,-5.699943E-3,2.6847126E-2,-5.4442305E-2,6.952806E-2,1.2258678E-3,2.0225372E-2,-3.930269E-2],"categories":[],"categories_nodes":[],"categories_segments":[],"categories_sizes":[],"default_left":[0,0,0,0,0,0,0,0,0,0,0,0,0,0,0,0,0,0,0,0,0],"id":15,"left_children":[1,3,5,7,9,11,-1,13,-1,15,17,19,-1,-1,-1,-1,-1,-1,-1,-1,-1],"loss_changes":[3.443424E0,2.8270748E0,1.2272217E0,4.251689E0,3.525373E0,2.0564356E0,0E0,2.916734E0,0E0,3.1616213E0,1.3156939E0,1.4562716E0,0E0,0E0,0E0,0E0,0E0,0E0,0E0,0E0,0E0],"parents":[2147483647,0,0,1,1,2,2,3,3,4,4,5,5,7,7,9,9,10,10,11,11],"right_children":[2,4,6,8,10,12,-1,14,-1,16,18,20,-1,-1,-1,-1,-1,-1,-1,-1,-1],"split_conditions":[1.5290351E0,1.4853798E0,-7.2400117E-1,1.4957752E0,-4.0428743E-1,4.077979E-2,9.013538E-3,2.2892733E-1,-7.2284915E-2,-5.0480294E-1,1.5259137E0,1.542796E0,-7.222712E-2,3.920496E-3,-5.699943E-3,2.6847126E-2,-5.4442305E-2,6.952806E-2,1.2258678E-3,2.0225372E-2,-3.930269E-2],"split_indices":[2,6,12,0,4,10,0,0,0,4,8,6,0,0,0,0,0,0,0,0,0],"split_type":[0,0,0,0,0,0,0,0,0,0,0,0,0,0,0,0,0,0,0,0,0],"sum_hessian":[4.7700955E2,4.6868832E2,8.321226E0,4.5838235E2,1.0305974E1,6.8891773E0,1.4320489E0,4.5663568E2,1.7466784E0,4.746291E0,5.559683E0,3.6747873E0,3.21439E0,2.8825992E2,1.6837576E2,2.9974015E0,1.7488898E0,4.3515487E0,1.2081339E0,1.9970251E0,1.6777622E0],"tree_param":{"num_deleted":"0","num_feature":"19","num_nodes":"21","size_leaf_vector":"1"}},{"base_weights":[-1.0701128E-3,5.4568667E-3,-5.9854914E-2,4.5166248E-1,-8.075881E-3,-3.6724348E-2,6.06757E-1,-3.3348665E-1,1.0744E-2,-1.1380582E-2,5.542587E-2,3.0141475E-3,-5.177201E-2,6.244333E-3,-2.9678552E-3],"categories":[],"categories_nodes":[],"categories_segments":[],"categories_sizes":[],"default_left":[0,0,0,0,0,0,0,0,0,0,0,0,0,0,0],"id":16,"left_children":[1,3,-1,5,7,-1,9,11,13,-1,-1,-1,-1,-1,-1],"loss_changes":[3.2081807E0,2.8763914E0,0E0,2.7366657E0,2.8374019E0,0E0,3.7239375E0,5.469216E0,2.6167576E0,0E0,0E0,0E0,0E0,0E0,0E0],"parents":[2147483647,0,0,1,1,3,3,4,4,6,6,7,7,8,8],"right_children":[2,4,-1,6,8,-1,10,12,14,-1,-1,-1,-1,-1,-1],"split_conditions":[1.5423286E0,-1.0991042E0,-5.9854914E-2,-4.4871858E-1,-8.7852925E-1,-3.6724348E-2,-1.2855628E0,2.9485503E-1,-3.3347037E-2,-1.1380582E-2,5.542587E-2,3.0141475E-3,-5.177201E-2,6.244333E-3,-2.9678552E-3],"split_indices":[8,13,0,12,13,0,13,5,0,0,0,0,0,0,0],"split_type":[0,0,0,0,0,0,0,0,0,0,0,0,0,0,0],"sum_hessian":[4.7676938E2,4.7474686E2,2.0225277E0,1.3021536E1,4.617253E2,1.2475536E0,1.1773982E1,2.4329468E1,4.3739584E2,3.6729262E0,8.101056E0,1.4904287E1,9.425181E0,1.7032643E2,2.6706943E2],"tree_param":{"num_deleted":"0","num_feature":"19","num_nodes":"15","size_leaf_vector":"1"}},{"base_weights":[-1.2120432E-3,9.924522E-3,-5.6878E-1,-1.7277307E-3,4.8467052E-1,-7.221929E-1,9.1237845E-3,5.4341257E-3,-6.965007E-2,-1.2181884E-1,9.458097E-1,-1.457876E-1,-6.960516E-2,1.0521017E-2,-1.6292969E-3,2.5798721E-2,-5.230408E-2,6.728782E-2,6.76254E-4,1.955449E-2,-3.7008356E-2],"categories":[],"categories_nodes":[],"categories_segments":[],"categories_sizes":[],"default_left":[0,0,0,0,0,0,0,0,0,0,0,0,0,0,0,0,0,0,0,0,0],"id":17,"left_children":[1,3,5,7,9,11,-1,13,-1,15,17,19,-1,-1,-1,-1,-1,-1,-1,-1,-1],"loss_changes":[3.0244908E0,2.5974927E0,1.1380446E0,3.9347236E0,3.2611792E0,1.9481621E0,0E0,2.684323E0,0E0,2.9182074E0,1.2620835E0,1.3098444E0,0E0,0E0,0E0,0E0,0E0,0E0,0E0,0E0,0E0],"parents":[2147483647,0,0,1,1,2,2,3,3,4,4,5,5,7,7,9,9,10,10,11,11],"right_children":[2,4,6,8,10,12,-1,14,-1,16,18,20,-1,-1,-1,-1,-1,-1,-1,-1,-1],"split_conditions":[1.5290351E0,1.4853798E0,-7.2400117E-1,1.4957752E0,-4.0428743E-1,4.077979E-2,9.1237845E-3,-6.7011243E-1,-6.965007E-2,-5.0480294E-1,1.5389277E0,1.542796E0,-6.960516E-2,1.0521017E-2,-1.6292969E-3,2.5798721E-2,-5.230408E-2,6.728782E-2,6.76254E-4,1.955449E-2,-3.7008356E-2],"split_indices":[2,6,12,0,4,10,0,10,0,4,6,6,0,0,0,0,0,0,0,0,0],"split_type":[0,0,0,0,0,0,0,0,0,0,0,0,0,0,0,0,0,0,0,0,0],"sum_hessian":[4.7660825E2,4.6840002E2,8.208222E0,4.5815143E2,1.0248591E1,6.779224E0,1.4289987E0,4.5641058E2,1.7408681E0,4.744485E0,5.5041065E0,3.64661E0,3.132614E0,7.238102E1,3.8402954E2,2.9950147E0,1.7494702E0,4.300583E0,1.2035238E0,1.9972293E0,1.6493807E0],"tree_param":{"num_deleted":"0","num_feature":"19","num_nodes":"21","size_leaf_vector":"1"}},{"base_weights":[-1.3464459E-3,4.7430806E-3,-5.7161003E-2,7.246784E-1,-2.8740577E-3,5.9310175E-3,5.9783604E-2,-8.6260283E-1,5.3333556E-3,1.1870337E-2,-7.7948876E-2,2.6059382E-2,-4.5178924E-4],"categories":[],"categories_nodes":[],"categories_segments":[],"categories_sizes":[],"default_left":[0,0,0,0,0,0,0,0,0,0,0,0,0],"id":18,"left_children":[1,3,-1,5,7,-1,-1,9,11,-1,-1,-1,-1],"loss_changes":[2.8550298E0,2.609436E0,0E0,8.3291364E-1,3.331426E0,0E0,0E0,2.5405514E0,2.7135763E0,0E0,0E0,0E0,0E0],"parents":[2147483647,0,0,1,1,3,3,4,4,7,7,8,8],"right_children":[2,4,-1,6,8,-1,-1,10,12,-1,-1,-1,-1],"split_conditions":[1.5423286E0,-5.9652984E-1,-5.7161003E-2,-1.9619209E-1,-5.801399E-1,5.9310175E-3,5.9783604E-2,-1.0720047E-1,-1.0991042E0,1.1870337E-2,-7.7948876E-2,2.6059382E-2,-4.5178924E-4],"split_indices":[8,4,0,11,4,0,0,0,13,0,0,0,0],"split_type":[0,0,0,0,0,0,0,0,0,0,0,0,0],"sum_hessian":[4.7641235E2,4.7446066E2,1.9516959E0,3.9818041E0,4.7047885E2,1.7375506E0,2.2442536E0,3.4645624E0,4.6701428E2,1.2460583E0,2.2185042E0,1.2474326E1,4.5453998E2],"tree_param":{"num_deleted":"0","num_feature":"19","num_nodes":"13","size_leaf_vector":"1"}},{"base_weights":[-1.3369583E-3,5.4022837E-2,-1.0835263E-1,3.499788E-2,9.231769E-1,-4.6380546E-2,-5.5851924E-1,2.3203464E-1,-5.462146E-2,7.968642E-2,3.3594203E-1,3.194849E-2,-5.296466E-1,-6.932595E-1,2.4808528E-2,9.564489E-3,3.915356E-2,5.649749E-2,-5.28037E-3,-2.0088753E-2,4.855886E-2,4.5017254E-2,-1.761969E-3,1.1561067E-2,-5.2905936E-2,-4.814929E-2,1.3964403E-2],"categories":[],"categories_nodes":[],"categories_segments":[],"categories_sizes":[],"default_left":[0,0,0,0,0,0,0,0,0,0,0,0,0,0,0,0,0,0,0,0,0,0,0,0,0,0,0],"id":19,"left_children":[1,3,5,7,9,11,13,15,17,-1,19,21,23,25,-1,-1,-1,-1,-1,-1,-1,-1,-1,-1,-1,-1,-1],"loss_changes":[2.833719E0,5.180651E0,4.5234246E0,5.4786806E0,1.2965765E0,5.4841137E0,2.901309E0,2.7833433E0,7.9853578E0,0E0,1.7196741E0,5.7983627E0,5.7568293E0,2.4022017E0,0E0,0E0,0E0,0E0,0E0,0E0,0E0,0E0,0E0,0E0,0E0,0E0,0E0],"parents":[2147483647,0,0,1,1,2,2,3,3,4,4,5,5,6,6,7,7,8,8,10,10,11,11,12,12,13,13],"right_children":[2,4,6,8,10,12,14,16,18,-1,20,22,24,26,-1,-1,-1,-1,-1,-1,-1,-1,-1,-1,-1,-1,-1],"split_conditions":[3.2194453E-1,3.3672118E-1,8.9480644E-1,-4.4410175E-1,3.077894E-1,-1.8744256E-1,6.7491776E-1,1.5581825E-1,-6.7011243E-1,7.968642E-2,3.5153264E-1,4.8111466E-1,-7.688154E-1,3.3348002E0,2.4808528E-2,9.564489E-3,3.915356E-2,5.649749E-2,-5.28037E-3,-2.0088753E-2,4.855886E-2,4.5017254E-2,-1.761969E-3,1.1561067E-2,-5.2905936E-2,-4.814929E-2,1.3964403E-2],"split_indices":[7,3,13,5,6,17,10,3,10,0,9,7,5,13,0,0,0,0,0,0,0,0,0,0,0,0,0],"split_type":[0,0,0,0,0,0,0,0,0,0,0,0,0,0,0,0,0,0,0,0,0,0,0,0,0,0,0],"sum_hessian":[4.7632797E2,3.1425653E2,1.6207144E2,3.085431E2,5.713448E0,1.434293E2,1.8642132E1,9.596521E1,2.1257788E2,2.4920716E0,3.2213762E0,1.24228E2,1.9201311E1,1.665845E1,1.983684E0,8.436114E1,1.1604074E1,6.346462E0,2.0623141E2,1.4906731E0,1.7307032E0,8.733869E0,1.15494125E2,6.736312E0,1.2464999E1,1.4669467E1,1.9889817E0],"tree_param":{"num_deleted":"0","num_feature":"19","num_nodes":"27","size_leaf_vector":"1"}},{"base_weights":[-8.372347E-4,4.9617114E-3,-5.5392258E-2,2.5066093E-1,-1.6351255E-2,3.5952014E-1,-5.5077095E-2,-6.7497766E-1,-4.9420786E-3,4.2191885E-2,1.2239775E-4,2.1698428E-2,-8.469448E-2,7.761558E-2,-9.6204784E-4],"categories":[],"categories_nodes":[],"categories_segments":[],"categories_sizes":[],"default_left":[0,0,0,0,0,0,0,0,0,0,0,0,0,0,0],"id":20,"left_children":[1,3,-1,5,7,9,-1,11,13,-1,-1,-1,-1,-1,-1],"loss_changes":[2.6344228E0,2.4923067E0,0E0,5.2887845E0,3.289246E0,4.6377587E0,0E0,6.6310506E0,6.71254E0,0E0,0E0,0E0,0E0,0E0,0E0],"parents":[2147483647,0,0,1,1,3,3,4,4,5,5,7,7,8,8],"right_children":[2,4,-1,6,8,10,-1,12,14,-1,-1,-1,-1,-1,-1],"split_conditions":[1.5423286E0,-1.7316126E0,-5.5392258E-2,2.353388E0,-1.6194375E0,-3.1360546E-1,-5.5077095E-2,-7.8857833E-1,-1.535534E0,4.2191885E-2,1.2239775E-4,2.1698428E-2,-8.469448E-2,7.761558E-2,-9.6204784E-4],"split_indices":[8,6,0,11,2,13,0,5,2,0,0,0,0,0,0],"split_type":[0,0,0,0,0,0,0,0,0,0,0,0,0,0,0],"sum_hessian":[4.7605685E2,4.7415906E2,1.8978021E0,3.698853E1,4.3717053E2,3.454552E1,2.443009E0,6.4536686E0,4.3071686E2,1.657929E1,1.7966228E1,2.976449E0,3.4772193E0,2.7170289E0,4.2799985E2],"tree_param":{"num_deleted":"0","num_feature":"19","num_nodes":"15","size_leaf_vector":"1"}},{"base_weights":[-8.980743E-4,9.154156E-3,-5.229853E-1,-1.9877362E-3,4.6531615E-1,1.1399549E-2,-6.634526E-1,4.903928E-3,-6.721549E-2,-1.2001378E-1,9.1420877E-1,-1.1388381E-1,-6.452909E-2,2.3841223E-2,-4.5343235E-4,4.2500526E-2,-3.442172E-2,6.5206945E-2,5.27778E-4,-3.6439866E-2,1.8420694E-2],"categories":[],"categories_nodes":[],"categories_segments":[],"categories_sizes":[],"default_left":[0,0,0,0,0,0,0,0,0,0,0,0,0,0,0,0,0,0,0,0,0],"id":21,"left_children":[1,3,5,7,9,-1,11,13,-1,15,17,19,-1,-1,-1,-1,-1,-1,-1,-1,-1],"loss_changes":[2.5074892E0,2.383851E0,1.041163E0,3.6486843E0,3.048047E0,0E0,1.7754734E0,2.3495958E0,0E0,2.72975E0,1.190341E0,1.2101299E0,0E0,0E0,0E0,0E0,0E0,0E0,0E0,0E0,0E0],"parents":[2147483647,0,0,1,1,2,2,3,3,4,4,6,6,7,7,9,9,10,10,11,11],"right_children":[2,4,6,8,10,-1,12,14,-1,16,18,20,-1,-1,-1,-1,-1,-1,-1,-1,-1],"split_conditions":[1.5290351E0,1.4853798E0,1.5208582E0,1.4957752E0,-4.0428743E-1,1.1399549E-2,4.077979E-2,-1.0991042E0,-6.721549E-2,-7.3570555E-1,1.5259137E0,1.5364815E0,-6.452909E-2,2.3841223E-2,-4.5343235E-4,4.2500526E-2,-3.442172E-2,6.5206945E-2,5.27778E-4,-3.6439866E-2,1.8420694E-2],"split_indices":[2,6,6,0,4,0,10,13,0,13,8,1,0,0,0,0,0,0,0,0,0],"split_type":[0,0,0,0,0,0,0,0,0,0,0,0,0,0,0,0,0,0,0,0,0],"sum_hessian":[4.7587396E2,4.678485E2,8.025455E0,4.5766553E2,1.0182974E1,1.2475793E0,6.777876E0,4.559349E2,1.730628E0,4.737801E0,5.445173E0,3.5941217E0,3.1837542E0,1.2916748E1,4.4301816E2,1.4938803E0,3.2439208E0,4.243142E0,1.2020305E0,1.4335984E0,2.1605232E0],"tree_param":{"num_deleted":"0","num_feature":"19","num_nodes":"21","size_leaf_vector":"1"}},{"base_weights":[-9.3346776E-4,5.729354E-2,-8.99358E-2,-2.0690689E-2,2.6171836E-1,-6.729272E-1,-5.263501E-2,1.5783823E-1,-1.6562136E-1,-2.1798159E-1,4.6984404E-1,-1.4304258E-1,-8.1108056E-2,-1.0815789E-3,-4.3441245E-1,2.2561157E-2,-3.7522719E-3,4.3187704E-2,-1.1358041E-2,2.1141946E-2,-2.7511986E-2,4.508036E-2,1.2259975E-2,-5.606416E-2,2.8594045E-2,-3.0722523E-3,3.644064E-2,5.306655E-2,-3.384944E-2],"categories":[],"categories_nodes":[],"categories_segments":[],"categories_sizes":[],"default_left":[0,0,0,0,0,0,0,0,0,0,0,0,0,0,0,0,0,0,0,0,0,0,0,0,0,0,0,0,0],"id":22,"left_children":[1,3,5,7,9,11,13,15,17,19,21,23,-1,25,27,-1,-1,-1,-1,-1,-1,-1,-1,-1,-1,-1,-1,-1,-1],"loss_changes":[2.4754438E0,4.6089287E0,4.072559E0,5.45857E0,8.07082E0,4.1033754E0,3.5153549E0,4.853819E0,3.255934E0,3.8452082E0,4.255728E0,4.429911E0,0E0,5.165748E0,4.733531E0,0E0,0E0,0E0,0E0,0E0,0E0,0E0,0E0,0E0,0E0,0E0,0E0,0E0,0E0],"parents":[2147483647,0,0,1,1,2,2,3,3,4,4,5,5,6,6,7,7,8,8,9,9,10,10,11,11,13,13,14,14],"right_children":[2,4,6,8,10,12,14,16,18,20,22,24,-1,26,28,-1,-1,-1,-1,-1,-1,-1,-1,-1,-1,-1,-1,-1,-1],"split_conditions":[2.2892733E-1,1.6712365E-1,2.1368447E-1,5.870569E-1,-1.0637693E0,1.9325544E-1,8.9480644E-1,-2.8953418E-1,-1.2398276E0,-1.7316126E0,-2.022285E-2,1.8626612E-1,-8.1108056E-2,5.499787E-1,2.9660633E-1,2.2561157E-2,-3.7522719E-3,4.3187704E-2,-1.1358041E-2,2.1141946E-2,-2.7511986E-2,4.508036E-2,1.2259975E-2,-5.606416E-2,2.8594045E-2,-3.0722523E-3,3.644064E-2,5.306655E-2,-3.384944E-2],"split_indices":[0,13,7,17,7,7,13,4,13,6,8,9,0,13,8,0,0,0,0,0,0,0,0,0,0,0,0,0,0],"split_type":[0,0,0,0,0,0,0,0,0,0,0,0,0,0,0,0,0,0,0,0,0,0,0,0,0,0,0,0,0],"sum_hessian":[4.7567487E2,2.877679E2,1.8790695E2,2.089545E2,7.881342E1,1.0274918E1,1.7763203E2,9.358513E1,1.1536937E2,2.3833426E1,5.498E1,6.6100698E0,3.664848E0,1.5738264E2,2.024938E1,4.566251E1,4.792262E1,2.8679285E0,1.1250144E2,7.130184E0,1.6703241E1,2.4372847E1,3.0607155E1,2.656751E0,3.9533188E0,1.4624255E2,1.1140095E1,1.4816117E0,1.8767769E1],"tree_param":{"num_deleted":"0","num_feature":"19","num_nodes":"29","size_leaf_vector":"1"}},{"base_weights":[-7.796059E-4,6.9523317E-1,-8.100359E-3,5.431794E-3,5.7570424E-2,-8.5322165E-1,3.437167E-4,1.1502036E-2,-7.528217E-2,5.2315325E-2,-1.000072E-1,1.9643377E-3,5.1699094E-2,-2.634206E-3,-3.365975E-2],"categories":[],"categories_nodes":[],"categories_segments":[],"categories_sizes":[],"default_left":[0,0,0,0,0,0,0,0,0,0,0,0,0,0,0],"id":23,"left_children":[1,3,5,-1,-1,7,9,-1,-1,11,13,-1,-1,-1,-1],"loss_changes":[2.432151E0,7.857783E-1,3.3704321E0,0E0,0E0,2.414772E0,2.449078E0,0E0,0E0,4.7723503E0,4.1689982E0,0E0,0E0,0E0,0E0],"parents":[2147483647,0,0,1,1,2,2,5,5,6,6,9,9,10,10],"right_children":[2,4,6,-1,-1,8,10,-1,-1,12,14,-1,-1,-1,-1],"split_conditions":[-5.9652984E-1,-1.9619209E-1,-5.801399E-1,5.431794E-3,5.7570424E-2,-1.0720047E-1,3.2194453E-1,1.1502036E-2,-7.528217E-2,3.3672118E-1,5.7255477E-1,1.9643377E-3,5.1699094E-2,-2.634206E-3,-3.365975E-2],"split_indices":[4,11,4,0,0,0,7,0,0,3,12,0,0,0,0],"split_type":[0,0,0,0,0,0,0,0,0,0,0,0,0,0,0],"sum_hessian":[4.7522345E2,3.968361E0,4.712551E2,1.7330222E0,2.2353387E0,3.672286E0,4.675828E2,1.2460817E0,2.4262042E0,3.0836148E2,1.5922133E2,3.0267374E2,5.6877446E0,1.4384125E2,1.5380081E1],"tree_param":{"num_deleted":"0","num_feature":"19","num_nodes":"15","size_leaf_vector":"1"}},{"base_weights":[-7.0009305E-4,7.209459E-2,-6.999526E-2,7.331945E-1,4.5765877E-2,2.448726E-1,-1.1511055E-1,8.3721384E-2,2.0118022E-2,-6.4365715E-1,6.9021665E-2,6.716224E-1,-5.0635046E-1,-9.1331206E-2,-8.185296E-2,-2.7718788E-2,5.537344E-2,-5.698473E-2,3.3480234E-2,9.743049E-3,-5.811177E-3,4.6302002E-2,-3.0959884E-2,2.1428932E-2,-5.505419E-2,1.931867E-2,-7.027377E-3],"categories":[],"categories_nodes":[],"categories_segments":[],"categories_sizes":[],"default_left":[0,0,0,0,0,0,0,0,0,0,0,0,0,0,0,0,0,0,0,0,0,0,0,0,0,0,0],"id":24,"left_children":[1,3,5,7,9,11,13,-1,15,17,19,21,23,-1,25,-1,-1,-1,-1,-1,-1,-1,-1,-1,-1,-1,-1],"loss_changes":[2.4067008E0,4.0165377E0,3.5003424E0,4.416517E0,3.6492972E0,1.0263025E1,1.0239843E1,0E0,2.9525046E0,3.5987833E0,3.6423542E0,3.4242544E0,4.8740044E0,0E0,3.4266212E0,0E0,0E0,0E0,0E0,0E0,0E0,0E0,0E0,0E0,0E0,0E0,0E0],"parents":[2147483647,0,0,1,1,2,2,3,3,4,4,5,5,6,6,8,8,9,9,10,10,11,11,12,12,14,14],"right_children":[2,4,6,8,10,12,14,-1,16,18,20,22,24,-1,26,-1,-1,-1,-1,-1,-1,-1,-1,-1,-1,-1,-1],"split_conditions":[-4.15325E-2,-9.9379647E-1,-1.5030352E0,-7.688154E-1,-8.7852925E-1,-1.3156719E-2,-1.4776328E0,8.3721384E-2,-7.6700844E-2,-1.4459375E-1,3.2829952E-1,1.6697707E0,-2.2287173E0,-9.1331206E-2,-5.1175624E-1,-2.7718788E-2,5.537344E-2,-5.698473E-2,3.3480234E-2,9.743049E-3,-5.811177E-3,4.6302002E-2,-3.0959884E-2,2.1428932E-2,-5.505419E-2,1.931867E-2,-7.027377E-3],"split_indices":[5,13,7,5,13,4,9,0,16,10,6,5,2,0,4,0,0,0,0,0,0,0,0,0,0,0,0],"split_type":[0,0,0,0,0,0,0,0,0,0,0,0,0,0,0,0,0,0,0,0,0,0,0,0,0,0,0],"sum_hessian":[4.7511075E2,2.3168495E2,2.434258E2,7.8453245E0,2.2383963E2,2.99527E1,2.134731E2,3.4342906E0,4.4110336E0,6.433706E0,2.1740591E2,1.9169168E1,1.0783531E1,3.7422535E0,2.0973085E2,3.1960979E0,1.214936E0,5.2005844E0,1.2331215E0,1.3739792E2,8.0008E1,1.7690454E1,1.478713E0,3.6599305E0,7.123601E0,1.7358068E1,1.9237277E2],"tree_param":{"num_deleted":"0","num_feature":"19","num_nodes":"27","size_leaf_vector":"1"}},{"base_weights":[-6.6135725E-4,4.6790824E-3,-5.2593242E-2,6.525753E-1,-2.1470857E-3,4.33662E-3,5.4679208E-2,-7.874019E-1,5.3156223E-3,1.2083995E-2,-7.227732E-2,2.343479E-2,-3.7036644E-4],"categories":[],"categories_nodes":[],"categories_segments":[],"categories_sizes":[],"default_left":[0,0,0,0,0,0,0,0,0,0,0,0,0],"id":25,"left_children":[1,3,-1,5,7,-1,-1,9,11,-1,-1,-1,-1],"loss_changes":[2.2981033E0,2.0978947E0,0E0,7.494116E-1,2.7589736E0,0E0,0E0,2.2598515E0,2.1669672E0,0E0,0E0,0E0,0E0],"parents":[2147483647,0,0,1,1,3,3,4,4,7,7,8,8],"right_children":[2,4,-1,6,8,-1,-1,10,12,-1,-1,-1,-1],"split_conditions":[1.5423286E0,-5.9652984E-1,-5.2593242E-2,-1.9619209E-1,-5.801399E-1,4.33662E-3,5.4679208E-2,-1.0720047E-1,-1.0991042E0,1.2083995E-2,-7.227732E-2,2.343479E-2,-3.7036644E-4],"split_indices":[8,4,0,11,4,0,0,0,13,0,0,0,0],"split_type":[0,0,0,0,0,0,0,0,0,0,0,0,0],"sum_hessian":[4.7483954E2,4.7303577E2,1.8037682E0,3.9455996E0,4.6909018E2,1.7253218E0,2.2202778E0,3.432173E0,4.65658E2,1.2455497E0,2.1866233E0,1.2342756E1,4.5331525E2],"tree_param":{"num_deleted":"0","num_feature":"19","num_nodes":"13","size_leaf_vector":"1"}},{"base_weights":[-6.896155E-4,1.579803E-1,-2.9378016E-2,5.28227E-1,-1.5488273E-2,-4.0483147E-2,9.758425E-1,-4.414323E-2,6.8264574E-1,-6.9128025E-1,1.3032383E-1,-5.3151053E-1,-1.6219558E-2,7.293425E-2,8.031853E-3,5.4759473E-2,1.0872755E-2,-5.4339677E-2,2.8496988E-2,3.993603E-2,-9.968031E-3,3.6784314E-2,-3.7829995E-2,1.10135535E-2,-4.1617844E-3],"categories":[],"categories_nodes":[],"categories_segments":[],"categories_sizes":[],"default_left":[0,0,0,0,0,0,0,0,0,0,0,0,0,0,0,0,0,0,0,0,0,0,0,0,0],"id":26,"left_children":[1,3,5,7,9,11,13,-1,15,17,19,21,23,-1,-1,-1,-1,-1,-1,-1,-1,-1,-1,-1,-1],"loss_changes":[2.1701639E0,4.6967583E0,4.5463905E0,5.1498666E0,5.084234E0,4.7603393E0,8.59828E-1,0E0,2.5543308E0,3.0728898E0,7.2425857E0,2.9990864E0,4.3546057E0,0E0,0E0,0E0,0E0,0E0,0E0,0E0,0E0,0E0,0E0,0E0,0E0],"parents":[2147483647,0,0,1,1,2,2,3,3,4,4,5,5,6,6,8,8,9,9,10,10,11,11,12,12],"right_children":[2,4,6,8,10,12,14,-1,16,18,20,22,24,-1,-1,-1,-1,-1,-1,-1,-1,-1,-1,-1,-1],"split_conditions":[-6.7011243E-1,-3.2699442E-1,3.7338393E0,-5.214057E-1,-1.5806068E-1,-1.292854E0,6.141447E-1,-4.414323E-2,6.440121E-1,-3.733987E-1,-6.690615E-3,-9.5582366E-1,-4.494673E-1,7.293425E-2,8.031853E-3,5.4759473E-2,1.0872755E-2,-5.4339677E-2,2.8496988E-2,3.993603E-2,-9.968031E-3,3.6784314E-2,-3.7829995E-2,1.10135535E-2,-4.1617844E-3],"split_indices":[10,13,4,4,13,5,5,0,12,5,4,12,5,0,0,0,0,0,0,0,0,0,0,0,0],"split_type":[0,0,0,0,0,0,0,0,0,0,0,0,0,0,0,0,0,0,0,0,0,0,0,0,0],"sum_hessian":[4.7473145E2,7.2001045E1,4.027304E2,2.2318962E1,4.9682083E1,3.992791E2,3.4512923E0,1.9729252E0,2.0346037E1,8.1532955E0,4.152879E1,1.781653E1,3.814626E2,2.2219748E0,1.2293174E0,1.2795063E1,7.550974E0,6.940095E0,1.2132003E0,1.4160827E1,2.7367962E1,1.2432798E0,1.6573252E1,8.036373E1,3.0109885E2],"tree_param":{"num_deleted":"0","num_feature":"19","num_nodes":"25","size_leaf_vector":"1"}},{"base_weights":[-4.0321652E-4,4.74084E-3,-5.1393572E-2,-5.104653E-2,7.8844756E-2,2.8215867E-1,-9.786841E-2,2.309904E-1,-8.75716E-2,2.879654E-2,-3.5983678E-2,-4.13193E-3,-5.734524E-2,5.187053E-2,8.510244E-3,-1.952831E-2,1.7703151E-2],"categories":[],"categories_nodes":[],"categories_segments":[],"categories_sizes":[],"default_left":[0,0,0,0,0,0,0,0,0,0,0,0,0,0,0,0,0],"id":27,"left_children":[1,3,-1,5,7,9,11,13,15,-1,-1,-1,-1,-1,-1,-1,-1],"loss_changes":[2.162637E0,1.9627374E0,0E0,4.254199E0,5.182524E0,6.738513E0,5.6157355E0,5.8470397E0,9.624318E0,0E0,0E0,0E0,0E0,0E0,0E0,0E0,0E0],"parents":[2147483647,0,0,1,1,3,3,4,4,5,5,6,6,7,7,8,8],"right_children":[2,4,-1,6,8,10,12,14,16,-1,-1,-1,-1,-1,-1,-1,-1],"split_conditions":[1.5423286E0,-1.1561084E-1,-5.1393572E-2,-1.4981536E0,-6.690615E-3,1.3982332E0,-1.4025716E-1,-6.2310547E-1,5.870569E-1,2.879654E-2,-3.5983678E-2,-4.13193E-3,-5.734524E-2,5.187053E-2,8.510244E-3,-1.952831E-2,1.7703151E-2],"split_indices":[8,13,0,7,4,10,13,11,17,0,0,0,0,0,0,0,0],"split_type":[0,0,0,0,0,0,0,0,0,0,0,0,0,0,0,0,0],"sum_hessian":[4.745603E2,4.7279846E2,1.7618269E0,2.6991245E2,2.0288602E2,3.263576E1,2.3727669E2,1.05784676E2,9.710134E1,2.6768894E1,5.866865E0,2.3134187E2,5.9348116E0,1.0965277E1,9.4819405E1,5.9555664E1,3.7545673E1],"tree_param":{"num_deleted":"0","num_feature":"19","num_nodes":"17","size_leaf_vector":"1"}},{"base_weights":[-5.030365E-4,4.4548656E-3,-5.0255448E-2,6.3149035E-1,-2.1422305E-3,4.2132055E-3,5.2968282E-2,-7.513828E-1,4.949465E-3,1.2117958E-2,-6.958263E-2,3.856192E-2,-1.03732E-4],"categories":[],"categories_nodes":[],"categories_segments":[],"categories_sizes":[],"default_left":[0,0,0,0,0,0,0,0,0,0,0,0,0],"id":28,"left_children":[1,3,-1,5,7,-1,-1,9,11,-1,-1,-1,-1],"loss_changes":[2.036435E0,1.9600651E0,0E0,7.0178056E-1,2.4987414E0,0E0,0E0,2.1263087E0,2.0639458E0,0E0,0E0,0E0,0E0],"parents":[2147483647,0,0,1,1,3,3,4,4,7,7,8,8],"right_children":[2,4,-1,6,8,-1,-1,10,12,-1,-1,-1,-1],"split_conditions":[1.5423286E0,-5.9652984E-1,-5.0255448E-2,-1.9619209E-1,-5.801399E-1,4.2132055E-3,5.2968282E-2,-1.0720047E-1,-5.6336206E-1,1.2117958E-2,-6.958263E-2,3.856192E-2,-1.03732E-4],"split_indices":[8,4,0,11,4,0,0,0,4,0,0,0,0],"split_type":[0,0,0,0,0,0,0,0,0,0,0,0,0],"sum_hessian":[4.7422696E2,4.7250626E2,1.7206956E0,3.9333143E0,4.6857294E2,1.7258574E0,2.207457E0,3.4094608E0,4.6516348E2,1.2460945E0,2.1633663E0,3.7274687E0,4.61436E2],"tree_param":{"num_deleted":"0","num_feature":"19","num_nodes":"13","size_leaf_vector":"1"}},{"base_weights":[-5.019916E-4,-2.606951E-2,1.5753792E-1,2.7488906E-2,-4.0541095E-1,-6.2853104E-1,2.3124012E-1,5.013014E-3,5.417348E-1,-5.9591717E-1,3.4389056E-2,-2.7943836E-3,-4.731045E-2,7.754449E-1,8.2286805E-2,1.6544192E-3,-2.9645603E-2,4.2710636E-2,-1.8063365E-2,5.2279055E-2,-3.924366E-2,4.1519377E-2,-2.3201877E-2,5.8571506E-2,-2.6875572E-2,4.5846064E-2,-2.7474896E-3],"categories":[],"categories_nodes":[],"categories_segments":[],"categories_sizes":[],"default_left":[0,0,0,0,0,0,0,0,0,0,0,0,0,0,0,0,0,0,0,0,0,0,0,0,0,0,0],"id":29,"left_children":[1,3,5,7,9,11,13,15,17,19,21,-1,-1,23,25,-1,-1,-1,-1,-1,-1,-1,-1,-1,-1,-1,-1],"loss_changes":[1.9239864E0,8.33766E0,3.986737E0,4.1589484E0,4.274063E0,5.9711576E-1,4.909485E0,4.1781793E0,2.690794E0,4.746086E0,5.070624E0,0E0,0E0,4.1911035E0,4.5372024E0,0E0,0E0,0E0,0E0,0E0,0E0,0E0,0E0,0E0,0E0,0E0,0E0],"parents":[2147483647,0,0,1,1,2,2,3,3,4,4,5,5,6,6,7,7,8,8,9,9,10,10,13,13,14,14],"right_children":[2,4,6,8,10,12,14,16,18,20,22,-1,-1,24,26,-1,-1,-1,-1,-1,-1,-1,-1,-1,-1,-1,-1],"split_conditions":[7.840636E-1,4.9421328E-1,-5.4206574E-1,4.1216576E-1,3.394043E-1,-3.9740032E-1,-3.0049393E-1,3.504509E-1,3.7168875E-1,-1.0991042E0,6.7255336E-1,-2.7943836E-3,-4.731045E-2,6.388635E-1,9.1695416E-1,1.6544192E-3,-2.9645603E-2,4.2710636E-2,-1.8063365E-2,5.2279055E-2,-3.924366E-2,4.1519377E-2,-2.3201877E-2,5.8571506E-2,-2.6875572E-2,4.5846064E-2,-2.7474896E-3],"split_indices":[11,10,14,10,13,4,4,10,13,13,13,0,0,0,11,0,0,0,0,0,0,0,0,0,0,0,0],"split_type":[0,0,0,0,0,0,0,0,0,0,0,0,0,0,0,0,0,0,0,0,0,0,0,0,0,0,0],"sum_hessian":[4.7413672E2,4.0883145E2,6.5305244E1,3.5906357E2,4.9767895E1,4.952843E0,6.03524E1,3.449948E2,1.40687685E1,3.4478165E1,1.5289729E1,1.4958562E0,3.456987E0,1.2065355E1,4.828705E1,3.3088007E2,1.4114749E1,1.1596338E1,2.4724307E0,1.1920946E0,3.328607E1,5.7021084E0,9.587621E0,1.0327222E1,1.738134E0,6.702428E0,4.158462E1],"tree_param":{"num_deleted":"0","num_feature":"19","num_nodes":"27","size_leaf_vector":"1"}},{"base_weights":[-3.5661136E-4,3.6666796E-1,-1.1285716E-2,-3.7412465E-2,5.185985E-1,-3.1922698E-1,6.4242454E-3,-2.084711E-1,8.371676E-1,3.0475589E-2,-8.225583E-1,5.2514363E-2,8.032279E-4,5.572352E-2,-5.9326597E-2,-1.5575718E-3,6.059808E-2,-1.8709557E-2,5.8468334E-2,-6.298708E-2,3.6107775E-2,8.0645015E-4,-1.9798834E-2],"categories":[],"categories_nodes":[],"categories_segments":[],"categories_sizes":[],"default_left":[0,0,0,0,0,0,0,0,0,0,0,0,0,0,0,0,0,0,0,0,0,0,0],"id":30,"left_children":[1,3,5,-1,7,9,11,13,15,17,19,-1,21,-1,-1,-1,-1,-1,-1,-1,-1,-1,-1],"loss_changes":[1.9092906E0,2.4437628E0,2.5226552E0,0E0,3.0735886E0,4.4527607E0,2.204317E0,5.3341484E0,1.5942063E0,5.738224E0,4.5422697E0,0E0,1.9452689E0,0E0,0E0,0E0,0E0,0E0,0E0,0E0,0E0,0E0,0E0],"parents":[2147483647,0,0,1,1,2,2,4,4,5,5,6,6,7,7,8,8,9,9,10,10,12,12],"right_children":[2,4,6,-1,8,10,12,14,16,18,20,-1,22,-1,-1,-1,-1,-1,-1,-1,-1,-1,-1],"split_conditions":[-1.0991042E0,-4.4871858E-1,-8.7852925E-1,-3.7412465E-2,-1.2855628E0,2.9485503E-1,-8.654722E-1,-4.0730524E-1,-2.741423E-1,-8.082336E-2,1.5847304E0,5.2514363E-2,1.7111208E0,5.572352E-2,-5.9326597E-2,-1.5575718E-3,6.059808E-2,-1.8709557E-2,5.8468334E-2,-6.298708E-2,3.6107775E-2,8.0645015E-4,-1.9798834E-2],"split_indices":[13,12,13,0,13,5,13,4,4,10,12,0,5,0,0,0,0,0,0,0,0,0,0],"split_type":[0,0,0,0,0,0,0,0,0,0,0,0,0,0,0,0,0,0,0,0,0,0,0],"sum_hessian":[4.7395233E2,1.2763828E1,4.611885E2,1.2474681E0,1.151636E1,2.4155024E1,4.3703348E2,3.6139205E0,7.9024396E0,1.4806956E1,9.348068E0,1.7312956E0,4.353022E2,1.4081144E0,2.205806E0,1.673251E0,6.229189E0,1.1369192E1,3.437764E0,8.135931E0,1.2121367E0,4.2017725E2,1.5124935E1],"tree_param":{"num_deleted":"0","num_feature":"19","num_nodes":"23","size_leaf_vector":"1"}},{"base_weights":[-1.9517016E-4,4.564262E-3,-4.9033385E-2,6.0166574E-1,-1.6900967E-3,4.1098287E-3,5.046851E-2,-7.145187E-1,5.0104847E-3,1.2023075E-2,-6.6769734E-2,3.163205E-2,-1.4810817E-4],"categories":[],"categories_nodes":[],"categories_segments":[],"categories_sizes":[],"default_left":[0,0,0,0,0,0,0,0,0,0,0,0,0],"id":31,"left_children":[1,3,-1,5,7,-1,-1,9,11,-1,-1,-1,-1],"loss_changes":[1.9065522E0,1.7678769E0,0E0,6.2988126E-1,2.2447119E0,0E0,0E0,1.9794288E0,1.8957164E0,0E0,0E0,0E0,0E0],"parents":[2147483647,0,0,1,1,3,3,4,4,7,7,8,8],"right_children":[2,4,-1,6,8,-1,-1,10,12,-1,-1,-1,-1],"split_conditions":[1.5423286E0,-5.9652984E-1,-4.9033385E-2,-1.9619209E-1,-5.801399E-1,4.1098287E-3,5.046851E-2,-1.0720047E-1,-5.595969E-1,1.2023075E-2,-6.6769734E-2,3.163205E-2,-1.4810817E-4],"split_indices":[8,4,0,11,4,0,0,0,4,0,0,0,0],"split_type":[0,0,0,0,0,0,0,0,0,0,0,0,0],"sum_hessian":[4.7379398E2,4.7211987E2,1.6740948E0,3.9071398E0,4.6821274E2,1.7228906E0,2.1842492E0,3.3764849E0,4.6483624E2,1.2454442E0,2.1310406E0,5.451628E0,4.593846E2],"tree_param":{"num_deleted":"0","num_feature":"19","num_nodes":"13","size_leaf_vector":"1"}},{"base_weights":[-2.2400581E-4,2.8632772E-1,-1.3484099E-2,7.9389356E-2,3.829258E-3,-5.014076E-1,6.2747793E-3,7.953867E-1,-3.750488E-1,-6.8940026E-1,4.683971E-2,5.0623134E-2,8.5980986E-4,7.28569E-2,-6.624703E-4,4.3983916E-3,-5.2711442E-2,-2.4655964E-2,-8.089551E-2,-1.4930797E-3,9.9631315E-3],"categories":[],"categories_nodes":[],"categories_segments":[],"categories_sizes":[],"default_left":[0,0,0,0,0,0,0,0,0,0,0,0,0,0,0,0,0,0,0,0,0],"id":32,"left_children":[1,3,5,-1,7,9,11,13,15,17,-1,-1,19,-1,-1,-1,-1,-1,-1,-1,-1],"loss_changes":[1.8075681E0,6.397727E0,4.3864136E0,0E0,5.5980697E0,4.9018984E0,2.0463772E0,2.236569E0,3.0866275E0,2.3933253E0,0E0,0E0,1.9730028E0,0E0,0E0,0E0,0E0,0E0,0E0,0E0,0E0],"parents":[2147483647,0,0,1,1,2,2,4,4,5,5,6,6,7,7,8,8,9,9,12,12],"right_children":[2,4,6,-1,8,10,12,14,16,18,-1,-1,20,-1,-1,-1,-1,-1,-1,-1,-1],"split_conditions":[-9.9379647E-1,-7.688154E-1,-8.7852925E-1,7.9389356E-2,5.870569E-1,1.298161E0,-8.654722E-1,6.440121E-1,1.0878036E-1,4.3202427E-1,4.683971E-2,5.0623134E-2,7.840636E-1,7.28569E-2,-6.624703E-4,4.3983916E-3,-5.2711442E-2,-2.4655964E-2,-8.089551E-2,-1.4930797E-3,9.9631315E-3],"split_indices":[13,5,13,0,17,12,13,12,6,0,0,0,11,0,0,0,0,0,0,0,0],"split_type":[0,0,0,0,0,0,0,0,0,0,0,0,0,0,0,0,0,0,0,0,0],"sum_hessian":[4.73697E2,2.0039898E1,4.5365707E2,3.368358E0,1.667154E1,1.6707504E1,4.369496E2,5.040835E0,1.1630705E1,1.5017741E1,1.6897624E0,1.7291198E0,4.3522046E2,2.8684275E0,2.1724072E0,6.7516217E0,4.8790827E0,1.20468E1,2.970942E0,3.7733173E2,5.7888733E1],"tree_param":{"num_deleted":"0","num_feature":"19","num_nodes":"21","size_leaf_vector":"1"}},{"base_weights":[1.2238267E-5,4.597688E-3,-4.7963705E-2,-4.83443E-2,7.485287E-2,6.400624E-2,-1.8302456E-1,2.1801025E-1,-8.161E-2,-3.450953E-2,7.508859E-3,2.8731532E-2,-1.3813152E-2,-1.2858803E-2,1.986232E-2,-1.840076E-2,1.6835645E-2],"categories":[],"categories_nodes":[],"categories_segments":[],"categories_sizes":[],"default_left":[0,0,0,0,0,0,0,0,0,0,0,0,0,0,0,0,0],"id":33,"left_children":[1,3,-1,5,7,9,11,13,15,-1,-1,-1,-1,-1,-1,-1,-1],"loss_changes":[1.7965173E0,1.7626566E0,0E0,4.1017833E0,4.5787787E0,6.395597E0,4.63671E0,5.8368545E0,8.611773E0,0E0,0E0,0E0,0E0,0E0,0E0,0E0,0E0],"parents":[2147483647,0,0,1,1,3,3,4,4,5,5,6,6,7,7,8,8],"right_children":[2,4,-1,6,8,10,12,14,16,-1,-1,-1,-1,-1,-1,-1,-1],"split_conditions":[1.5423286E0,-1.1561084E-1,-4.7963705E-2,-4.7913244E-1,-6.690615E-3,-7.9930425E-1,-1.7947276E0,-5.4206574E-1,5.870569E-1,-3.450953E-2,7.508859E-3,2.8731532E-2,-1.3813152E-2,-1.2858803E-2,1.986232E-2,-1.840076E-2,1.6835645E-2],"split_indices":[8,13,0,13,4,12,7,14,17,0,0,0,0,0,0,0,0],"split_type":[0,0,0,0,0,0,0,0,0,0,0,0,0,0,0,0,0],"sum_hessian":[4.7356204E2,4.719297E2,1.6323348E0,2.693034E2,2.0262628E2,1.471093E2,1.22194115E2,1.0560683E2,9.701946E1,1.2511007E1,1.3459828E2,8.467044E0,1.1372707E2,2.2965734E1,8.264109E1,5.9527946E1,3.7491512E1],"tree_param":{"num_deleted":"0","num_feature":"19","num_nodes":"17","size_leaf_vector":"1"}},{"base_weights":[-1.019559E-4,3.7847465E-1,-1.0134971E-2,-3.713638E-2,1.0101538E0,-4.6711144E-4,-5.7168967E-1,3.7026057E-1,-6.669478E-2,1.1586844E-2,7.5257905E-2,3.2421744E-1,-2.2306345E-2,-1.032099E0,3.0762492E-2,4.9253516E-2,-1.1449323E-2,2.2961719E-2,-3.411374E-2,-6.1148915E-2,-7.34842E-4,3.01703E-3,-7.72379E-2],"categories":[],"categories_nodes":[],"categories_segments":[],"categories_sizes":[],"default_left":[0,0,0,0,0,0,0,0,0,0,0,0,0,0,0,0,0,0,0,0,0,0,0],"id":34,"left_children":[1,3,5,7,9,11,13,15,-1,-1,-1,17,19,21,-1,-1,-1,-1,-1,-1,-1,-1,-1],"loss_changes":[1.8051646E0,3.258829E0,2.5132675E0,4.20163E0,8.665533E-1,3.241695E0,4.5136356E0,2.019875E0,0E0,0E0,0E0,2.0712476E0,4.251122E0,1.9401908E0,0E0,0E0,0E0,0E0,0E0,0E0,0E0,0E0,0E0],"parents":[2147483647,0,0,1,1,2,2,3,3,4,4,5,5,6,6,7,7,11,11,12,12,13,13],"right_children":[2,4,6,8,10,12,14,16,-1,-1,-1,18,20,22,-1,-1,-1,-1,-1,-1,-1,-1,-1],"split_conditions":[-1.9420704E0,-2.5090723E0,2.8964612E0,-1.3949807E-1,-1.7309357E0,-1.7316126E0,1.3478211E0,1.9549276E0,-6.669478E-2,1.1586844E-2,7.5257905E-2,-1.710046E0,-1.6194375E0,-1.2326766E0,3.0762492E-2,4.9253516E-2,-1.1449323E-2,2.2961719E-2,-3.411374E-2,-6.1148915E-2,-7.34842E-4,3.01703E-3,-7.72379E-2],"split_indices":[11,10,12,3,1,6,13,4,0,0,0,7,2,11,0,0,0,0,0,0,0,0,0],"split_type":[0,0,0,0,0,0,0,0,0,0,0,0,0,0,0,0,0,0,0,0,0,0,0],"sum_hessian":[4.7325043E2,1.1270145E1,4.619803E2,7.36535E0,3.9047956E0,4.5514523E2,6.8350573E0,5.8727636E0,1.4925864E0,1.4488536E0,2.4559422E0,2.781236E1,4.2733286E2,4.8619647E0,1.9730922E0,2.9255733E0,2.94719E0,2.6347664E1,1.4646969E0,2.9855397E0,4.2434732E2,1.2149352E0,3.6470296E0],"tree_param":{"num_deleted":"0","num_feature":"19","num_nodes":"23","size_leaf_vector":"1"}},{"base_weights":[-2.1539847E-4,5.943113E-1,-6.4031915E-3,5.194728E-2,1.7253471E-3,-8.010943E-1,1.6172345E-3,3.165531E-2,-8.331335E-2,9.743025E-1,-8.644961E-3,1.1201315E-2,7.26353E-2,-3.7312668E-3,4.1794595E-3],"categories":[],"categories_nodes":[],"categories_segments":[],"categories_sizes":[],"default_left":[0,0,0,0,0,0,0,0,0,0,0,0,0,0,0],"id":35,"left_children":[1,3,5,-1,-1,7,9,-1,-1,11,13,-1,-1,-1,-1],"loss_changes":[1.7479196E0,7.9693806E-1,2.9982598E0,0E0,0E0,4.75943E0,4.665005E0,0E0,0E0,8.0255175E-1,2.067603E0,0E0,0E0,0E0,0E0],"parents":[2147483647,0,0,1,1,2,2,5,5,6,6,9,9,10,10],"right_children":[2,4,6,-1,-1,8,10,-1,-1,12,14,-1,-1,-1,-1],"split_conditions":[-3.7124736E0,2.7246683E0,-2.5090723E0,5.194728E-2,1.7253471E-3,6.1882335E-1,-1.9420704E0,3.165531E-2,-8.331335E-2,-1.7309357E0,-7.552779E-2,1.1201315E-2,7.26353E-2,-3.7312668E-3,4.1794595E-3],"split_indices":[11,4,10,0,0,4,11,0,0,1,13,0,0,0,0],"split_type":[0,0,0,0,0,0,0,0,0,0,0,0,0,0,0],"sum_hessian":[4.730976E2,3.8942065E0,4.692034E2,2.169466E0,1.7247405E0,3.70013E0,4.6550327E2,1.2239158E0,2.4762142E0,3.8791952E0,4.6162405E2,1.445969E0,2.4332263E0,2.7338E2,1.8824406E2],"tree_param":{"num_deleted":"0","num_feature":"19","num_nodes":"15","size_leaf_vector":"1"}},{"base_weights":[-1.7727181E-5,6.101051E-2,-5.909927E-2,5.8933634E-1,3.9855372E-2,-1.21353276E-1,1.2531005E-1,7.672936E-2,-7.903817E-2,-5.9716403E-1,6.1156478E-2,-3.842846E-2,-4.794807E-1,6.003777E-1,-2.08396E-2,-3.0281039E-2,5.001412E-2,-5.2366644E-2,3.0214725E-2,2.7637735E-3,5.6463383E-2,2.8005565E-2,-5.1896805E-3,-5.7059817E-2,-1.2872991E-2,2.6237667E-3,6.620816E-2,4.872809E-2,-8.730789E-3],"categories":[],"categories_nodes":[],"categories_segments":[],"categories_sizes":[],"default_left":[0,0,0,0,0,0,0,0,0,0,0,0,0,0,0,0,0,0,0,0,0,0,0,0,0,0,0,0,0],"id":36,"left_children":[1,3,5,7,9,11,13,-1,15,17,19,21,23,25,27,-1,-1,-1,-1,-1,-1,-1,-1,-1,-1,-1,-1,-1,-1],"loss_changes":[1.7127603E0,2.588104E0,2.7860775E0,4.4494867E0,3.0996122E0,5.3554482E0,4.276102E0,0E0,2.7627494E0,2.9624505E0,2.6816695E0,3.9418077E0,4.1723113E0,4.2653494E0,5.433814E0,0E0,0E0,0E0,0E0,0E0,0E0,0E0,0E0,0E0,0E0,0E0,0E0,0E0,0E0],"parents":[2147483647,0,0,1,1,2,2,3,3,4,4,5,5,6,6,8,8,9,9,10,10,11,11,12,12,13,13,14,14],"right_children":[2,4,6,8,10,12,14,-1,16,18,20,22,24,26,28,-1,-1,-1,-1,-1,-1,-1,-1,-1,-1,-1,-1,-1,-1],"split_conditions":[-2.5613355E-2,-9.9379647E-1,7.840636E-1,-7.688154E-1,-8.7852925E-1,5.2472985E-1,-3.0049393E-1,7.672936E-2,-7.6700844E-2,-1.4459375E-1,6.1653686E-1,-1.5030352E0,-4.903314E-1,-3.713436E-1,8.977133E-1,-3.0281039E-2,5.001412E-2,-5.2366644E-2,3.0214725E-2,2.7637735E-3,5.6463383E-2,2.8005565E-2,-5.1896805E-3,-5.7059817E-2,-1.2872991E-2,2.6237667E-3,6.620816E-2,4.872809E-2,-8.730789E-3],"split_indices":[5,13,11,5,13,11,4,0,16,10,10,7,13,12,11,0,0,0,0,0,0,0,0,0,0,0,0,0,0],"split_type":[0,0,0,0,0,0,0,0,0,0,0,0,0,0,0,0,0,0,0,0,0,0,0,0,0,0,0,0,0],"sum_hessian":[4.7302222E2,2.3266176E2,2.4036046E2,7.9234962E0,2.2473827E2,1.7995284E2,6.0407623E1,3.3260891E0,4.5974073E0,6.3970513E0,2.183412E2,1.4701796E2,3.293487E1,1.3480509E1,4.6927113E1,3.4301672E0,1.16724E0,5.18652E0,1.2105312E0,2.1613802E2,2.2031999E0,1.2320848E1,1.3469711E2,1.0261357E1,2.2673513E1,7.15886E0,6.3216486E0,5.4223714E0,4.150474E1],"tree_param":{"num_deleted":"0","num_feature":"19","num_nodes":"29","size_leaf_vector":"1"}},{"base_weights":[4.0592192E-4,4.800719E-3,-4.6757672E-2,5.744158E-1,-1.1234237E-3,3.5545435E-3,4.8426922E-2,-6.7282426E-1,5.135816E-3,1.2279644E-2,-6.392096E-2,3.0633906E-2,-1.2671163E-4],"categories":[],"categories_nodes":[],"categories_segments":[],"categories_sizes":[],"default_left":[0,0,0,0,0,0,0,0,0,0,0,0,0],"id":37,"left_children":[1,3,-1,5,7,-1,-1,9,11,-1,-1,-1,-1],"loss_changes":[1.6767504E0,1.5939186E0,0E0,5.915768E-1,1.9723111E0,0E0,0E0,1.8585632E0,1.7725906E0,0E0,0E0,0E0,0E0],"parents":[2147483647,0,0,1,1,3,3,4,4,7,7,8,8],"right_children":[2,4,-1,6,8,-1,-1,10,12,-1,-1,-1,-1],"split_conditions":[1.5423286E0,-5.9652984E-1,-4.6757672E-2,-1.9619209E-1,-5.801399E-1,3.5545435E-3,4.8426922E-2,-1.0720047E-1,-5.595969E-1,1.2279644E-2,-6.392096E-2,3.0633906E-2,-1.2671163E-4],"split_indices":[8,4,0,11,4,0,0,0,4,0,0,0,0],"split_type":[0,0,0,0,0,0,0,0,0,0,0,0,0],"sum_hessian":[4.7273648E2,4.7115353E2,1.5829383E0,3.861925E0,4.672916E2,1.7027192E0,2.159206E0,3.3310592E0,4.6396054E2,1.2454959E0,2.0855632E0,5.4391246E0,4.5852142E2],"tree_param":{"num_deleted":"0","num_feature":"19","num_nodes":"13","size_leaf_vector":"1"}},{"base_weights":[3.4601413E-4,5.732635E-1,-5.603566E-3,5.02669E-2,1.5651379E-3,-7.691869E-1,2.0924115E-3,3.0629668E-2,-8.008415E-2,9.3530446E-1,-7.6860427E-3,1.0195692E-2,7.014104E-2,-3.6178094E-3,3.784408E-3],"categories":[],"categories_nodes":[],"categories_segments":[],"categories_sizes":[],"default_left":[0,0,0,0,0,0,0,0,0,0,0,0,0,0,0],"id":38,"left_children":[1,3,5,-1,-1,7,9,-1,-1,11,13,-1,-1,-1,-1],"loss_changes":[1.6176476E0,7.499734E-1,2.7621381E0,0E0,0E0,4.407073E0,4.2602105E0,0E0,0E0,7.805724E-1,1.8335397E0,0E0,0E0,0E0,0E0],"parents":[2147483647,0,0,1,1,2,2,5,5,6,6,9,9,10,10],"right_children":[2,4,6,-1,-1,8,10,-1,-1,12,14,-1,-1,-1,-1],"split_conditions":[-3.7124736E0,2.7246683E0,-2.5090723E0,5.02669E-2,1.5651379E-3,6.1882335E-1,-1.9420704E0,3.0629668E-2,-8.008415E-2,-1.7309357E0,-1.1561084E-1,1.0195692E-2,7.014104E-2,-3.6178094E-3,3.784408E-3],"split_indices":[11,4,10,0,0,4,11,0,0,1,13,0,0,0,0],"split_type":[0,0,0,0,0,0,0,0,0,0,0,0,0,0,0],"sum_hessian":[4.726333E2,3.8776705E0,4.687556E2,2.153839E0,1.7238314E0,3.6900275E0,4.650656E2,1.2187698E0,2.4712577E0,3.8410745E0,4.6122452E2,1.4369135E0,2.404161E0,2.6376807E2,1.9745645E2],"tree_param":{"num_deleted":"0","num_feature":"19","num_nodes":"15","size_leaf_vector":"1"}},{"base_weights":[5.037568E-4,3.4399477E-1,-9.583687E-3,-3.5589706E-2,4.9052238E-1,-2.3536222E-1,1.0545069E-2,7.455858E-1,-2.5612605E-1,5.7292555E-2,-6.3938004E-1,3.3240482E-1,-1.618626E-2,1.2495602E-2,5.949917E-2,-4.2339988E-2,2.558172E-2,-1.652064E-2,4.753714E-2,-4.5230478E-2,3.3310276E-2,1.0683147E-2,7.9952456E-2,-1.7199082E-2,8.36305E-4],"categories":[],"categories_nodes":[],"categories_segments":[],"categories_sizes":[],"default_left":[0,0,0,0,0,0,0,0,0,0,0,0,0,0,0,0,0,0,0,0,0,0,0,0,0],"id":39,"left_children":[1,3,5,-1,7,9,11,13,15,17,19,21,23,-1,-1,-1,-1,-1,-1,-1,-1,-1,-1,-1,-1],"loss_changes":[1.6440862E0,2.1946921E0,2.0975735E0,0E0,2.531797E0,4.5034504E0,3.655296E0,1.1625943E0,1.5889168E0,6.1420226E0,3.1017365E0,4.7973948E0,3.3537025E0,0E0,0E0,0E0,0E0,0E0,0E0,0E0,0E0,0E0,0E0,0E0,0E0],"parents":[2147483647,0,0,1,1,2,2,4,4,5,5,6,6,7,7,8,8,9,9,10,10,11,11,12,12],"right_children":[2,4,6,-1,8,10,12,14,16,18,20,22,24,-1,-1,-1,-1,-1,-1,-1,-1,-1,-1,-1,-1],"split_conditions":[-1.0991042E0,-4.4871858E-1,-8.1023985E-1,-3.5589706E-2,1.0540974E0,2.9485503E-1,-6.795822E-1,-1.2398276E0,2.6427984E-2,-6.723185E-2,1.5847304E0,7.6702064E-1,-4.5859417E-1,1.2495602E-2,5.949917E-2,-4.2339988E-2,2.558172E-2,-1.652064E-2,4.753714E-2,-4.5230478E-2,3.3310276E-2,1.0683147E-2,7.9952456E-2,-1.7199082E-2,8.36305E-4],"split_indices":[13,12,13,0,12,5,13,13,14,10,12,10,4,0,0,0,0,0,0,0,0,0,0,0,0],"split_type":[0,0,0,0,0,0,0,0,0,0,0,0,0,0,0,0,0,0,0,0,0,0,0,0,0],"sum_hessian":[4.7253964E2,1.2536992E1,4.6000266E2,1.2454572E0,1.1291534E1,3.6778282E1,4.2322437E2,8.4174595E0,2.874075E0,2.182633E1,1.4951952E1,3.157762E1,3.9164676E2,3.489667E0,4.9277925E0,1.6862847E0,1.1877902E0,1.5492852E1,6.333479E0,1.3750185E1,1.2017674E0,2.8654415E1,2.9232035E0,3.7769947E1,3.538768E2],"tree_param":{"num_deleted":"0","num_feature":"19","num_nodes":"25","size_leaf_vector":"1"}},{"base_weights":[7.1919407E-4,4.9498617E-3,-4.5712482E-2,2.6923692E-1,-7.1751834E-3,7.4202456E-2,8.386054E-3,-6.704866E-1,5.2735903E-3,4.3303348E-2,-1.9912662E-2,-6.703626E-2,4.44819E-2,1.1824883E-3,-2.2359822E-2],"categories":[],"categories_nodes":[],"categories_segments":[],"categories_sizes":[],"default_left":[0,0,0,0,0,0,0,0,0,0,0,0,0,0,0],"id":40,"left_children":[1,3,-1,5,7,-1,9,11,13,-1,-1,-1,-1,-1,-1],"loss_changes":[1.5775326E0,1.5137111E0,0E0,5.422702E0,3.7362857E0,0E0,4.753079E0,6.6301866E0,2.6112313E0,0E0,0E0,0E0,0E0,0E0,0E0],"parents":[2147483647,0,0,1,1,3,3,4,4,6,6,7,7,8,8],"right_children":[2,4,-1,6,8,-1,10,12,14,-1,-1,-1,-1,-1,-1],"split_conditions":[1.5423286E0,-9.9379647E-1,-4.5712482E-2,-7.688154E-1,-9.407184E-1,7.4202456E-2,5.870569E-1,-3.7580723E-1,1.7111208E0,4.3303348E-2,-1.9912662E-2,-6.703626E-2,4.44819E-2,1.1824883E-3,-2.2359822E-2],"split_indices":[8,13,0,5,13,0,17,4,5,0,0,0,0,0,0],"split_type":[0,0,0,0,0,0,0,0,0,0,0,0,0,0,0],"sum_hessian":[4.723094E2,4.7076877E2,1.5406301E0,1.9720486E1,4.5104828E2,3.2623188E0,1.6458166E1,7.335383E0,4.437129E2,4.949048E0,1.1509118E1,5.641418E0,1.6939651E0,4.2812537E2,1.558752E1],"tree_param":{"num_deleted":"0","num_feature":"19","num_nodes":"15","size_leaf_vector":"1"}},{"base_weights":[6.974243E-4,4.781942E-3,-4.4800147E-2,5.517404E-1,-9.076238E-4,4.8450056E-2,1.2434121E-3,-7.405708E-1,6.5393797E-3,2.955536E-2,-7.7126354E-2,5.2485652E-2,-1.6362425E-4],"categories":[],"categories_nodes":[],"categories_segments":[],"categories_sizes":[],"default_left":[0,0,0,0,0,0,0,0,0,0,0,0,0],"id":41,"left_children":[1,3,-1,5,7,-1,-1,9,11,-1,-1,-1,-1],"loss_changes":[1.4920015E0,1.4681257E0,0E0,7.046335E-1,2.5813468E0,0E0,0E0,4.0784254E0,3.8857722E0,0E0,0E0,0E0,0E0],"parents":[2147483647,0,0,1,1,3,3,4,4,7,7,8,8],"right_children":[2,4,-1,6,8,-1,-1,10,12,-1,-1,-1,-1],"split_conditions":[1.5423286E0,-3.7124736E0,-4.4800147E-2,-2.5966878E0,-2.5090723E0,4.8450056E-2,1.2434121E-3,6.1882335E-1,-1.9420704E0,2.955536E-2,-7.7126354E-2,5.2485652E-2,-1.6362425E-4],"split_indices":[8,11,0,0,10,0,0,4,11,0,0,0,0],"split_type":[0,0,0,0,0,0,0,0,0,0,0,0,0],"sum_hessian":[4.7211047E2,4.706085E2,1.5019927E0,3.8568976E0,4.667516E2,2.1507192E0,1.7061783E0,3.6711812E0,4.630804E2,1.2121077E0,2.4590735E0,3.8013434E0,4.5927905E2],"tree_param":{"num_deleted":"0","num_feature":"19","num_nodes":"13","size_leaf_vector":"1"}},{"base_weights":[6.7773927E-4,5.517244E-1,-4.9842712E-3,3.2660195E-3,4.6646416E-2,-6.622887E-1,1.3277129E-3,1.268255E-2,-6.2288452E-2,4.640818E-2,-3.3486376E-3,-1.6310628E-3,8.546295E-3],"categories":[],"categories_nodes":[],"categories_segments":[],"categories_sizes":[],"default_left":[0,0,0,0,0,0,0,0,0,0,0,0,0],"id":42,"left_children":[1,3,5,-1,-1,7,9,-1,-1,-1,11,-1,-1],"loss_changes":[1.4784795E0,5.509577E-1,1.9473997E0,0E0,0E0,1.8345293E0,1.7356986E0,0E0,0E0,0E0,1.7224026E0,0E0,0E0],"parents":[2147483647,0,0,1,1,2,2,5,5,6,6,10,10],"right_children":[2,4,6,-1,-1,8,10,-1,-1,-1,12,-1,-1],"split_conditions":[-5.9652984E-1,-1.9619209E-1,-5.801399E-1,3.2660195E-3,4.6646416E-2,-1.0720047E-1,-5.7335687E-1,1.268255E-2,-6.2288452E-2,4.640818E-2,7.840636E-1,-1.6310628E-3,8.546295E-3],"split_indices":[4,11,4,0,0,0,4,0,0,0,11,0,0],"split_type":[0,0,0,0,0,0,0,0,0,0,0,0,0],"sum_hessian":[4.719854E2,3.8194556E0,4.6816595E2,1.6889238E0,2.1305318E0,3.4644701E0,4.647015E2,1.2439011E0,2.2205691E0,1.7248719E0,4.6297662E2,3.9834576E2,6.463087E1],"tree_param":{"num_deleted":"0","num_feature":"19","num_nodes":"13","size_leaf_vector":"1"}},{"base_weights":[7.5067545E-4,1.3229929E-1,-2.2933198E-2,6.753414E-2,5.729506E-2,-4.752346E-1,-4.4133104E-4,3.540154E-1,-1.2773241E-1,3.3834316E-2,-5.8093655E-1,1.8888722E-1,-5.153027E-2,-4.3266524E-2,2.7065478E-2,4.432097E-2,-1.2678705E-2,-1.8004587E-2,-5.606591E-2,2.787841E-2,-2.1327182E-3,-7.119925E-2,-2.208826E-3],"categories":[],"categories_nodes":[],"categories_segments":[],"categories_sizes":[],"default_left":[0,0,0,0,0,0,0,0,0,0,0,0,0,0,0,0,0,0,0,0,0,0,0],"id":43,"left_children":[1,3,5,7,-1,9,11,13,15,-1,17,19,21,-1,-1,-1,-1,-1,-1,-1,-1,-1,-1],"loss_changes":[1.476436E0,3.9221213E0,4.0854483E0,3.8639922E0,0E0,2.4618635E0,3.7200382E0,3.743233E0,3.4738944E0,0E0,1.549192E0,5.3616424E0,4.7754645E0,0E0,0E0,0E0,0E0,0E0,0E0,0E0,0E0,0E0,0E0],"parents":[2147483647,0,0,1,1,2,2,3,3,5,5,6,6,7,7,8,8,10,10,11,11,12,12],"right_children":[2,4,6,8,-1,10,12,14,16,-1,18,20,22,-1,-1,-1,-1,-1,-1,-1,-1,-1,-1],"split_conditions":[-6.7011243E-1,-1.8817833E-1,-1.292854E0,-1.19471386E-1,5.729506E-2,-9.5582366E-1,-4.494673E-1,-5.214057E-1,-5.59113E-1,3.3834316E-2,7.053676E-1,4.4203576E-2,-6.008511E-1,-4.3266524E-2,2.7065478E-2,4.432097E-2,-1.2678705E-2,-1.8004587E-2,-5.606591E-2,2.787841E-2,-2.1327182E-3,-7.119925E-2,-2.208826E-3],"split_indices":[10,5,5,4,0,12,5,4,13,0,0,0,10,0,0,0,0,0,0,0,0,0,0],"split_type":[0,0,0,0,0,0,0,0,0,0,0,0,0,0,0,0,0,0,0,0,0,0,0],"sum_hessian":[4.7191406E2,7.130039E1,4.0061368E2,6.726527E1,4.035129E0,1.8024279E1,3.825894E2,2.6935062E1,4.0330204E1,1.2303592E0,1.679392E1,8.072744E1,3.0186197E2,1.9484229E0,2.4986639E1,3.0233867E0,3.7306816E1,1.0871898E1,5.922023E0,3.482694E1,4.5900497E1,2.4417906E0,2.9942017E2],"tree_param":{"num_deleted":"0","num_feature":"19","num_nodes":"23","size_leaf_vector":"1"}},{"base_weights":[6.852933E-4,-6.9165467E-3,3.9754462E-1,1.7816437E-2,-3.066224E-1,-2.3058932E-2,6.839497E-1,-2.2313664E-2,2.5709322E-1,-7.194613E-1,1.6116996E-1,-8.754025E-3,1.0480455E0,3.013693E-3,-7.6693785E-3,5.5493053E-2,9.9156685E-3,-5.8876414E-2,-1.2267795E-3,-4.613567E-2,2.3871401E-2,7.564981E-2,9.631354E-3],"categories":[],"categories_nodes":[],"categories_segments":[],"categories_sizes":[],"default_left":[0,0,0,0,0,0,0,0,0,0,0,0,0,0,0,0,0,0,0,0,0,0,0],"id":44,"left_children":[1,3,5,7,9,-1,11,13,15,17,19,-1,21,-1,-1,-1,-1,-1,-1,-1,-1,-1,-1],"loss_changes":[1.4287269E0,3.4506128E0,2.2939906E0,4.137397E0,6.969047E0,0E0,2.255774E0,3.0008714E0,3.5755076E0,3.857398E0,4.4663415E0,0E0,8.795047E-1,0E0,0E0,0E0,0E0,0E0,0E0,0E0,0E0,0E0,0E0],"parents":[2147483647,0,0,1,1,2,2,3,3,4,4,6,6,7,7,8,8,9,9,10,10,12,12],"right_children":[2,4,6,8,10,-1,12,14,16,18,20,-1,22,-1,-1,-1,-1,-1,-1,-1,-1,-1,-1],"split_conditions":[3.3348002E0,1.0156513E0,-6.159861E-1,3.6596465E-1,5.870569E-1,-2.3058932E-2,-8.7254155E-1,5.870569E-1,3.9253366E-1,4.7107148E-1,1.1695744E0,-8.754025E-3,1.0274445E0,3.013693E-3,-7.6693785E-3,5.5493053E-2,9.9156685E-3,-5.8876414E-2,-1.2267795E-3,-4.613567E-2,2.3871401E-2,7.564981E-2,9.631354E-3],"split_indices":[13,13,10,13,17,0,16,17,13,12,13,0,5,0,0,0,0,0,0,0,0,0,0],"split_type":[0,0,0,0,0,0,0,0,0,0,0,0,0,0,0,0,0,0,0,0,0,0,0],"sum_hessian":[4.7166916E2,4.6376825E2,7.9009085E0,4.292826E2,3.4485653E1,1.9936936E0,5.9072146E0,3.6840295E2,6.087964E1,1.8033035E1,1.6452618E1,1.9730648E0,3.9341502E0,2.1999081E2,1.4841216E2,5.6421976E0,5.5237442E1,1.2402936E1,5.6300983E0,2.952797E0,1.349982E1,2.6947107E0,1.2394392E0],"tree_param":{"num_deleted":"0","num_feature":"19","num_nodes":"23","size_leaf_vector":"1"}},{"base_weights":[7.130493E-4,2.6212454E-1,-1.1181465E-2,7.1687944E-2,1.3315614E-2,-4.453825E-1,6.2373634E-3,8.562512E-1,-2.6185906E-1,-1.2856831E-2,-9.8403996E-1,4.878455E-2,1.0121148E-3,2.8445981E-3,6.598723E-2,7.05356E-3,-4.7578685E-2,-3.665081E-2,4.2591378E-2,-7.528001E-2,-1.7295931E-3,7.5544394E-4,-1.8116387E-2],"categories":[],"categories_nodes":[],"categories_segments":[],"categories_sizes":[],"default_left":[0,0,0,0,0,0,0,0,0,0,0,0,0,0,0,0,0,0,0,0,0,0,0],"id":45,"left_children":[1,3,5,-1,7,9,11,13,15,17,19,-1,21,-1,-1,-1,-1,-1,-1,-1,-1,-1,-1],"loss_changes":[1.471906E0,4.951539E0,3.4276874E0,0E0,4.2611976E0,4.0597734E0,1.8954418E0,9.554677E-1,3.0527754E0,5.3759565E0,2.253034E0,0E0,1.6272547E0,0E0,0E0,0E0,0E0,0E0,0E0,0E0,0E0,0E0,0E0],"parents":[2147483647,0,0,1,1,2,2,4,4,5,5,6,6,7,7,8,8,9,9,10,10,12,12],"right_children":[2,4,6,-1,8,10,12,14,16,18,20,-1,22,-1,-1,-1,-1,-1,-1,-1,-1,-1,-1],"split_conditions":[-9.9379647E-1,-7.688154E-1,-8.7852925E-1,7.1687944E-2,-1.8744256E-1,6.522029E-2,-8.654722E-1,5.4284954E-1,1.0878036E-1,-4.4357124E-1,-9.162327E-1,4.878455E-2,1.7111208E0,2.8445981E-3,6.598723E-2,7.05356E-3,-4.7578685E-2,-3.665081E-2,4.2591378E-2,-7.528001E-2,-1.7295931E-3,7.5544394E-4,-1.8116387E-2],"split_indices":[13,5,13,0,17,6,13,0,6,4,13,0,5,0,0,0,0,0,0,0,0,0,0],"split_type":[0,0,0,0,0,0,0,0,0,0,0,0,0,0,0,0,0,0,0,0,0,0,0],"sum_hessian":[4.7143597E2,1.9601736E1,4.5183426E2,3.1975462E0,1.640419E1,1.6479479E1,4.3535477E2,3.5174897E0,1.2886701E1,9.708064E0,6.771414E0,1.7231765E0,4.336316E2,1.1994495E0,2.3180401E0,8.089456E0,4.797245E0,5.394043E0,4.314021E0,4.84724E0,1.924174E0,4.1855026E2,1.5081324E1],"tree_param":{"num_deleted":"0","num_feature":"19","num_nodes":"23","size_leaf_vector":"1"}},{"base_weights":[8.0225524E-4,3.232397E-1,-8.511417E-3,-3.3528794E-2,4.6369484E-1,-2.179768E-1,1.00129135E-2,7.069373E-1,-2.4688607E-1,4.8628725E-2,-5.858367E-1,3.1615424E-1,-1.5388603E-2,1.2329523E-2,5.626808E-2,-3.9107814E-2,2.2640329E-2,-1.60088E-2,4.482774E-2,-4.4019907E-3,-5.3539563E-2,5.9989584E-3,5.8101926E-2,-1.602513E-2,7.583314E-4],"categories":[],"categories_nodes":[],"categories_segments":[],"categories_sizes":[],"default_left":[0,0,0,0,0,0,0,0,0,0,0,0,0,0,0,0,0,0,0,0,0,0,0,0,0],"id":46,"left_children":[1,3,5,-1,7,9,11,13,15,17,19,21,23,-1,-1,-1,-1,-1,-1,-1,-1,-1,-1,-1,-1],"loss_changes":[1.4207906E0,1.9444094E0,1.786741E0,0E0,2.2558522E0,3.6976342E0,3.2982023E0,9.813924E-1,1.2907783E0,5.490426E0,2.620645E0,4.6185656E0,2.8979824E0,0E0,0E0,0E0,0E0,0E0,0E0,0E0,0E0,0E0,0E0,0E0,0E0],"parents":[2147483647,0,0,1,1,2,2,4,4,5,5,6,6,7,7,8,8,9,9,10,10,11,11,12,12],"right_children":[2,4,6,-1,8,10,12,14,16,18,20,22,24,-1,-1,-1,-1,-1,-1,-1,-1,-1,-1,-1,-1],"split_conditions":[-1.0991042E0,-4.4871858E-1,-8.1023985E-1,-3.3528794E-2,1.0540974E0,2.9485503E-1,-6.795822E-1,-1.2398276E0,2.6427984E-2,-6.723185E-2,-4.4871858E-1,6.994528E-1,-4.5859417E-1,1.2329523E-2,5.626808E-2,-3.9107814E-2,2.2640329E-2,-1.60088E-2,4.482774E-2,-4.4019907E-3,-5.3539563E-2,5.9989584E-3,5.8101926E-2,-1.602513E-2,7.583314E-4],"split_indices":[13,12,13,0,12,5,13,13,14,10,12,5,4,0,0,0,0,0,0,0,0,0,0,0,0],"split_type":[0,0,0,0,0,0,0,0,0,0,0,0,0,0,0,0,0,0,0,0,0,0,0,0,0],"sum_hessian":[4.7119553E2,1.2282203E1,4.589133E2,1.2405593E0,1.1041644E1,3.641221E1,4.225011E2,8.229642E0,2.8120015E0,2.1614767E1,1.4797442E1,3.1493414E1,3.910077E2,3.4544816E0,4.775161E0,1.65172E0,1.1602815E0,1.5348226E1,6.2665415E0,6.336728E0,8.460714E0,2.487054E1,6.6228724E0,3.7683624E1,3.5332407E2],"tree_param":{"num_deleted":"0","num_feature":"19","num_nodes":"25","size_leaf_vector":"1"}},{"base_weights":[8.4273145E-4,5.342014E-1,-4.5980415E-3,3.2130152E-3,4.5133606E-2,-6.2450755E-1,1.2809116E-3,1.2972592E-2,-5.9906695E-2,5.0856036E-1,-5.8096475E-3,6.339392E-2,-4.9343303E-2,-5.6882944E-2,3.128747E-5],"categories":[],"categories_nodes":[],"categories_segments":[],"categories_sizes":[],"default_left":[0,0,0,0,0,0,0,0,0,0,0,0,0,0,0],"id":47,"left_children":[1,3,5,-1,-1,7,9,-1,-1,11,13,-1,-1,-1,-1],"loss_changes":[1.3720397E0,5.084131E-1,1.7070776E0,0E0,0E0,1.7372863E0,1.674751E0,0E0,0E0,5.9735637E0,2.8322222E0,0E0,0E0,0E0,0E0],"parents":[2147483647,0,0,1,1,2,2,5,5,6,6,9,9,10,10],"right_children":[2,4,6,-1,-1,8,10,-1,-1,12,14,-1,-1,-1,-1],"split_conditions":[-5.9652984E-1,-1.9619209E-1,-5.801399E-1,3.2130152E-3,4.5133606E-2,-1.0720047E-1,-5.595969E-1,1.2972592E-2,-5.9906695E-2,2.0139182E-1,-5.558601E-1,6.339392E-2,-4.9343303E-2,-5.6882944E-2,3.128747E-5],"split_indices":[4,11,4,0,0,0,4,0,0,10,4,0,0,0,0],"split_type":[0,0,0,0,0,0,0,0,0,0,0,0,0,0,0],"sum_hessian":[4.7096365E2,3.774402E0,4.6718924E2,1.674759E0,2.0996428E0,3.4004383E0,4.6378882E2,1.2437787E0,2.1566596E0,5.41838E0,4.5837042E2,3.9326065E0,1.4857731E0,1.9831337E0,4.563873E2],"tree_param":{"num_deleted":"0","num_feature":"19","num_nodes":"15","size_leaf_vector":"1"}},{"base_weights":[7.057681E-4,5.273974E-1,-4.724774E-3,4.7336996E-2,3.7421045E-4,6.3370005E-3,-4.9192932E-1,3.8347143E-1,-9.5033515E-3,-7.895622E-1,3.0425096E-2,3.528677E-2,-3.4815993E-2,-1.2488598E-3,2.7969077E-2,1.079502E-2,-6.361327E-2],"categories":[],"categories_nodes":[],"categories_segments":[],"categories_sizes":[],"default_left":[0,0,0,0,0,0,0,0,0,0,0,0,0,0,0,0,0],"id":48,"left_children":[1,3,5,-1,-1,7,9,11,13,15,-1,-1,-1,-1,-1,-1,-1],"loss_changes":[1.3521421E0,7.127601E-1,2.5255723E0,0E0,0E0,2.7435398E0,3.553976E0,4.406952E0,2.5921564E0,2.6969624E0,0E0,0E0,0E0,0E0,0E0,0E0,0E0],"parents":[2147483647,0,0,1,1,2,2,5,5,6,6,7,7,8,8,9,9],"right_children":[2,4,6,-1,-1,8,10,12,14,16,-1,-1,-1,-1,-1,-1,-1],"split_conditions":[-3.7124736E0,2.7246683E0,2.8964612E0,4.7336996E-2,3.7421045E-4,-1.8376613E0,1.3478211E0,1.1536794E0,1.9501575E0,-6.091512E-1,3.0425096E-2,3.528677E-2,-3.4815993E-2,-1.2488598E-3,2.7969077E-2,1.079502E-2,-6.361327E-2],"split_indices":[11,4,12,0,0,0,13,10,11,13,0,0,0,0,0,0,0],"split_type":[0,0,0,0,0,0,0,0,0,0,0,0,0,0,0,0,0],"sum_hessian":[4.708692E2,3.824513E0,4.6704468E2,2.1079905E0,1.7165225E0,4.576411E2,9.403557E0,1.7511469E1,4.4012967E2,7.4419847E0,1.9615718E0,1.4585685E1,2.9257839E0,4.3058533E2,9.544326E0,1.8567435E0,5.5852413E0],"tree_param":{"num_deleted":"0","num_feature":"19","num_nodes":"17","size_leaf_vector":"1"}},{"base_weights":[7.8098325E-4,4.6149106E-3,-4.315893E-2,-2.59603E-3,3.7998155E-1,2.0151475E-2,-2.815863E-1,-2.2319378E-2,6.572073E-1,-1.0135463E-3,1.4164942E-2,-3.9240025E-2,8.815861E-3,-8.421902E-3,5.8792934E-2],"categories":[],"categories_nodes":[],"categories_segments":[],"categories_sizes":[],"default_left":[0,0,0,0,0,0,0,0,0,0,0,0,0,0,0],"id":49,"left_children":[1,3,-1,5,7,9,11,-1,13,-1,-1,-1,-1,-1,-1],"loss_changes":[1.3455201E0,1.2739631E0,0E0,2.9403875E0,2.12922E0,3.5956244E0,6.036773E0,0E0,2.0902877E0,0E0,0E0,0E0,0E0,0E0,0E0],"parents":[2147483647,0,0,1,1,3,3,4,4,5,5,6,6,8,8],"right_children":[2,4,-1,6,8,10,12,-1,14,-1,-1,-1,-1,-1,-1],"split_conditions":[1.5423286E0,3.3348002E0,-4.315893E-2,1.0156513E0,-6.159861E-1,3.6596465E-1,5.870569E-1,-2.2319378E-2,-8.7254155E-1,-1.0135463E-3,1.4164942E-2,-3.9240025E-2,8.815861E-3,-8.421902E-3,5.8792934E-2],"split_indices":[8,13,0,13,10,13,17,0,16,0,0,0,0,0,0],"split_type":[0,0,0,0,0,0,0,0,0,0,0,0,0,0,0],"sum_hessian":[4.7072852E2,4.6929767E2,1.4308386E0,4.6142657E2,7.871102E0,4.2749823E2,3.3928352E1,1.9950161E0,5.8760853E0,3.6669714E2,6.0801067E1,1.750684E1,1.6421513E1,1.9748919E0,3.9011936E0],"tree_param":{"num_deleted":"0","num_feature":"19","num_nodes":"15","size_leaf_vector":"1"}},{"base_weights":[6.655728E-4,2.4958009E-1,-1.0521715E-2,6.958489E-2,8.445491E-3,-4.155319E-1,5.6130867E-3,8.144213E-1,-2.519493E-1,1.02737E-3,-9.393062E-1,2.5085944E-1,-1.2927447E-2,2.5180369E-3,6.312194E-2,6.3024526E-3,-4.5103505E-2,-3.433228E-2,4.148871E-2,-7.176326E-2,-2.0969184E-3,2.4146445E-2,-6.663135E-2,-2.7675098E-2,1.0991545E-3],"categories":[],"categories_nodes":[],"categories_segments":[],"categories_sizes":[],"default_left":[0,0,0,0,0,0,0,0,0,0,0,0,0,0,0,0,0,0,0,0,0,0,0,0,0],"id":50,"left_children":[1,3,5,-1,7,9,11,13,15,17,19,21,23,-1,-1,-1,-1,-1,-1,-1,-1,-1,-1,-1,-1],"loss_changes":[1.315689E0,4.6235986E0,2.9574142E0,0E0,3.814893E0,3.783883E0,1.98515E0,8.7596726E-1,2.6754048E0,4.89959E0,1.9907494E0,7.491081E0,5.983128E0,0E0,0E0,0E0,0E0,0E0,0E0,0E0,0E0,0E0,0E0,0E0,0E0],"parents":[2147483647,0,0,1,1,2,2,4,4,5,5,6,6,7,7,8,8,9,9,10,10,11,11,12,12],"right_children":[2,4,6,-1,8,10,12,14,16,18,20,22,24,-1,-1,-1,-1,-1,-1,-1,-1,-1,-1,-1,-1],"split_conditions":[-9.9379647E-1,-7.688154E-1,-8.7852925E-1,6.958489E-2,-1.8744256E-1,6.522029E-2,-5.1175624E-1,5.4284954E-1,1.0878036E-1,-4.4357124E-1,-9.162327E-1,-1.1734319E-1,-4.6587387E-1,2.5180369E-3,6.312194E-2,6.3024526E-3,-4.5103505E-2,-3.433228E-2,4.148871E-2,-7.176326E-2,-2.0969184E-3,2.4146445E-2,-6.663135E-2,-2.7675098E-2,1.0991545E-3],"split_indices":[13,5,13,0,17,6,4,0,6,4,13,12,4,0,0,0,0,0,0,0,0,0,0,0,0],"split_type":[0,0,0,0,0,0,0,0,0,0,0,0,0,0,0,0,0,0,0,0,0,0,0,0,0],"sum_hessian":[4.7053134E2,1.9321575E1,4.5120975E2,3.1220362E0,1.6199537E1,1.6338274E1,4.348715E2,3.4361873E0,1.27633505E1,9.656483E0,6.6817913E0,2.9684685E1,4.051868E2,1.1911905E0,2.2449968E0,8.025957E0,4.7373934E0,5.3699384E0,4.2865443E0,4.768804E0,1.9129872E0,2.7193586E1,2.491098E0,2.5178856E1,3.8000793E2],"tree_param":{"num_deleted":"0","num_feature":"19","num_nodes":"25","size_leaf_vector":"1"}},{"base_weights":[5.4432516E-4,1.2400078E-1,-2.1632427E-2,4.5243102E-1,-2.7496615E-2,-4.5406422E-1,-1.1535787E-4,-4.022567E-2,5.913251E-1,-4.8566046E-1,1.6310255E-1,3.165718E-2,-5.5296063E-1,1.7706378E-1,-4.7881324E-2,5.0509807E-2,3.761776E-3,-7.748578E-4,-5.8412362E-2,-9.7330725E-3,2.9500935E-2,-1.727687E-2,-5.32188E-2,2.6324878E-2,-2.1119544E-3,-6.775975E-2,-2.033466E-3],"categories":[],"categories_nodes":[],"categories_segments":[],"categories_sizes":[],"default_left":[0,0,0,0,0,0,0,0,0,0,0,0,0,0,0,0,0,0,0,0,0,0,0,0,0,0,0],"id":51,"left_children":[1,3,5,7,9,11,13,-1,15,17,19,-1,21,23,25,-1,-1,-1,-1,-1,-1,-1,-1,-1,-1,-1,-1],"loss_changes":[1.2928885E0,3.590366E0,3.724946E0,4.022387E0,4.458799E0,2.173171E0,3.2444508E0,0E0,2.9746246E0,3.6506543E0,4.1890783E0,0E0,1.3720117E0,4.793876E0,4.324663E0,0E0,0E0,0E0,0E0,0E0,0E0,0E0,0E0,0E0,0E0,0E0,0E0],"parents":[2147483647,0,0,1,1,2,2,3,3,4,4,5,5,6,6,8,8,9,9,10,10,12,12,13,13,14,14],"right_children":[2,4,6,8,10,12,14,-1,16,18,20,-1,22,24,26,-1,-1,-1,-1,-1,-1,-1,-1,-1,-1,-1,-1],"split_conditions":[-6.7011243E-1,-3.2699442E-1,-1.292854E0,-5.214057E-1,-1.9967204E-3,-9.5582366E-1,-4.494673E-1,-4.022567E-2,6.440121E-1,-1.1294074E0,-1.4710155E0,3.165718E-2,7.053676E-1,4.4203576E-2,-6.008511E-1,5.0509807E-2,3.761776E-3,-7.748578E-4,-5.8412362E-2,-9.7330725E-3,2.9500935E-2,-1.727687E-2,-5.32188E-2,2.6324878E-2,-2.1119544E-3,-6.775975E-2,-2.033466E-3],"split_indices":[10,13,5,4,13,12,5,0,12,5,5,0,0,0,10,0,0,0,0,0,0,0,0,0,0,0,0],"split_type":[0,0,0,0,0,0,0,0,0,0,0,0,0,0,0,0,0,0,0,0,0,0,0,0,0,0,0],"sum_hessian":[4.7024564E2,7.090894E1,3.993367E2,2.1756584E1,4.915236E1,1.797561E1,3.8136108E2,1.9261935E0,1.983039E1,1.3985596E1,3.5166763E1,1.2153499E0,1.676026E1,8.040532E1,3.0095575E2,1.2583835E1,7.246557E0,7.848916E0,6.1366796E0,1.819292E1,1.697384E1,1.08698845E1,5.8903756E0,3.463088E1,4.577444E1,2.4341025E0,2.9852167E2],"tree_param":{"num_deleted":"0","num_feature":"19","num_nodes":"27","size_leaf_vector":"1"}},{"base_weights":[2.8902938E-4,-1.888097E-2,1.4696993E-1,2.4805592E-2,-2.8151664E-1,8.812996E-1,-2.2367039E-3,6.7219543E-3,6.362728E-1,-4.9475133E-1,1.1520493E-1,1.9897382E-1,7.269134E-2,-2.702049E-1,4.3756378E-1,4.085964E-3,-7.460797E-3,4.896754E-2,-2.1010417E-2,1.3398089E-2,-3.860131E-2,-3.3443265E-2,2.2388749E-2,5.018985E-2,-3.135863E-2,-2.9224253E-3,-4.4124693E-2,3.9784927E-2,-3.0166266E-2],"categories":[],"categories_nodes":[],"categories_segments":[],"categories_sizes":[],"default_left":[0,0,0,0,0,0,0,0,0,0,0,0,0,0,0,0,0,0,0,0,0,0,0,0,0,0,0,0,0],"id":52,"left_children":[1,3,5,7,9,11,13,15,17,19,21,23,-1,25,27,-1,-1,-1,-1,-1,-1,-1,-1,-1,-1,-1,-1,-1,-1],"loss_changes":[1.3271377E0,4.796499E0,5.9792295E0,3.9634147E0,5.100048E0,2.060717E0,5.579319E0,3.0004117E0,2.4061036E0,4.9048204E0,4.2425914E0,2.6231158E0,0E0,3.117727E0,4.564705E0,0E0,0E0,0E0,0E0,0E0,0E0,0E0,0E0,0E0,0E0,0E0,0E0,0E0,0E0],"parents":[2147483647,0,0,1,1,2,2,3,3,4,4,5,5,6,6,7,7,8,8,9,9,10,10,11,11,13,13,14,14],"right_children":[2,4,6,8,10,12,14,16,18,20,22,24,-1,26,28,-1,-1,-1,-1,-1,-1,-1,-1,-1,-1,-1,-1,-1,-1],"split_conditions":[8.948686E-1,4.9421328E-1,-3.0049393E-1,4.3939963E-1,-1.516742E-1,-4.6626464E-1,5.582028E-1,-1.2708218E-1,2.732033E-1,-4.5189157E-1,-2.64838E-1,-5.00311E-1,7.269134E-2,1.5986325E0,1.3129451E0,4.085964E-3,-7.460797E-3,4.896754E-2,-2.1010417E-2,1.3398089E-2,-3.860131E-2,-3.3443265E-2,2.2388749E-2,5.018985E-2,-3.135863E-2,-2.9224253E-3,-4.4124693E-2,3.9784927E-2,-3.0166266E-2],"split_indices":[10,10,4,10,4,14,3,4,0,4,13,13,0,5,0,0,0,0,0,0,0,0,0,0,0,0,0,0,0],"split_type":[0,0,0,0,0,0,0,0,0,0,0,0,0,0,0,0,0,0,0,0,0,0,0,0,0,0,0,0,0],"sum_hessian":[4.699896E2,4.1643607E2,5.3553524E1,3.5782187E2,5.861419E1,8.215223E0,4.5338303E1,3.485255E2,9.296362E0,3.7962532E1,2.0651659E1,3.413973E0,4.80125E0,2.8412394E1,1.6925907E1,2.3733434E2,1.11191185E2,7.842269E0,1.4540927E0,7.0826774E0,3.0879854E1,5.482253E0,1.5169405E1,1.7089189E0,1.7050542E0,2.0339453E1,8.072941E0,1.3690147E1,3.2357607E0],"tree_param":{"num_deleted":"0","num_feature":"19","num_nodes":"29","size_leaf_vector":"1"}}]},"name":"gbtree"},"learner_model_param":{"base_score":"5.153406E-1","boost_from_average":"1","num_class":"0","num_feature":"19","num_target":"1"},"objective":{"name":"binary:logistic","reg_loss_param":{"scale_pos_weight":"1"}}},"version":[3,0,2]}